digraph Tree {
node [shape=box, style="filled, rounded", color="black", fontname=helvetica] ;
edge [fontname=helvetica] ;
0 [label="iterator-payload-non-cf-cohesion <= 0.025\ngini = 0.388\nsamples = 882\nvalue = [232, 650]\nclass = parallelizable", fillcolor="#399de5a4"] ;
1 [label="payload-mem-dependencies-number-diff <= 0.5\ngini = 0.438\nsamples = 148\nvalue = [100, 48]\nclass = non-parallelizable", fillcolor="#e5813985"] ;
0 -> 1 [labeldistance=2.5, labelangle=45, headlabel="True"] ;
2 [label="payload-cntl-dependencies-number <= 62.0\ngini = 0.496\nsamples = 79\nvalue = [36, 43]\nclass = parallelizable", fillcolor="#399de52a"] ;
1 -> 2 ;
3 [label="iterator-payload-total-cohesion <= 0.138\ngini = 0.448\nsamples = 62\nvalue = [21, 41]\nclass = parallelizable", fillcolor="#399de57c"] ;
2 -> 3 ;
4 [label="critical-payload-non-cf-cohesion <= 0.043\ngini = 0.17\nsamples = 32\nvalue = [3, 29]\nclass = parallelizable", fillcolor="#399de5e5"] ;
3 -> 4 ;
5 [label="critical-payload-total-dependencies-number <= 18.0\ngini = 0.5\nsamples = 6\nvalue = [3, 3]\nclass = non-parallelizable", fillcolor="#e5813900"] ;
4 -> 5 ;
6 [label="(...)", fillcolor="#C0C0C0"] ;
5 -> 6 ;
9 [label="(...)", fillcolor="#C0C0C0"] ;
5 -> 9 ;
10 [label="gini = 0.0\nsamples = 26\nvalue = [0, 26]\nclass = parallelizable", fillcolor="#399de5ff"] ;
4 -> 10 ;
11 [label="loop-depth <= 1.5\ngini = 0.48\nsamples = 30\nvalue = [18, 12]\nclass = non-parallelizable", fillcolor="#e5813955"] ;
3 -> 11 ;
12 [label="gini = 0.0\nsamples = 16\nvalue = [16, 0]\nclass = non-parallelizable", fillcolor="#e58139ff"] ;
11 -> 12 ;
13 [label="payload-output-dependencies-number <= 5.5\ngini = 0.245\nsamples = 14\nvalue = [2, 12]\nclass = parallelizable", fillcolor="#399de5d4"] ;
11 -> 13 ;
14 [label="(...)", fillcolor="#C0C0C0"] ;
13 -> 14 ;
17 [label="(...)", fillcolor="#C0C0C0"] ;
13 -> 17 ;
18 [label="critical-payload-true-dependencies-number <= 10.5\ngini = 0.208\nsamples = 17\nvalue = [15, 2]\nclass = non-parallelizable", fillcolor="#e58139dd"] ;
2 -> 18 ;
19 [label="gini = 0.0\nsamples = 1\nvalue = [0, 1]\nclass = parallelizable", fillcolor="#399de5ff"] ;
18 -> 19 ;
20 [label="iterator-payload-non-cf-cohesion <= 0.021\ngini = 0.117\nsamples = 16\nvalue = [15, 1]\nclass = non-parallelizable", fillcolor="#e58139ee"] ;
18 -> 20 ;
21 [label="gini = 0.0\nsamples = 13\nvalue = [13, 0]\nclass = non-parallelizable", fillcolor="#e58139ff"] ;
20 -> 21 ;
22 [label="iterator-total-dependencies-number <= 9.0\ngini = 0.444\nsamples = 3\nvalue = [2, 1]\nclass = non-parallelizable", fillcolor="#e581397f"] ;
20 -> 22 ;
23 [label="(...)", fillcolor="#C0C0C0"] ;
22 -> 23 ;
24 [label="(...)", fillcolor="#C0C0C0"] ;
22 -> 24 ;
25 [label="critical-payload-non-cf-cohesion <= 0.151\ngini = 0.134\nsamples = 69\nvalue = [64, 5]\nclass = non-parallelizable", fillcolor="#e58139eb"] ;
1 -> 25 ;
26 [label="loop-payload-fraction <= 0.815\ngini = 0.111\nsamples = 68\nvalue = [64, 4]\nclass = non-parallelizable", fillcolor="#e58139ef"] ;
25 -> 26 ;
27 [label="gini = 0.0\nsamples = 1\nvalue = [0, 1]\nclass = parallelizable", fillcolor="#399de5ff"] ;
26 -> 27 ;
28 [label="payload-mem-dependencies-number <= 2.5\ngini = 0.086\nsamples = 67\nvalue = [64, 3]\nclass = non-parallelizable", fillcolor="#e58139f3"] ;
26 -> 28 ;
29 [label="iterator-payload-total-cohesion <= 0.086\ngini = 0.266\nsamples = 19\nvalue = [16, 3]\nclass = non-parallelizable", fillcolor="#e58139cf"] ;
28 -> 29 ;
30 [label="(...)", fillcolor="#C0C0C0"] ;
29 -> 30 ;
35 [label="(...)", fillcolor="#C0C0C0"] ;
29 -> 35 ;
36 [label="gini = 0.0\nsamples = 48\nvalue = [48, 0]\nclass = non-parallelizable", fillcolor="#e58139ff"] ;
28 -> 36 ;
37 [label="gini = 0.0\nsamples = 1\nvalue = [0, 1]\nclass = parallelizable", fillcolor="#399de5ff"] ;
25 -> 37 ;
38 [label="payload-cntl-dependencies-number <= 0.5\ngini = 0.295\nsamples = 734\nvalue = [132, 602]\nclass = parallelizable", fillcolor="#399de5c7"] ;
0 -> 38 [labeldistance=2.5, labelangle=-45, headlabel="False"] ;
39 [label="iterator-payload-non-cf-cohesion <= 0.083\ngini = 0.185\nsamples = 436\nvalue = [45, 391]\nclass = parallelizable", fillcolor="#399de5e2"] ;
38 -> 39 ;
40 [label="iterator-payload-non-cf-cohesion <= 0.034\ngini = 0.145\nsamples = 408\nvalue = [32, 376]\nclass = parallelizable", fillcolor="#399de5e9"] ;
39 -> 40 ;
41 [label="iterator-payload-non-cf-cohesion <= 0.026\ngini = 0.418\nsamples = 47\nvalue = [14, 33]\nclass = parallelizable", fillcolor="#399de593"] ;
40 -> 41 ;
42 [label="gini = 0.0\nsamples = 18\nvalue = [0, 18]\nclass = parallelizable", fillcolor="#399de5ff"] ;
41 -> 42 ;
43 [label="iterator-reg-dependencies-number <= 4.5\ngini = 0.499\nsamples = 29\nvalue = [14, 15]\nclass = parallelizable", fillcolor="#399de511"] ;
41 -> 43 ;
44 [label="(...)", fillcolor="#C0C0C0"] ;
43 -> 44 ;
55 [label="(...)", fillcolor="#C0C0C0"] ;
43 -> 55 ;
56 [label="iterator-payload-total-cohesion <= 0.525\ngini = 0.095\nsamples = 361\nvalue = [18, 343]\nclass = parallelizable", fillcolor="#399de5f2"] ;
40 -> 56 ;
57 [label="iterator-payload-total-cohesion <= 0.424\ngini = 0.09\nsamples = 360\nvalue = [17, 343]\nclass = parallelizable", fillcolor="#399de5f2"] ;
56 -> 57 ;
58 [label="(...)", fillcolor="#C0C0C0"] ;
57 -> 58 ;
85 [label="(...)", fillcolor="#C0C0C0"] ;
57 -> 85 ;
114 [label="gini = 0.0\nsamples = 1\nvalue = [1, 0]\nclass = non-parallelizable", fillcolor="#e58139ff"] ;
56 -> 114 ;
115 [label="iterator-payload-total-cohesion <= 0.448\ngini = 0.497\nsamples = 28\nvalue = [13, 15]\nclass = parallelizable", fillcolor="#399de522"] ;
39 -> 115 ;
116 [label="iterator-true-dependencies-number <= 4.5\ngini = 0.165\nsamples = 11\nvalue = [10, 1]\nclass = non-parallelizable", fillcolor="#e58139e6"] ;
115 -> 116 ;
117 [label="gini = 0.0\nsamples = 8\nvalue = [8, 0]\nclass = non-parallelizable", fillcolor="#e58139ff"] ;
116 -> 117 ;
118 [label="loop-depth <= 1.5\ngini = 0.444\nsamples = 3\nvalue = [2, 1]\nclass = non-parallelizable", fillcolor="#e581397f"] ;
116 -> 118 ;
119 [label="(...)", fillcolor="#C0C0C0"] ;
118 -> 119 ;
120 [label="(...)", fillcolor="#C0C0C0"] ;
118 -> 120 ;
121 [label="loop-absolute-size <= 71.0\ngini = 0.291\nsamples = 17\nvalue = [3, 14]\nclass = parallelizable", fillcolor="#399de5c8"] ;
115 -> 121 ;
122 [label="iterator-payload-non-cf-cohesion <= 0.086\ngini = 0.219\nsamples = 16\nvalue = [2, 14]\nclass = parallelizable", fillcolor="#399de5db"] ;
121 -> 122 ;
123 [label="(...)", fillcolor="#C0C0C0"] ;
122 -> 123 ;
124 [label="(...)", fillcolor="#C0C0C0"] ;
122 -> 124 ;
129 [label="gini = 0.0\nsamples = 1\nvalue = [1, 0]\nclass = non-parallelizable", fillcolor="#e58139ff"] ;
121 -> 129 ;
130 [label="critical-payload-total-cohesion <= 0.22\ngini = 0.413\nsamples = 298\nvalue = [87, 211]\nclass = parallelizable", fillcolor="#399de596"] ;
38 -> 130 ;
131 [label="loop-proper-sccs-ddg-number-diff <= 2.5\ngini = 0.18\nsamples = 40\nvalue = [36, 4]\nclass = non-parallelizable", fillcolor="#e58139e3"] ;
130 -> 131 ;
132 [label="iterator-payload-total-cohesion <= 0.425\ngini = 0.142\nsamples = 39\nvalue = [36, 3]\nclass = non-parallelizable", fillcolor="#e58139ea"] ;
131 -> 132 ;
133 [label="payload-mem-dependencies-number <= 28.0\ngini = 0.102\nsamples = 37\nvalue = [35, 2]\nclass = non-parallelizable", fillcolor="#e58139f0"] ;
132 -> 133 ;
134 [label="(...)", fillcolor="#C0C0C0"] ;
133 -> 134 ;
139 [label="(...)", fillcolor="#C0C0C0"] ;
133 -> 139 ;
142 [label="iterator-reg-dependencies-number <= 4.5\ngini = 0.5\nsamples = 2\nvalue = [1, 1]\nclass = non-parallelizable", fillcolor="#e5813900"] ;
132 -> 142 ;
143 [label="(...)", fillcolor="#C0C0C0"] ;
142 -> 143 ;
144 [label="(...)", fillcolor="#C0C0C0"] ;
142 -> 144 ;
145 [label="gini = 0.0\nsamples = 1\nvalue = [0, 1]\nclass = parallelizable", fillcolor="#399de5ff"] ;
131 -> 145 ;
146 [label="payload-total-dependencies-number <= 41.5\ngini = 0.317\nsamples = 258\nvalue = [51, 207]\nclass = parallelizable", fillcolor="#399de5c0"] ;
130 -> 146 ;
147 [label="loop-absolute-size <= 25.5\ngini = 0.255\nsamples = 20\nvalue = [17, 3]\nclass = non-parallelizable", fillcolor="#e58139d2"] ;
146 -> 147 ;
148 [label="loop-depth <= 1.5\ngini = 0.48\nsamples = 5\nvalue = [2, 3]\nclass = parallelizable", fillcolor="#399de555"] ;
147 -> 148 ;
149 [label="(...)", fillcolor="#C0C0C0"] ;
148 -> 149 ;
152 [label="(...)", fillcolor="#C0C0C0"] ;
148 -> 152 ;
153 [label="gini = 0.0\nsamples = 15\nvalue = [15, 0]\nclass = non-parallelizable", fillcolor="#e58139ff"] ;
147 -> 153 ;
154 [label="iterator-payload-non-cf-cohesion <= 0.026\ngini = 0.245\nsamples = 238\nvalue = [34, 204]\nclass = parallelizable", fillcolor="#399de5d4"] ;
146 -> 154 ;
155 [label="payload-mem-dependencies-number <= 6.5\ngini = 0.43\nsamples = 16\nvalue = [11, 5]\nclass = non-parallelizable", fillcolor="#e581398b"] ;
154 -> 155 ;
156 [label="(...)", fillcolor="#C0C0C0"] ;
155 -> 156 ;
159 [label="(...)", fillcolor="#C0C0C0"] ;
155 -> 159 ;
160 [label="critical-payload-cross-dependencies-number <= 0.5\ngini = 0.186\nsamples = 222\nvalue = [23, 199]\nclass = parallelizable", fillcolor="#399de5e2"] ;
154 -> 160 ;
161 [label="(...)", fillcolor="#C0C0C0"] ;
160 -> 161 ;
198 [label="(...)", fillcolor="#C0C0C0"] ;
160 -> 198 ;
}