digraph Tree {
node [shape=box, style="filled, rounded", color="black", fontname=helvetica] ;
edge [fontname=helvetica] ;
0 [label="iterator-payload-non-cf-cohesion <= 0.034\ngini = 0.488\nsamples = 1278\nvalue = [541, 737]\nclass = parallelizable", fillcolor="#399de544"] ;
1 [label="payload-mem-dependencies-number-diff <= 0.5\ngini = 0.42\nsamples = 531\nvalue = [372, 159]\nclass = non-parallelizable", fillcolor="#e5813992"] ;
0 -> 1 [labeldistance=2.5, labelangle=45, headlabel="True"] ;
2 [label="loop-payload-fraction <= 0.815\ngini = 0.493\nsamples = 330\nvalue = [184, 146]\nclass = non-parallelizable", fillcolor="#e5813935"] ;
1 -> 2 ;
3 [label="critical-payload-total-cohesion <= 0.407\ngini = 0.243\nsamples = 120\nvalue = [103, 17]\nclass = non-parallelizable", fillcolor="#e58139d5"] ;
2 -> 3 ;
4 [label="(...)", fillcolor="#C0C0C0"] ;
3 -> 4 ;
31 [label="(...)", fillcolor="#C0C0C0"] ;
3 -> 31 ;
32 [label="critical-payload-total-dependencies-number <= 33.0\ngini = 0.474\nsamples = 210\nvalue = [81, 129]\nclass = parallelizable", fillcolor="#399de55f"] ;
2 -> 32 ;
33 [label="(...)", fillcolor="#C0C0C0"] ;
32 -> 33 ;
82 [label="(...)", fillcolor="#C0C0C0"] ;
32 -> 82 ;
87 [label="payload-total-dependencies-number <= 33.0\ngini = 0.121\nsamples = 201\nvalue = [188, 13]\nclass = non-parallelizable", fillcolor="#e58139ed"] ;
1 -> 87 ;
88 [label="critical-payload-non-cf-cohesion <= 0.143\ngini = 0.469\nsamples = 32\nvalue = [20, 12]\nclass = non-parallelizable", fillcolor="#e5813966"] ;
87 -> 88 ;
89 [label="(...)", fillcolor="#C0C0C0"] ;
88 -> 89 ;
94 [label="(...)", fillcolor="#C0C0C0"] ;
88 -> 94 ;
103 [label="critical-payload-total-cohesion <= 0.5\ngini = 0.012\nsamples = 169\nvalue = [168, 1]\nclass = non-parallelizable", fillcolor="#e58139fd"] ;
87 -> 103 ;
104 [label="(...)", fillcolor="#C0C0C0"] ;
103 -> 104 ;
105 [label="(...)", fillcolor="#C0C0C0"] ;
103 -> 105 ;
108 [label="iterator-payload-non-cf-cohesion <= 0.083\ngini = 0.35\nsamples = 747\nvalue = [169, 578]\nclass = parallelizable", fillcolor="#399de5b4"] ;
0 -> 108 [labeldistance=2.5, labelangle=-45, headlabel="False"] ;
109 [label="critical-payload-mem-dependencies-number <= 2.5\ngini = 0.285\nsamples = 668\nvalue = [115, 553]\nclass = parallelizable", fillcolor="#399de5ca"] ;
108 -> 109 ;
110 [label="iterator-reg-dependencies-number <= 22.0\ngini = 0.245\nsamples = 636\nvalue = [91, 545]\nclass = parallelizable", fillcolor="#399de5d4"] ;
109 -> 110 ;
111 [label="(...)", fillcolor="#C0C0C0"] ;
110 -> 111 ;
236 [label="(...)", fillcolor="#C0C0C0"] ;
110 -> 236 ;
237 [label="critical-payload-total-dependencies-number <= 65.0\ngini = 0.375\nsamples = 32\nvalue = [24, 8]\nclass = non-parallelizable", fillcolor="#e58139aa"] ;
109 -> 237 ;
238 [label="(...)", fillcolor="#C0C0C0"] ;
237 -> 238 ;
249 [label="(...)", fillcolor="#C0C0C0"] ;
237 -> 249 ;
252 [label="iterator-payload-total-cohesion <= 0.448\ngini = 0.433\nsamples = 79\nvalue = [54, 25]\nclass = non-parallelizable", fillcolor="#e5813989"] ;
108 -> 252 ;
253 [label="iterator-total-dependencies-number <= 9.0\ngini = 0.204\nsamples = 52\nvalue = [46, 6]\nclass = non-parallelizable", fillcolor="#e58139de"] ;
252 -> 253 ;
254 [label="(...)", fillcolor="#C0C0C0"] ;
253 -> 254 ;
257 [label="(...)", fillcolor="#C0C0C0"] ;
253 -> 257 ;
264 [label="critical-payload-total-cohesion <= 0.164\ngini = 0.417\nsamples = 27\nvalue = [8, 19]\nclass = parallelizable", fillcolor="#399de594"] ;
252 -> 264 ;
265 [label="(...)", fillcolor="#C0C0C0"] ;
264 -> 265 ;
276 [label="(...)", fillcolor="#C0C0C0"] ;
264 -> 276 ;
}