digraph Tree {
node [shape=box, style="filled, rounded", color="black", fontname=helvetica] ;
edge [fontname=helvetica] ;
0 [label="iterator-payload-non-cf-cohesion <= 0.034\ngini = 0.488\nsamples = 1278\nvalue = [541, 737]\nclass = parallelizable", fillcolor="#399de544"] ;
1 [label="payload-mem-dependencies-number-diff <= 0.5\ngini = 0.42\nsamples = 531\nvalue = [372, 159]\nclass = non-parallelizable", fillcolor="#e5813992"] ;
0 -> 1 [labeldistance=2.5, labelangle=45, headlabel="True"] ;
2 [label="loop-payload-fraction <= 0.815\ngini = 0.493\nsamples = 330\nvalue = [184, 146]\nclass = non-parallelizable", fillcolor="#e5813935"] ;
1 -> 2 ;
3 [label="critical-payload-total-cohesion <= 0.407\ngini = 0.243\nsamples = 120\nvalue = [103, 17]\nclass = non-parallelizable", fillcolor="#e58139d5"] ;
2 -> 3 ;
4 [label="iterator-payload-non-cf-cohesion <= 0.032\ngini = 0.187\nsamples = 115\nvalue = [103, 12]\nclass = non-parallelizable", fillcolor="#e58139e1"] ;
3 -> 4 ;
5 [label="iterator-branch-fraction <= 0.129\ngini = 0.136\nsamples = 109\nvalue = [101, 8]\nclass = non-parallelizable", fillcolor="#e58139eb"] ;
4 -> 5 ;
6 [label="(...)", fillcolor="#C0C0C0"] ;
5 -> 6 ;
21 [label="(...)", fillcolor="#C0C0C0"] ;
5 -> 21 ;
26 [label="payload-getelemptr-fraction <= 0.199\ngini = 0.444\nsamples = 6\nvalue = [2, 4]\nclass = parallelizable", fillcolor="#399de57f"] ;
4 -> 26 ;
27 [label="(...)", fillcolor="#C0C0C0"] ;
26 -> 27 ;
28 [label="(...)", fillcolor="#C0C0C0"] ;
26 -> 28 ;
29 [label="gini = 0.0\nsamples = 5\nvalue = [0, 5]\nclass = parallelizable", fillcolor="#399de5ff"] ;
3 -> 29 ;
30 [label="payload-mem-write-count <= 1.5\ngini = 0.474\nsamples = 210\nvalue = [81, 129]\nclass = parallelizable", fillcolor="#399de55f"] ;
2 -> 30 ;
31 [label="critical-payload-reg-dependencies-number <= 23.0\ngini = 0.298\nsamples = 110\nvalue = [20, 90]\nclass = parallelizable", fillcolor="#399de5c6"] ;
30 -> 31 ;
32 [label="loop-depth <= 2.5\ngini = 0.245\nsamples = 105\nvalue = [15, 90]\nclass = parallelizable", fillcolor="#399de5d4"] ;
31 -> 32 ;
33 [label="(...)", fillcolor="#C0C0C0"] ;
32 -> 33 ;
38 [label="(...)", fillcolor="#C0C0C0"] ;
32 -> 38 ;
55 [label="gini = 0.0\nsamples = 5\nvalue = [5, 0]\nclass = non-parallelizable", fillcolor="#e58139ff"] ;
31 -> 55 ;
56 [label="payload-mem-dependencies-number <= 1.5\ngini = 0.476\nsamples = 100\nvalue = [61, 39]\nclass = non-parallelizable", fillcolor="#e581395c"] ;
30 -> 56 ;
57 [label="gini = 0.0\nsamples = 30\nvalue = [30, 0]\nclass = non-parallelizable", fillcolor="#e58139ff"] ;
56 -> 57 ;
58 [label="payload-mem-dependencies-number <= 8.5\ngini = 0.493\nsamples = 70\nvalue = [31, 39]\nclass = parallelizable", fillcolor="#399de534"] ;
56 -> 58 ;
59 [label="(...)", fillcolor="#C0C0C0"] ;
58 -> 59 ;
66 [label="(...)", fillcolor="#C0C0C0"] ;
58 -> 66 ;
71 [label="payload-total-dependencies-number <= 33.0\ngini = 0.121\nsamples = 201\nvalue = [188, 13]\nclass = non-parallelizable", fillcolor="#e58139ed"] ;
1 -> 71 ;
72 [label="critical-payload-mem-write-fraction <= 0.146\ngini = 0.469\nsamples = 32\nvalue = [20, 12]\nclass = non-parallelizable", fillcolor="#e5813966"] ;
71 -> 72 ;
73 [label="gini = 0.0\nsamples = 12\nvalue = [12, 0]\nclass = non-parallelizable", fillcolor="#e58139ff"] ;
72 -> 73 ;
74 [label="loop-depth <= 4.5\ngini = 0.48\nsamples = 20\nvalue = [8, 12]\nclass = parallelizable", fillcolor="#399de555"] ;
72 -> 74 ;
75 [label="loop-depth <= 1.5\ngini = 0.415\nsamples = 17\nvalue = [5, 12]\nclass = parallelizable", fillcolor="#399de595"] ;
74 -> 75 ;
76 [label="(...)", fillcolor="#C0C0C0"] ;
75 -> 76 ;
77 [label="(...)", fillcolor="#C0C0C0"] ;
75 -> 77 ;
84 [label="gini = 0.0\nsamples = 3\nvalue = [3, 0]\nclass = non-parallelizable", fillcolor="#e58139ff"] ;
74 -> 84 ;
85 [label="critical-payload-total-cohesion <= 0.5\ngini = 0.012\nsamples = 169\nvalue = [168, 1]\nclass = non-parallelizable", fillcolor="#e58139fd"] ;
71 -> 85 ;
86 [label="gini = 0.0\nsamples = 165\nvalue = [165, 0]\nclass = non-parallelizable", fillcolor="#e58139ff"] ;
85 -> 86 ;
87 [label="loop-proper-sccs-ddg-number <= 5.5\ngini = 0.375\nsamples = 4\nvalue = [3, 1]\nclass = non-parallelizable", fillcolor="#e58139aa"] ;
85 -> 87 ;
88 [label="gini = 0.0\nsamples = 3\nvalue = [3, 0]\nclass = non-parallelizable", fillcolor="#e58139ff"] ;
87 -> 88 ;
89 [label="gini = 0.0\nsamples = 1\nvalue = [0, 1]\nclass = parallelizable", fillcolor="#399de5ff"] ;
87 -> 89 ;
90 [label="payload-mem-read-fraction <= 0.149\ngini = 0.35\nsamples = 747\nvalue = [169, 578]\nclass = parallelizable", fillcolor="#399de5b4"] ;
0 -> 90 [labeldistance=2.5, labelangle=-45, headlabel="False"] ;
91 [label="loop-critical-payload-fraction <= 0.164\ngini = 0.22\nsamples = 589\nvalue = [74, 515]\nclass = parallelizable", fillcolor="#399de5da"] ;
90 -> 91 ;
92 [label="payload-branch-count <= 15.0\ngini = 0.167\nsamples = 543\nvalue = [50, 493]\nclass = parallelizable", fillcolor="#399de5e5"] ;
91 -> 92 ;
93 [label="payload-getelemptr-fraction <= 0.542\ngini = 0.14\nsamples = 529\nvalue = [40, 489]\nclass = parallelizable", fillcolor="#399de5ea"] ;
92 -> 93 ;
94 [label="critical-payload-mem-write-count <= 1.5\ngini = 0.128\nsamples = 525\nvalue = [36, 489]\nclass = parallelizable", fillcolor="#399de5ec"] ;
93 -> 94 ;
95 [label="(...)", fillcolor="#C0C0C0"] ;
94 -> 95 ;
154 [label="(...)", fillcolor="#C0C0C0"] ;
94 -> 154 ;
157 [label="gini = 0.0\nsamples = 4\nvalue = [4, 0]\nclass = non-parallelizable", fillcolor="#e58139ff"] ;
93 -> 157 ;
158 [label="payload-getelemptr-fraction <= 0.325\ngini = 0.408\nsamples = 14\nvalue = [10, 4]\nclass = non-parallelizable", fillcolor="#e5813999"] ;
92 -> 158 ;
159 [label="gini = 0.0\nsamples = 8\nvalue = [8, 0]\nclass = non-parallelizable", fillcolor="#e58139ff"] ;
158 -> 159 ;
160 [label="payload-mem-write-count <= 19.5\ngini = 0.444\nsamples = 6\nvalue = [2, 4]\nclass = parallelizable", fillcolor="#399de57f"] ;
158 -> 160 ;
161 [label="(...)", fillcolor="#C0C0C0"] ;
160 -> 161 ;
162 [label="(...)", fillcolor="#C0C0C0"] ;
160 -> 162 ;
163 [label="loop-critical-payload-fraction <= 0.19\ngini = 0.499\nsamples = 46\nvalue = [24, 22]\nclass = non-parallelizable", fillcolor="#e5813915"] ;
91 -> 163 ;
164 [label="gini = 0.0\nsamples = 8\nvalue = [8, 0]\nclass = non-parallelizable", fillcolor="#e58139ff"] ;
163 -> 164 ;
165 [label="payload-mem-read-fraction <= 0.132\ngini = 0.488\nsamples = 38\nvalue = [16, 22]\nclass = parallelizable", fillcolor="#399de546"] ;
163 -> 165 ;
166 [label="critical-payload-total-cohesion <= 0.211\ngini = 0.498\nsamples = 30\nvalue = [16, 14]\nclass = non-parallelizable", fillcolor="#e5813920"] ;
165 -> 166 ;
167 [label="(...)", fillcolor="#C0C0C0"] ;
166 -> 167 ;
168 [label="(...)", fillcolor="#C0C0C0"] ;
166 -> 168 ;
183 [label="gini = 0.0\nsamples = 8\nvalue = [0, 8]\nclass = parallelizable", fillcolor="#399de5ff"] ;
165 -> 183 ;
184 [label="iterator-payload-total-cohesion <= 0.423\ngini = 0.479\nsamples = 158\nvalue = [95, 63]\nclass = non-parallelizable", fillcolor="#e5813956"] ;
90 -> 184 ;
185 [label="payload-mem-write-fraction <= 0.037\ngini = 0.299\nsamples = 93\nvalue = [76, 17]\nclass = non-parallelizable", fillcolor="#e58139c6"] ;
184 -> 185 ;
186 [label="gini = 0.0\nsamples = 8\nvalue = [0, 8]\nclass = parallelizable", fillcolor="#399de5ff"] ;
185 -> 186 ;
187 [label="iterator-getelemptr-fraction <= 0.155\ngini = 0.189\nsamples = 85\nvalue = [76, 9]\nclass = non-parallelizable", fillcolor="#e58139e1"] ;
185 -> 187 ;
188 [label="critical-payload-non-cf-cohesion <= 0.255\ngini = 0.058\nsamples = 67\nvalue = [65, 2]\nclass = non-parallelizable", fillcolor="#e58139f7"] ;
187 -> 188 ;
189 [label="(...)", fillcolor="#C0C0C0"] ;
188 -> 189 ;
194 [label="(...)", fillcolor="#C0C0C0"] ;
188 -> 194 ;
195 [label="payload-mem-write-fraction <= 0.102\ngini = 0.475\nsamples = 18\nvalue = [11, 7]\nclass = non-parallelizable", fillcolor="#e581395d"] ;
187 -> 195 ;
196 [label="(...)", fillcolor="#C0C0C0"] ;
195 -> 196 ;
199 [label="(...)", fillcolor="#C0C0C0"] ;
195 -> 199 ;
200 [label="critical-payload-mem-read-fraction <= 0.225\ngini = 0.414\nsamples = 65\nvalue = [19, 46]\nclass = parallelizable", fillcolor="#399de596"] ;
184 -> 200 ;
201 [label="payload-mem-read-fraction <= 0.264\ngini = 0.316\nsamples = 56\nvalue = [11, 45]\nclass = parallelizable", fillcolor="#399de5c1"] ;
200 -> 201 ;
202 [label="payload-mem-write-fraction <= 0.122\ngini = 0.208\nsamples = 51\nvalue = [6, 45]\nclass = parallelizable", fillcolor="#399de5dd"] ;
201 -> 202 ;
203 [label="(...)", fillcolor="#C0C0C0"] ;
202 -> 203 ;
214 [label="(...)", fillcolor="#C0C0C0"] ;
202 -> 214 ;
215 [label="gini = 0.0\nsamples = 5\nvalue = [5, 0]\nclass = non-parallelizable", fillcolor="#e58139ff"] ;
201 -> 215 ;
216 [label="iterator-payload-total-cohesion <= 0.441\ngini = 0.198\nsamples = 9\nvalue = [8, 1]\nclass = non-parallelizable", fillcolor="#e58139df"] ;
200 -> 216 ;
217 [label="gini = 0.0\nsamples = 1\nvalue = [0, 1]\nclass = parallelizable", fillcolor="#399de5ff"] ;
216 -> 217 ;
218 [label="gini = 0.0\nsamples = 8\nvalue = [8, 0]\nclass = non-parallelizable", fillcolor="#e58139ff"] ;
216 -> 218 ;
}