digraph Tree {
node [shape=box, style="filled, rounded", color="black", fontname=helvetica] ;
edge [fontname=helvetica] ;
0 [label="payload-call-count <= 0.5\ngini = 0.391\nsamples = 1047\nvalue = [279, 768]\nclass = parallelizable", fillcolor="#399de5a2"] ;
1 [label="critical-payload-output-dependencies-number <= 0.5\ngini = 0.231\nsamples = 834\nvalue = [111, 723]\nclass = parallelizable", fillcolor="#399de5d8"] ;
0 -> 1 [labeldistance=2.5, labelangle=45, headlabel="True"] ;
2 [label="payload-getelemptr-count <= 0.5\ngini = 0.147\nsamples = 738\nvalue = [59, 679]\nclass = parallelizable", fillcolor="#399de5e9"] ;
1 -> 2 ;
3 [label="gini = 0.0\nsamples = 5\nvalue = [5, 0]\nclass = non-parallelizable", fillcolor="#e58139ff"] ;
2 -> 3 ;
4 [label="payload-branch-count <= 21.5\ngini = 0.136\nsamples = 733\nvalue = [54, 679]\nclass = parallelizable", fillcolor="#399de5eb"] ;
2 -> 4 ;
5 [label="loop-proper-sccs-ddg-number-diff <= 3.5\ngini = 0.126\nsamples = 728\nvalue = [49, 679]\nclass = parallelizable", fillcolor="#399de5ed"] ;
4 -> 5 ;
6 [label="payload-output-dependencies-number <= 56.5\ngini = 0.121\nsamples = 726\nvalue = [47, 679]\nclass = parallelizable", fillcolor="#399de5ed"] ;
5 -> 6 ;
7 [label="(...)", fillcolor="#C0C0C0"] ;
6 -> 7 ;
112 [label="(...)", fillcolor="#C0C0C0"] ;
6 -> 112 ;
117 [label="gini = 0.0\nsamples = 2\nvalue = [2, 0]\nclass = non-parallelizable", fillcolor="#e58139ff"] ;
5 -> 117 ;
118 [label="gini = 0.0\nsamples = 5\nvalue = [5, 0]\nclass = non-parallelizable", fillcolor="#e58139ff"] ;
4 -> 118 ;
119 [label="loop-iterator-size <= 4.5\ngini = 0.497\nsamples = 96\nvalue = [52, 44]\nclass = non-parallelizable", fillcolor="#e5813927"] ;
1 -> 119 ;
120 [label="critical-payload-getelemptr-count <= 0.5\ngini = 0.483\nsamples = 66\nvalue = [27, 39]\nclass = parallelizable", fillcolor="#399de54e"] ;
119 -> 120 ;
121 [label="loop-payload-fraction <= 0.86\ngini = 0.375\nsamples = 48\nvalue = [12, 36]\nclass = parallelizable", fillcolor="#399de5aa"] ;
120 -> 121 ;
122 [label="gini = 0.0\nsamples = 3\nvalue = [3, 0]\nclass = non-parallelizable", fillcolor="#e58139ff"] ;
121 -> 122 ;
123 [label="critical-payload-mem-dependencies-number <= 43.0\ngini = 0.32\nsamples = 45\nvalue = [9, 36]\nclass = parallelizable", fillcolor="#399de5bf"] ;
121 -> 123 ;
124 [label="(...)", fillcolor="#C0C0C0"] ;
123 -> 124 ;
147 [label="(...)", fillcolor="#C0C0C0"] ;
123 -> 147 ;
148 [label="critical-payload-total-dependencies-number <= 18.0\ngini = 0.278\nsamples = 18\nvalue = [15, 3]\nclass = non-parallelizable", fillcolor="#e58139cc"] ;
120 -> 148 ;
149 [label="gini = 0.0\nsamples = 3\nvalue = [0, 3]\nclass = parallelizable", fillcolor="#399de5ff"] ;
148 -> 149 ;
150 [label="gini = 0.0\nsamples = 15\nvalue = [15, 0]\nclass = non-parallelizable", fillcolor="#e58139ff"] ;
148 -> 150 ;
151 [label="loop-iterator-size <= 5.5\ngini = 0.278\nsamples = 30\nvalue = [25, 5]\nclass = non-parallelizable", fillcolor="#e58139cc"] ;
119 -> 151 ;
152 [label="critical-payload-total-dependencies-number <= 13.0\ngini = 0.074\nsamples = 26\nvalue = [25, 1]\nclass = non-parallelizable", fillcolor="#e58139f5"] ;
151 -> 152 ;
153 [label="payload-conf-dependencies-number <= 5.5\ngini = 0.245\nsamples = 7\nvalue = [6, 1]\nclass = non-parallelizable", fillcolor="#e58139d4"] ;
152 -> 153 ;
154 [label="(...)", fillcolor="#C0C0C0"] ;
153 -> 154 ;
155 [label="(...)", fillcolor="#C0C0C0"] ;
153 -> 155 ;
156 [label="gini = 0.0\nsamples = 19\nvalue = [19, 0]\nclass = non-parallelizable", fillcolor="#e58139ff"] ;
152 -> 156 ;
157 [label="gini = 0.0\nsamples = 4\nvalue = [0, 4]\nclass = parallelizable", fillcolor="#399de5ff"] ;
151 -> 157 ;
158 [label="loop-proper-sccs-ddg-number-diff <= 2.5\ngini = 0.333\nsamples = 213\nvalue = [168, 45]\nclass = non-parallelizable", fillcolor="#e58139bb"] ;
0 -> 158 [labeldistance=2.5, labelangle=-45, headlabel="False"] ;
159 [label="payload-mem-read-count <= 2.5\ngini = 0.263\nsamples = 193\nvalue = [163, 30]\nclass = non-parallelizable", fillcolor="#e58139d0"] ;
158 -> 159 ;
160 [label="payload-true-dependencies-number <= 15.5\ngini = 0.482\nsamples = 42\nvalue = [25, 17]\nclass = non-parallelizable", fillcolor="#e5813952"] ;
159 -> 160 ;
161 [label="payload-true-dependencies-number <= 10.5\ngini = 0.137\nsamples = 27\nvalue = [25, 2]\nclass = non-parallelizable", fillcolor="#e58139eb"] ;
160 -> 161 ;
162 [label="gini = 0.0\nsamples = 22\nvalue = [22, 0]\nclass = non-parallelizable", fillcolor="#e58139ff"] ;
161 -> 162 ;
163 [label="critical-payload-true-dependencies-number <= 2.0\ngini = 0.48\nsamples = 5\nvalue = [3, 2]\nclass = non-parallelizable", fillcolor="#e5813955"] ;
161 -> 163 ;
164 [label="(...)", fillcolor="#C0C0C0"] ;
163 -> 164 ;
165 [label="(...)", fillcolor="#C0C0C0"] ;
163 -> 165 ;
166 [label="gini = 0.0\nsamples = 15\nvalue = [0, 15]\nclass = parallelizable", fillcolor="#399de5ff"] ;
160 -> 166 ;
167 [label="payload-total-dependencies-number <= 30.0\ngini = 0.157\nsamples = 151\nvalue = [138, 13]\nclass = non-parallelizable", fillcolor="#e58139e7"] ;
159 -> 167 ;
168 [label="payload-true-dependencies-number <= 15.0\ngini = 0.473\nsamples = 13\nvalue = [8, 5]\nclass = non-parallelizable", fillcolor="#e5813960"] ;
167 -> 168 ;
169 [label="gini = 0.0\nsamples = 7\nvalue = [7, 0]\nclass = non-parallelizable", fillcolor="#e58139ff"] ;
168 -> 169 ;
170 [label="payload-getelemptr-count <= 6.5\ngini = 0.278\nsamples = 6\nvalue = [1, 5]\nclass = parallelizable", fillcolor="#399de5cc"] ;
168 -> 170 ;
171 [label="(...)", fillcolor="#C0C0C0"] ;
170 -> 171 ;
174 [label="(...)", fillcolor="#C0C0C0"] ;
170 -> 174 ;
175 [label="payload-output-dependencies-number <= 1.5\ngini = 0.109\nsamples = 138\nvalue = [130, 8]\nclass = non-parallelizable", fillcolor="#e58139ef"] ;
167 -> 175 ;
176 [label="gini = 0.0\nsamples = 72\nvalue = [72, 0]\nclass = non-parallelizable", fillcolor="#e58139ff"] ;
175 -> 176 ;
177 [label="payload-mem-read-count <= 6.5\ngini = 0.213\nsamples = 66\nvalue = [58, 8]\nclass = non-parallelizable", fillcolor="#e58139dc"] ;
175 -> 177 ;
178 [label="(...)", fillcolor="#C0C0C0"] ;
177 -> 178 ;
183 [label="(...)", fillcolor="#C0C0C0"] ;
177 -> 183 ;
190 [label="payload-mem-dependencies-number-diff <= 0.5\ngini = 0.375\nsamples = 20\nvalue = [5, 15]\nclass = parallelizable", fillcolor="#399de5aa"] ;
158 -> 190 ;
191 [label="loop-iterator-size <= 5.5\ngini = 0.117\nsamples = 16\nvalue = [1, 15]\nclass = parallelizable", fillcolor="#399de5ee"] ;
190 -> 191 ;
192 [label="gini = 0.0\nsamples = 15\nvalue = [0, 15]\nclass = parallelizable", fillcolor="#399de5ff"] ;
191 -> 192 ;
193 [label="gini = 0.0\nsamples = 1\nvalue = [1, 0]\nclass = non-parallelizable", fillcolor="#e58139ff"] ;
191 -> 193 ;
194 [label="gini = 0.0\nsamples = 4\nvalue = [4, 0]\nclass = non-parallelizable", fillcolor="#e58139ff"] ;
190 -> 194 ;
}