digraph Tree {
node [shape=box, style="filled, rounded", color="black", fontname=helvetica] ;
edge [fontname=helvetica] ;
0 [label="payload-call-fraction <= 0.028\ngini = 0.416\nsamples = 1400\nvalue = [413, 987]\nclass = parallelizable", fillcolor="#399de594"] ;
1 [label="iterator-payload-non-cf-cohesion <= 0.021\ngini = 0.322\nsamples = 1163\nvalue = [235, 928]\nclass = parallelizable", fillcolor="#399de5be"] ;
0 -> 1 [labeldistance=2.5, labelangle=45, headlabel="True"] ;
2 [label="iterator-branch-fraction <= 0.211\ngini = 0.483\nsamples = 211\nvalue = [125, 86]\nclass = non-parallelizable", fillcolor="#e5813950"] ;
1 -> 2 ;
3 [label="iterator-getelemptr-fraction <= 0.137\ngini = 0.485\nsamples = 121\nvalue = [50, 71]\nclass = parallelizable", fillcolor="#399de54b"] ;
2 -> 3 ;
4 [label="(...)", fillcolor="#C0C0C0"] ;
3 -> 4 ;
21 [label="(...)", fillcolor="#C0C0C0"] ;
3 -> 21 ;
32 [label="payload-branch-fraction <= 0.045\ngini = 0.278\nsamples = 90\nvalue = [75, 15]\nclass = non-parallelizable", fillcolor="#e58139cc"] ;
2 -> 32 ;
33 [label="(...)", fillcolor="#C0C0C0"] ;
32 -> 33 ;
34 [label="(...)", fillcolor="#C0C0C0"] ;
32 -> 34 ;
49 [label="critical-payload-getelemptr-count <= 1.5\ngini = 0.204\nsamples = 952\nvalue = [110, 842]\nclass = parallelizable", fillcolor="#399de5de"] ;
1 -> 49 ;
50 [label="payload-mem-dependencies-number <= 5.5\ngini = 0.18\nsamples = 932\nvalue = [93, 839]\nclass = parallelizable", fillcolor="#399de5e3"] ;
49 -> 50 ;
51 [label="(...)", fillcolor="#C0C0C0"] ;
50 -> 51 ;
128 [label="(...)", fillcolor="#C0C0C0"] ;
50 -> 128 ;
167 [label="critical-payload-non-cf-cohesion <= 0.15\ngini = 0.255\nsamples = 20\nvalue = [17, 3]\nclass = non-parallelizable", fillcolor="#e58139d2"] ;
49 -> 167 ;
168 [label="(...)", fillcolor="#C0C0C0"] ;
167 -> 168 ;
171 [label="(...)", fillcolor="#C0C0C0"] ;
167 -> 171 ;
172 [label="payload-mem-read-fraction <= 0.096\ngini = 0.374\nsamples = 237\nvalue = [178, 59]\nclass = non-parallelizable", fillcolor="#e58139aa"] ;
0 -> 172 [labeldistance=2.5, labelangle=-45, headlabel="False"] ;
173 [label="iterator-payload-non-cf-cohesion <= 0.053\ngini = 0.389\nsamples = 34\nvalue = [9, 25]\nclass = parallelizable", fillcolor="#399de5a3"] ;
172 -> 173 ;
174 [label="iterator-true-dependencies-number <= 6.0\ngini = 0.238\nsamples = 29\nvalue = [4, 25]\nclass = parallelizable", fillcolor="#399de5d6"] ;
173 -> 174 ;
175 [label="(...)", fillcolor="#C0C0C0"] ;
174 -> 175 ;
178 [label="(...)", fillcolor="#C0C0C0"] ;
174 -> 178 ;
179 [label="gini = 0.0\nsamples = 5\nvalue = [5, 0]\nclass = non-parallelizable", fillcolor="#e58139ff"] ;
173 -> 179 ;
180 [label="payload-branch-count <= 16.5\ngini = 0.279\nsamples = 203\nvalue = [169, 34]\nclass = non-parallelizable", fillcolor="#e58139cc"] ;
172 -> 180 ;
181 [label="iterator-payload-non-cf-cohesion <= 0.033\ngini = 0.228\nsamples = 183\nvalue = [159, 24]\nclass = non-parallelizable", fillcolor="#e58139d9"] ;
180 -> 181 ;
182 [label="(...)", fillcolor="#C0C0C0"] ;
181 -> 182 ;
187 [label="(...)", fillcolor="#C0C0C0"] ;
181 -> 187 ;
212 [label="loop-critical-payload-fraction <= 0.196\ngini = 0.5\nsamples = 20\nvalue = [10, 10]\nclass = non-parallelizable", fillcolor="#e5813900"] ;
180 -> 212 ;
213 [label="(...)", fillcolor="#C0C0C0"] ;
212 -> 213 ;
220 [label="(...)", fillcolor="#C0C0C0"] ;
212 -> 220 ;
}