digraph Tree {
node [shape=box, style="filled, rounded", color="black", fontname=helvetica] ;
edge [fontname=helvetica] ;
0 [label="payload-call-fraction <= 0.028\ngini = 0.416\nsamples = 1400\nvalue = [413, 987]\nclass = parallelizable", fillcolor="#399de594"] ;
1 [label="iterator-payload-non-cf-cohesion <= 0.021\ngini = 0.322\nsamples = 1163\nvalue = [235, 928]\nclass = parallelizable", fillcolor="#399de5be"] ;
0 -> 1 [labeldistance=2.5, labelangle=45, headlabel="True"] ;
2 [label="critical-payload-branch-fraction <= 0.211\ngini = 0.483\nsamples = 211\nvalue = [125, 86]\nclass = non-parallelizable", fillcolor="#e5813950"] ;
1 -> 2 ;
3 [label="iterator-getelemptr-fraction <= 0.137\ngini = 0.485\nsamples = 121\nvalue = [50, 71]\nclass = parallelizable", fillcolor="#399de54b"] ;
2 -> 3 ;
4 [label="(...)", fillcolor="#C0C0C0"] ;
3 -> 4 ;
21 [label="(...)", fillcolor="#C0C0C0"] ;
3 -> 21 ;
34 [label="payload-branch-fraction <= 0.045\ngini = 0.278\nsamples = 90\nvalue = [75, 15]\nclass = non-parallelizable", fillcolor="#e58139cc"] ;
2 -> 34 ;
35 [label="(...)", fillcolor="#C0C0C0"] ;
34 -> 35 ;
36 [label="(...)", fillcolor="#C0C0C0"] ;
34 -> 36 ;
51 [label="critical-payload-getelemptr-count <= 1.5\ngini = 0.204\nsamples = 952\nvalue = [110, 842]\nclass = parallelizable", fillcolor="#399de5de"] ;
1 -> 51 ;
52 [label="payload-mem-dependencies-number <= 5.5\ngini = 0.18\nsamples = 932\nvalue = [93, 839]\nclass = parallelizable", fillcolor="#399de5e3"] ;
51 -> 52 ;
53 [label="(...)", fillcolor="#C0C0C0"] ;
52 -> 53 ;
130 [label="(...)", fillcolor="#C0C0C0"] ;
52 -> 130 ;
171 [label="critical-payload-non-cf-cohesion <= 0.15\ngini = 0.255\nsamples = 20\nvalue = [17, 3]\nclass = non-parallelizable", fillcolor="#e58139d2"] ;
51 -> 171 ;
172 [label="(...)", fillcolor="#C0C0C0"] ;
171 -> 172 ;
177 [label="(...)", fillcolor="#C0C0C0"] ;
171 -> 177 ;
178 [label="payload-mem-read-fraction <= 0.096\ngini = 0.374\nsamples = 237\nvalue = [178, 59]\nclass = non-parallelizable", fillcolor="#e58139aa"] ;
0 -> 178 [labeldistance=2.5, labelangle=-45, headlabel="False"] ;
179 [label="iterator-payload-non-cf-cohesion <= 0.053\ngini = 0.389\nsamples = 34\nvalue = [9, 25]\nclass = parallelizable", fillcolor="#399de5a3"] ;
178 -> 179 ;
180 [label="iterator-mem-read-fraction <= 0.243\ngini = 0.238\nsamples = 29\nvalue = [4, 25]\nclass = parallelizable", fillcolor="#399de5d6"] ;
179 -> 180 ;
181 [label="(...)", fillcolor="#C0C0C0"] ;
180 -> 181 ;
184 [label="(...)", fillcolor="#C0C0C0"] ;
180 -> 184 ;
185 [label="gini = 0.0\nsamples = 5\nvalue = [5, 0]\nclass = non-parallelizable", fillcolor="#e58139ff"] ;
179 -> 185 ;
186 [label="payload-branch-count <= 16.5\ngini = 0.279\nsamples = 203\nvalue = [169, 34]\nclass = non-parallelizable", fillcolor="#e58139cc"] ;
178 -> 186 ;
187 [label="iterator-payload-non-cf-cohesion <= 0.033\ngini = 0.228\nsamples = 183\nvalue = [159, 24]\nclass = non-parallelizable", fillcolor="#e58139d9"] ;
186 -> 187 ;
188 [label="(...)", fillcolor="#C0C0C0"] ;
187 -> 188 ;
193 [label="(...)", fillcolor="#C0C0C0"] ;
187 -> 193 ;
218 [label="loop-critical-payload-fraction <= 0.196\ngini = 0.5\nsamples = 20\nvalue = [10, 10]\nclass = non-parallelizable", fillcolor="#e5813900"] ;
186 -> 218 ;
219 [label="(...)", fillcolor="#C0C0C0"] ;
218 -> 219 ;
226 [label="(...)", fillcolor="#C0C0C0"] ;
218 -> 226 ;
}