digraph Tree {
node [shape=box, style="filled, rounded", color="black", fontname=helvetica] ;
edge [fontname=helvetica] ;
0 [label="payload-call-count <= 0.5\ngini = 0.416\nsamples = 1400\nvalue = [413, 987]\nclass = parallelizable", fillcolor="#399de594"] ;
1 [label="payload-getelemptr-count <= 0.5\ngini = 0.306\nsamples = 1073\nvalue = [202, 871]\nclass = parallelizable", fillcolor="#399de5c4"] ;
0 -> 1 [labeldistance=2.5, labelangle=45, headlabel="True"] ;
2 [label="loop-payload-fraction <= 0.207\ngini = 0.309\nsamples = 68\nvalue = [55, 13]\nclass = non-parallelizable", fillcolor="#e58139c3"] ;
1 -> 2 ;
3 [label="iterator-mem-write-count <= 0.5\ngini = 0.482\nsamples = 32\nvalue = [19, 13]\nclass = non-parallelizable", fillcolor="#e5813951"] ;
2 -> 3 ;
4 [label="gini = 0.0\nsamples = 10\nvalue = [10, 0]\nclass = non-parallelizable", fillcolor="#e58139ff"] ;
3 -> 4 ;
5 [label="loop-payload-fraction <= 0.117\ngini = 0.483\nsamples = 22\nvalue = [9, 13]\nclass = parallelizable", fillcolor="#399de54e"] ;
3 -> 5 ;
6 [label="iterator-mem-read-count <= 2.5\ngini = 0.397\nsamples = 11\nvalue = [8, 3]\nclass = non-parallelizable", fillcolor="#e581399f"] ;
5 -> 6 ;
7 [label="(...)", fillcolor="#C0C0C0"] ;
6 -> 7 ;
8 [label="(...)", fillcolor="#C0C0C0"] ;
6 -> 8 ;
17 [label="iterator-mem-write-count <= 2.5\ngini = 0.165\nsamples = 11\nvalue = [1, 10]\nclass = parallelizable", fillcolor="#399de5e6"] ;
5 -> 17 ;
18 [label="(...)", fillcolor="#C0C0C0"] ;
17 -> 18 ;
19 [label="(...)", fillcolor="#C0C0C0"] ;
17 -> 19 ;
22 [label="gini = 0.0\nsamples = 36\nvalue = [36, 0]\nclass = non-parallelizable", fillcolor="#e58139ff"] ;
2 -> 22 ;
23 [label="critical-payload-output-dependencies-number <= 0.5\ngini = 0.25\nsamples = 1005\nvalue = [147, 858]\nclass = parallelizable", fillcolor="#399de5d3"] ;
1 -> 23 ;
24 [label="loop-proper-sccs-ddg-number-diff <= 3.5\ngini = 0.158\nsamples = 843\nvalue = [73, 770]\nclass = parallelizable", fillcolor="#399de5e7"] ;
23 -> 24 ;
25 [label="payload-branch-count <= 17.5\ngini = 0.14\nsamples = 833\nvalue = [63, 770]\nclass = parallelizable", fillcolor="#399de5ea"] ;
24 -> 25 ;
26 [label="iterator-branch-count <= 2.0\ngini = 0.113\nsamples = 802\nvalue = [48, 754]\nclass = parallelizable", fillcolor="#399de5ef"] ;
25 -> 26 ;
27 [label="(...)", fillcolor="#C0C0C0"] ;
26 -> 27 ;
136 [label="(...)", fillcolor="#C0C0C0"] ;
26 -> 136 ;
137 [label="payload-true-dependencies-number <= 1136.0\ngini = 0.499\nsamples = 31\nvalue = [15, 16]\nclass = parallelizable", fillcolor="#399de510"] ;
25 -> 137 ;
138 [label="(...)", fillcolor="#C0C0C0"] ;
137 -> 138 ;
145 [label="(...)", fillcolor="#C0C0C0"] ;
137 -> 145 ;
146 [label="gini = 0.0\nsamples = 10\nvalue = [10, 0]\nclass = non-parallelizable", fillcolor="#e58139ff"] ;
24 -> 146 ;
147 [label="critical-payload-getelemptr-count <= 1.5\ngini = 0.496\nsamples = 162\nvalue = [74, 88]\nclass = parallelizable", fillcolor="#399de529"] ;
23 -> 147 ;
148 [label="payload-total-dependencies-number <= 38.5\ngini = 0.473\nsamples = 138\nvalue = [53, 85]\nclass = parallelizable", fillcolor="#399de560"] ;
147 -> 148 ;
149 [label="loop-proper-sccs-ddg-number <= 2.5\ngini = 0.255\nsamples = 40\nvalue = [6, 34]\nclass = parallelizable", fillcolor="#399de5d2"] ;
148 -> 149 ;
150 [label="(...)", fillcolor="#C0C0C0"] ;
149 -> 150 ;
163 [label="(...)", fillcolor="#C0C0C0"] ;
149 -> 163 ;
164 [label="payload-getelemptr-count <= 30.5\ngini = 0.499\nsamples = 98\nvalue = [47, 51]\nclass = parallelizable", fillcolor="#399de514"] ;
148 -> 164 ;
165 [label="(...)", fillcolor="#C0C0C0"] ;
164 -> 165 ;
190 [label="(...)", fillcolor="#C0C0C0"] ;
164 -> 190 ;
207 [label="loop-proper-sccs-number-diff <= 1.5\ngini = 0.219\nsamples = 24\nvalue = [21, 3]\nclass = non-parallelizable", fillcolor="#e58139db"] ;
147 -> 207 ;
208 [label="loop-proper-sccs-ddg-number-diff <= 1.5\ngini = 0.087\nsamples = 22\nvalue = [21, 1]\nclass = non-parallelizable", fillcolor="#e58139f3"] ;
207 -> 208 ;
209 [label="(...)", fillcolor="#C0C0C0"] ;
208 -> 209 ;
210 [label="(...)", fillcolor="#C0C0C0"] ;
208 -> 210 ;
213 [label="gini = 0.0\nsamples = 2\nvalue = [0, 2]\nclass = parallelizable", fillcolor="#399de5ff"] ;
207 -> 213 ;
214 [label="loop-inner-loop-num <= 1.5\ngini = 0.458\nsamples = 327\nvalue = [211, 116]\nclass = non-parallelizable", fillcolor="#e5813973"] ;
0 -> 214 [labeldistance=2.5, labelangle=-45, headlabel="False"] ;
215 [label="loop-payload-fraction <= 0.699\ngini = 0.353\nsamples = 205\nvalue = [158, 47]\nclass = non-parallelizable", fillcolor="#e58139b3"] ;
214 -> 215 ;
216 [label="payload-total-dependencies-number <= 2.5\ngini = 0.036\nsamples = 55\nvalue = [54, 1]\nclass = non-parallelizable", fillcolor="#e58139fa"] ;
215 -> 216 ;
217 [label="loop-payload-fraction <= 0.497\ngini = 0.105\nsamples = 18\nvalue = [17, 1]\nclass = non-parallelizable", fillcolor="#e58139f0"] ;
216 -> 217 ;
218 [label="gini = 0.0\nsamples = 16\nvalue = [16, 0]\nclass = non-parallelizable", fillcolor="#e58139ff"] ;
217 -> 218 ;
219 [label="gini = 0.5\nsamples = 2\nvalue = [1, 1]\nclass = non-parallelizable", fillcolor="#e5813900"] ;
217 -> 219 ;
220 [label="gini = 0.0\nsamples = 37\nvalue = [37, 0]\nclass = non-parallelizable", fillcolor="#e58139ff"] ;
216 -> 220 ;
221 [label="payload-mem-read-count <= 2.5\ngini = 0.425\nsamples = 150\nvalue = [104, 46]\nclass = non-parallelizable", fillcolor="#e581398e"] ;
215 -> 221 ;
222 [label="payload-reg-dependencies-number <= 11.0\ngini = 0.412\nsamples = 31\nvalue = [9, 22]\nclass = parallelizable", fillcolor="#399de597"] ;
221 -> 222 ;
223 [label="payload-getelemptr-count <= 4.5\ngini = 0.298\nsamples = 11\nvalue = [9, 2]\nclass = non-parallelizable", fillcolor="#e58139c6"] ;
222 -> 223 ;
224 [label="(...)", fillcolor="#C0C0C0"] ;
223 -> 224 ;
225 [label="(...)", fillcolor="#C0C0C0"] ;
223 -> 225 ;
226 [label="gini = 0.0\nsamples = 20\nvalue = [0, 20]\nclass = parallelizable", fillcolor="#399de5ff"] ;
222 -> 226 ;
227 [label="payload-true-dependencies-number <= 29.5\ngini = 0.322\nsamples = 119\nvalue = [95, 24]\nclass = non-parallelizable", fillcolor="#e58139bf"] ;
221 -> 227 ;
228 [label="loop-payload-fraction <= 0.86\ngini = 0.467\nsamples = 43\nvalue = [27, 16]\nclass = non-parallelizable", fillcolor="#e5813968"] ;
227 -> 228 ;
229 [label="(...)", fillcolor="#C0C0C0"] ;
228 -> 229 ;
240 [label="(...)", fillcolor="#C0C0C0"] ;
228 -> 240 ;
245 [label="payload-reg-dependencies-number <= 59.5\ngini = 0.188\nsamples = 76\nvalue = [68, 8]\nclass = non-parallelizable", fillcolor="#e58139e1"] ;
227 -> 245 ;
246 [label="(...)", fillcolor="#C0C0C0"] ;
245 -> 246 ;
255 [label="(...)", fillcolor="#C0C0C0"] ;
245 -> 255 ;
262 [label="payload-mem-dependencies-number <= 4.0\ngini = 0.491\nsamples = 122\nvalue = [53, 69]\nclass = parallelizable", fillcolor="#399de53b"] ;
214 -> 262 ;
263 [label="loop-proper-sccs-ddg-number <= 6.5\ngini = 0.392\nsamples = 56\nvalue = [15, 41]\nclass = parallelizable", fillcolor="#399de5a2"] ;
262 -> 263 ;
264 [label="payload-call-count <= 2.5\ngini = 0.469\nsamples = 40\nvalue = [15, 25]\nclass = parallelizable", fillcolor="#399de566"] ;
263 -> 264 ;
265 [label="payload-mem-dependencies-number-diff <= 0.5\ngini = 0.219\nsamples = 24\nvalue = [3, 21]\nclass = parallelizable", fillcolor="#399de5db"] ;
264 -> 265 ;
266 [label="(...)", fillcolor="#C0C0C0"] ;
265 -> 266 ;
267 [label="(...)", fillcolor="#C0C0C0"] ;
265 -> 267 ;
270 [label="critical-payload-reg-dependencies-number <= 23.5\ngini = 0.375\nsamples = 16\nvalue = [12, 4]\nclass = non-parallelizable", fillcolor="#e58139aa"] ;
264 -> 270 ;
271 [label="(...)", fillcolor="#C0C0C0"] ;
270 -> 271 ;
274 [label="(...)", fillcolor="#C0C0C0"] ;
270 -> 274 ;
275 [label="gini = 0.0\nsamples = 16\nvalue = [0, 16]\nclass = parallelizable", fillcolor="#399de5ff"] ;
263 -> 275 ;
276 [label="payload-reg-dependencies-number <= 933.0\ngini = 0.489\nsamples = 66\nvalue = [38, 28]\nclass = non-parallelizable", fillcolor="#e5813943"] ;
262 -> 276 ;
277 [label="loop-iterator-size <= 5.5\ngini = 0.4\nsamples = 47\nvalue = [34, 13]\nclass = non-parallelizable", fillcolor="#e581399e"] ;
276 -> 277 ;
278 [label="iterator-mem-read-count <= 0.5\ngini = 0.48\nsamples = 30\nvalue = [18, 12]\nclass = non-parallelizable", fillcolor="#e5813955"] ;
277 -> 278 ;
279 [label="(...)", fillcolor="#C0C0C0"] ;
278 -> 279 ;
286 [label="(...)", fillcolor="#C0C0C0"] ;
278 -> 286 ;
289 [label="payload-mem-read-count <= 17.5\ngini = 0.111\nsamples = 17\nvalue = [16, 1]\nclass = non-parallelizable", fillcolor="#e58139ef"] ;
277 -> 289 ;
290 [label="(...)", fillcolor="#C0C0C0"] ;
289 -> 290 ;
293 [label="(...)", fillcolor="#C0C0C0"] ;
289 -> 293 ;
294 [label="critical-payload-branch-count <= 6.5\ngini = 0.332\nsamples = 19\nvalue = [4, 15]\nclass = parallelizable", fillcolor="#399de5bb"] ;
276 -> 294 ;
295 [label="gini = 0.0\nsamples = 3\nvalue = [3, 0]\nclass = non-parallelizable", fillcolor="#e58139ff"] ;
294 -> 295 ;
296 [label="payload-mem-dependencies-number <= 1237.5\ngini = 0.117\nsamples = 16\nvalue = [1, 15]\nclass = parallelizable", fillcolor="#399de5ee"] ;
294 -> 296 ;
297 [label="(...)", fillcolor="#C0C0C0"] ;
296 -> 297 ;
298 [label="(...)", fillcolor="#C0C0C0"] ;
296 -> 298 ;
}