digraph Tree {
node [shape=box, style="filled, rounded", color="black", fontname=helvetica] ;
edge [fontname=helvetica] ;
0 [label="payload-call-fraction <= 0.001\ngini = 0.462\nsamples = 907\nvalue = [329, 578]\nclass = parallelizable", fillcolor="#399de56e"] ;
1 [label="loop-critical-payload-fraction <= 0.26\ngini = 0.368\nsamples = 732\nvalue = [178, 554]\nclass = parallelizable", fillcolor="#399de5ad"] ;
0 -> 1 [labeldistance=2.5, labelangle=45, headlabel="True"] ;
2 [label="critical-payload-reg-dependencies-number <= 15.5\ngini = 0.307\nsamples = 629\nvalue = [119, 510]\nclass = parallelizable", fillcolor="#399de5c4"] ;
1 -> 2 ;
3 [label="payload-branch-fraction <= 0.124\ngini = 0.245\nsamples = 553\nvalue = [79, 474]\nclass = parallelizable", fillcolor="#399de5d4"] ;
2 -> 3 ;
4 [label="(...)", fillcolor="#C0C0C0"] ;
3 -> 4 ;
51 [label="(...)", fillcolor="#C0C0C0"] ;
3 -> 51 ;
120 [label="iterator-mem-read-count <= 0.5\ngini = 0.499\nsamples = 76\nvalue = [40, 36]\nclass = non-parallelizable", fillcolor="#e5813919"] ;
2 -> 120 ;
121 [label="(...)", fillcolor="#C0C0C0"] ;
120 -> 121 ;
130 [label="(...)", fillcolor="#C0C0C0"] ;
120 -> 130 ;
139 [label="iterator-mem-read-fraction <= 0.16\ngini = 0.489\nsamples = 103\nvalue = [59, 44]\nclass = non-parallelizable", fillcolor="#e5813941"] ;
1 -> 139 ;
140 [label="loop-depth <= 2.5\ngini = 0.334\nsamples = 66\nvalue = [52, 14]\nclass = non-parallelizable", fillcolor="#e58139ba"] ;
139 -> 140 ;
141 [label="(...)", fillcolor="#C0C0C0"] ;
140 -> 141 ;
158 [label="(...)", fillcolor="#C0C0C0"] ;
140 -> 158 ;
159 [label="payload-branch-fraction <= 0.276\ngini = 0.307\nsamples = 37\nvalue = [7, 30]\nclass = parallelizable", fillcolor="#399de5c4"] ;
139 -> 159 ;
160 [label="(...)", fillcolor="#C0C0C0"] ;
159 -> 160 ;
161 [label="(...)", fillcolor="#C0C0C0"] ;
159 -> 161 ;
176 [label="payload-reg-dependencies-number <= 161.0\ngini = 0.237\nsamples = 175\nvalue = [151, 24]\nclass = non-parallelizable", fillcolor="#e58139d6"] ;
0 -> 176 [labeldistance=2.5, labelangle=-45, headlabel="False"] ;
177 [label="loop-critical-payload-fraction <= 0.356\ngini = 0.134\nsamples = 152\nvalue = [141, 11]\nclass = non-parallelizable", fillcolor="#e58139eb"] ;
176 -> 177 ;
178 [label="payload-mem-write-fraction <= 0.027\ngini = 0.102\nsamples = 149\nvalue = [141, 8]\nclass = non-parallelizable", fillcolor="#e58139f1"] ;
177 -> 178 ;
179 [label="(...)", fillcolor="#C0C0C0"] ;
178 -> 179 ;
180 [label="(...)", fillcolor="#C0C0C0"] ;
178 -> 180 ;
187 [label="gini = 0.0\nsamples = 3\nvalue = [0, 3]\nclass = parallelizable", fillcolor="#399de5ff"] ;
177 -> 187 ;
188 [label="payload-output-dependencies-number <= 8.5\ngini = 0.491\nsamples = 23\nvalue = [10, 13]\nclass = parallelizable", fillcolor="#399de53b"] ;
176 -> 188 ;
189 [label="gini = 0.0\nsamples = 13\nvalue = [0, 13]\nclass = parallelizable", fillcolor="#399de5ff"] ;
188 -> 189 ;
190 [label="gini = 0.0\nsamples = 10\nvalue = [10, 0]\nclass = non-parallelizable", fillcolor="#e58139ff"] ;
188 -> 190 ;
}