digraph Tree {
node [shape=box, style="filled, rounded", color="black", fontname=helvetica] ;
edge [fontname=helvetica] ;
0 [label="payload-call-count <= 0.5\ngini = 0.462\nsamples = 907\nvalue = [329, 578]\nclass = parallelizable", fillcolor="#399de56e"] ;
1 [label="iterator-payload-non-cf-cohesion <= 0.032\ngini = 0.368\nsamples = 732\nvalue = [178, 554]\nclass = parallelizable", fillcolor="#399de5ad"] ;
0 -> 1 [labeldistance=2.5, labelangle=45, headlabel="True"] ;
2 [label="iterator-mem-read-fraction <= 0.16\ngini = 0.494\nsamples = 202\nvalue = [112, 90]\nclass = non-parallelizable", fillcolor="#e5813932"] ;
1 -> 2 ;
3 [label="critical-payload-mem-read-count <= 3.5\ngini = 0.363\nsamples = 126\nvalue = [96, 30]\nclass = non-parallelizable", fillcolor="#e58139af"] ;
2 -> 3 ;
4 [label="(...)", fillcolor="#C0C0C0"] ;
3 -> 4 ;
41 [label="(...)", fillcolor="#C0C0C0"] ;
3 -> 41 ;
42 [label="payload-mem-dependencies-number <= 11.0\ngini = 0.332\nsamples = 76\nvalue = [16, 60]\nclass = parallelizable", fillcolor="#399de5bb"] ;
2 -> 42 ;
43 [label="(...)", fillcolor="#C0C0C0"] ;
42 -> 43 ;
60 [label="(...)", fillcolor="#C0C0C0"] ;
42 -> 60 ;
61 [label="loop-critical-payload-fraction <= 0.321\ngini = 0.218\nsamples = 530\nvalue = [66, 464]\nclass = parallelizable", fillcolor="#399de5db"] ;
1 -> 61 ;
62 [label="loop-payload-fraction <= 0.515\ngini = 0.189\nsamples = 511\nvalue = [54, 457]\nclass = parallelizable", fillcolor="#399de5e1"] ;
61 -> 62 ;
63 [label="(...)", fillcolor="#C0C0C0"] ;
62 -> 63 ;
68 [label="(...)", fillcolor="#C0C0C0"] ;
62 -> 68 ;
141 [label="iterator-payload-total-cohesion <= 0.227\ngini = 0.465\nsamples = 19\nvalue = [12, 7]\nclass = non-parallelizable", fillcolor="#e581396a"] ;
61 -> 141 ;
142 [label="(...)", fillcolor="#C0C0C0"] ;
141 -> 142 ;
143 [label="(...)", fillcolor="#C0C0C0"] ;
141 -> 143 ;
150 [label="payload-reg-dependencies-number <= 161.0\ngini = 0.237\nsamples = 175\nvalue = [151, 24]\nclass = non-parallelizable", fillcolor="#e58139d6"] ;
0 -> 150 [labeldistance=2.5, labelangle=-45, headlabel="False"] ;
151 [label="loop-critical-payload-fraction <= 0.356\ngini = 0.134\nsamples = 152\nvalue = [141, 11]\nclass = non-parallelizable", fillcolor="#e58139eb"] ;
150 -> 151 ;
152 [label="iterator-payload-non-cf-cohesion <= 0.102\ngini = 0.102\nsamples = 149\nvalue = [141, 8]\nclass = non-parallelizable", fillcolor="#e58139f1"] ;
151 -> 152 ;
153 [label="(...)", fillcolor="#C0C0C0"] ;
152 -> 153 ;
162 [label="(...)", fillcolor="#C0C0C0"] ;
152 -> 162 ;
165 [label="gini = 0.0\nsamples = 3\nvalue = [0, 3]\nclass = parallelizable", fillcolor="#399de5ff"] ;
151 -> 165 ;
166 [label="payload-output-dependencies-number <= 8.5\ngini = 0.491\nsamples = 23\nvalue = [10, 13]\nclass = parallelizable", fillcolor="#399de53b"] ;
150 -> 166 ;
167 [label="gini = 0.0\nsamples = 13\nvalue = [0, 13]\nclass = parallelizable", fillcolor="#399de5ff"] ;
166 -> 167 ;
168 [label="gini = 0.0\nsamples = 10\nvalue = [10, 0]\nclass = non-parallelizable", fillcolor="#e58139ff"] ;
166 -> 168 ;
}