digraph Tree {
node [shape=box, style="filled, rounded", color="black", fontname=helvetica] ;
edge [fontname=helvetica] ;
0 [label="iterator-payload-non-cf-cohesion <= 0.032\ngini = 0.463\nsamples = 1096\nvalue = [398, 698]\nclass = parallelizable", fillcolor="#399de56e"] ;
1 [label="payload-mem-dependencies-number <= 4.5\ngini = 0.448\nsamples = 380\nvalue = [251, 129]\nclass = non-parallelizable", fillcolor="#e581397c"] ;
0 -> 1 [labeldistance=2.5, labelangle=45, headlabel="True"] ;
2 [label="iterator-payload-total-cohesion <= 0.138\ngini = 0.492\nsamples = 264\nvalue = [149, 115]\nclass = non-parallelizable", fillcolor="#e581393a"] ;
1 -> 2 ;
3 [label="iterator-payload-non-cf-cohesion <= 0.021\ngini = 0.47\nsamples = 135\nvalue = [51, 84]\nclass = parallelizable", fillcolor="#399de564"] ;
2 -> 3 ;
4 [label="critical-payload-total-cohesion <= 0.379\ngini = 0.471\nsamples = 58\nvalue = [36, 22]\nclass = non-parallelizable", fillcolor="#e5813963"] ;
3 -> 4 ;
5 [label="iterator-payload-non-cf-cohesion <= 0.01\ngini = 0.363\nsamples = 21\nvalue = [5, 16]\nclass = parallelizable", fillcolor="#399de5af"] ;
4 -> 5 ;
6 [label="(...)", fillcolor="#C0C0C0"] ;
5 -> 6 ;
7 [label="(...)", fillcolor="#C0C0C0"] ;
5 -> 7 ;
14 [label="iterator-payload-total-cohesion <= 0.13\ngini = 0.272\nsamples = 37\nvalue = [31, 6]\nclass = non-parallelizable", fillcolor="#e58139ce"] ;
4 -> 14 ;
15 [label="(...)", fillcolor="#C0C0C0"] ;
14 -> 15 ;
22 [label="(...)", fillcolor="#C0C0C0"] ;
14 -> 22 ;
23 [label="iterator-payload-non-cf-cohesion <= 0.032\ngini = 0.314\nsamples = 77\nvalue = [15, 62]\nclass = parallelizable", fillcolor="#399de5c1"] ;
3 -> 23 ;
24 [label="loop-critical-payload-fraction <= 0.11\ngini = 0.227\nsamples = 69\nvalue = [9, 60]\nclass = parallelizable", fillcolor="#399de5d9"] ;
23 -> 24 ;
25 [label="(...)", fillcolor="#C0C0C0"] ;
24 -> 25 ;
28 [label="(...)", fillcolor="#C0C0C0"] ;
24 -> 28 ;
41 [label="payload-output-dependencies-number <= 3.0\ngini = 0.375\nsamples = 8\nvalue = [6, 2]\nclass = non-parallelizable", fillcolor="#e58139aa"] ;
23 -> 41 ;
42 [label="(...)", fillcolor="#C0C0C0"] ;
41 -> 42 ;
43 [label="(...)", fillcolor="#C0C0C0"] ;
41 -> 43 ;
44 [label="loop-absolute-size <= 95.5\ngini = 0.365\nsamples = 129\nvalue = [98, 31]\nclass = non-parallelizable", fillcolor="#e58139ae"] ;
2 -> 44 ;
45 [label="payload-total-dependencies-number <= 34.0\ngini = 0.31\nsamples = 120\nvalue = [97, 23]\nclass = non-parallelizable", fillcolor="#e58139c3"] ;
44 -> 45 ;
46 [label="critical-payload-total-cohesion <= 0.212\ngini = 0.451\nsamples = 64\nvalue = [42, 22]\nclass = non-parallelizable", fillcolor="#e5813979"] ;
45 -> 46 ;
47 [label="(...)", fillcolor="#C0C0C0"] ;
46 -> 47 ;
62 [label="(...)", fillcolor="#C0C0C0"] ;
46 -> 62 ;
67 [label="payload-reg-dependencies-number <= 20.5\ngini = 0.035\nsamples = 56\nvalue = [55, 1]\nclass = non-parallelizable", fillcolor="#e58139fa"] ;
45 -> 67 ;
68 [label="(...)", fillcolor="#C0C0C0"] ;
67 -> 68 ;
69 [label="(...)", fillcolor="#C0C0C0"] ;
67 -> 69 ;
70 [label="critical-payload-reg-dependencies-number <= 23.0\ngini = 0.198\nsamples = 9\nvalue = [1, 8]\nclass = parallelizable", fillcolor="#399de5df"] ;
44 -> 70 ;
71 [label="gini = 0.0\nsamples = 8\nvalue = [0, 8]\nclass = parallelizable", fillcolor="#399de5ff"] ;
70 -> 71 ;
72 [label="gini = 0.0\nsamples = 1\nvalue = [1, 0]\nclass = non-parallelizable", fillcolor="#e58139ff"] ;
70 -> 72 ;
73 [label="iterator-payload-non-cf-cohesion <= 0.025\ngini = 0.212\nsamples = 116\nvalue = [102, 14]\nclass = non-parallelizable", fillcolor="#e58139dc"] ;
1 -> 73 ;
74 [label="critical-payload-output-dependencies-number <= 0.5\ngini = 0.024\nsamples = 82\nvalue = [81, 1]\nclass = non-parallelizable", fillcolor="#e58139fc"] ;
73 -> 74 ;
75 [label="critical-payload-non-cf-cohesion <= 0.066\ngini = 0.165\nsamples = 11\nvalue = [10, 1]\nclass = non-parallelizable", fillcolor="#e58139e6"] ;
74 -> 75 ;
76 [label="gini = 0.0\nsamples = 10\nvalue = [10, 0]\nclass = non-parallelizable", fillcolor="#e58139ff"] ;
75 -> 76 ;
77 [label="gini = 0.0\nsamples = 1\nvalue = [0, 1]\nclass = parallelizable", fillcolor="#399de5ff"] ;
75 -> 77 ;
78 [label="gini = 0.0\nsamples = 71\nvalue = [71, 0]\nclass = non-parallelizable", fillcolor="#e58139ff"] ;
74 -> 78 ;
79 [label="iterator-payload-non-cf-cohesion <= 0.025\ngini = 0.472\nsamples = 34\nvalue = [21, 13]\nclass = non-parallelizable", fillcolor="#e5813961"] ;
73 -> 79 ;
80 [label="gini = 0.0\nsamples = 6\nvalue = [0, 6]\nclass = parallelizable", fillcolor="#399de5ff"] ;
79 -> 80 ;
81 [label="critical-payload-mem-dependencies-number <= 2.5\ngini = 0.375\nsamples = 28\nvalue = [21, 7]\nclass = non-parallelizable", fillcolor="#e58139aa"] ;
79 -> 81 ;
82 [label="critical-payload-non-cf-cohesion <= 0.035\ngini = 0.346\nsamples = 9\nvalue = [2, 7]\nclass = parallelizable", fillcolor="#399de5b6"] ;
81 -> 82 ;
83 [label="(...)", fillcolor="#C0C0C0"] ;
82 -> 83 ;
84 [label="(...)", fillcolor="#C0C0C0"] ;
82 -> 84 ;
85 [label="gini = 0.0\nsamples = 19\nvalue = [19, 0]\nclass = non-parallelizable", fillcolor="#e58139ff"] ;
81 -> 85 ;
86 [label="iterator-payload-total-cohesion <= 0.437\ngini = 0.326\nsamples = 716\nvalue = [147, 569]\nclass = parallelizable", fillcolor="#399de5bd"] ;
0 -> 86 [labeldistance=2.5, labelangle=-45, headlabel="False"] ;
87 [label="critical-payload-total-cohesion <= 0.464\ngini = 0.417\nsamples = 358\nvalue = [106, 252]\nclass = parallelizable", fillcolor="#399de594"] ;
86 -> 87 ;
88 [label="iterator-payload-non-cf-cohesion <= 0.086\ngini = 0.482\nsamples = 244\nvalue = [99, 145]\nclass = parallelizable", fillcolor="#399de551"] ;
87 -> 88 ;
89 [label="iterator-payload-total-cohesion <= 0.402\ngini = 0.47\nsamples = 231\nvalue = [87, 144]\nclass = parallelizable", fillcolor="#399de565"] ;
88 -> 89 ;
90 [label="critical-payload-non-cf-cohesion <= 0.098\ngini = 0.49\nsamples = 188\nvalue = [81, 107]\nclass = parallelizable", fillcolor="#399de53e"] ;
89 -> 90 ;
91 [label="(...)", fillcolor="#C0C0C0"] ;
90 -> 91 ;
140 [label="(...)", fillcolor="#C0C0C0"] ;
90 -> 140 ;
161 [label="iterator-payload-non-cf-cohesion <= 0.042\ngini = 0.24\nsamples = 43\nvalue = [6, 37]\nclass = parallelizable", fillcolor="#399de5d6"] ;
89 -> 161 ;
162 [label="(...)", fillcolor="#C0C0C0"] ;
161 -> 162 ;
167 [label="(...)", fillcolor="#C0C0C0"] ;
161 -> 167 ;
176 [label="payload-anti-dependencies-number <= 0.5\ngini = 0.142\nsamples = 13\nvalue = [12, 1]\nclass = non-parallelizable", fillcolor="#e58139ea"] ;
88 -> 176 ;
177 [label="gini = 0.0\nsamples = 12\nvalue = [12, 0]\nclass = non-parallelizable", fillcolor="#e58139ff"] ;
176 -> 177 ;
178 [label="gini = 0.0\nsamples = 1\nvalue = [0, 1]\nclass = parallelizable", fillcolor="#399de5ff"] ;
176 -> 178 ;
179 [label="payload-mem-dependencies-number <= 32.5\ngini = 0.115\nsamples = 114\nvalue = [7, 107]\nclass = parallelizable", fillcolor="#399de5ee"] ;
87 -> 179 ;
180 [label="critical-payload-non-cf-cohesion <= 0.04\ngini = 0.054\nsamples = 108\nvalue = [3, 105]\nclass = parallelizable", fillcolor="#399de5f8"] ;
179 -> 180 ;
181 [label="gini = 0.0\nsamples = 1\nvalue = [1, 0]\nclass = non-parallelizable", fillcolor="#e58139ff"] ;
180 -> 181 ;
182 [label="payload-cross-dependencies-number <= 2.0\ngini = 0.037\nsamples = 107\nvalue = [2, 105]\nclass = parallelizable", fillcolor="#399de5fa"] ;
180 -> 182 ;
183 [label="(...)", fillcolor="#C0C0C0"] ;
182 -> 183 ;
186 [label="(...)", fillcolor="#C0C0C0"] ;
182 -> 186 ;
189 [label="loop-absolute-size <= 172.5\ngini = 0.444\nsamples = 6\nvalue = [4, 2]\nclass = non-parallelizable", fillcolor="#e581397f"] ;
179 -> 189 ;
190 [label="gini = 0.0\nsamples = 3\nvalue = [3, 0]\nclass = non-parallelizable", fillcolor="#e58139ff"] ;
189 -> 190 ;
191 [label="payload-cross-dependencies-number <= 9.0\ngini = 0.444\nsamples = 3\nvalue = [1, 2]\nclass = parallelizable", fillcolor="#399de57f"] ;
189 -> 191 ;
192 [label="(...)", fillcolor="#C0C0C0"] ;
191 -> 192 ;
193 [label="(...)", fillcolor="#C0C0C0"] ;
191 -> 193 ;
194 [label="loop-critical-payload-fraction <= 0.25\ngini = 0.203\nsamples = 358\nvalue = [41, 317]\nclass = parallelizable", fillcolor="#399de5de"] ;
86 -> 194 ;
195 [label="iterator-payload-non-cf-cohesion <= 0.034\ngini = 0.184\nsamples = 352\nvalue = [36, 316]\nclass = parallelizable", fillcolor="#399de5e2"] ;
194 -> 195 ;
196 [label="iterator-payload-non-cf-cohesion <= 0.033\ngini = 0.5\nsamples = 10\nvalue = [5, 5]\nclass = non-parallelizable", fillcolor="#e5813900"] ;
195 -> 196 ;
197 [label="gini = 0.0\nsamples = 5\nvalue = [0, 5]\nclass = parallelizable", fillcolor="#399de5ff"] ;
196 -> 197 ;
198 [label="gini = 0.0\nsamples = 5\nvalue = [5, 0]\nclass = non-parallelizable", fillcolor="#e58139ff"] ;
196 -> 198 ;
199 [label="critical-payload-total-dependencies-number <= 1.0\ngini = 0.165\nsamples = 342\nvalue = [31, 311]\nclass = parallelizable", fillcolor="#399de5e6"] ;
195 -> 199 ;
200 [label="loop-absolute-size <= 22.5\ngini = 0.249\nsamples = 178\nvalue = [26, 152]\nclass = parallelizable", fillcolor="#399de5d3"] ;
199 -> 200 ;
201 [label="(...)", fillcolor="#C0C0C0"] ;
200 -> 201 ;
206 [label="(...)", fillcolor="#C0C0C0"] ;
200 -> 206 ;
241 [label="critical-payload-total-cohesion <= 0.126\ngini = 0.059\nsamples = 164\nvalue = [5, 159]\nclass = parallelizable", fillcolor="#399de5f7"] ;
199 -> 241 ;
242 [label="(...)", fillcolor="#C0C0C0"] ;
241 -> 242 ;
247 [label="(...)", fillcolor="#C0C0C0"] ;
241 -> 247 ;
258 [label="payload-true-dependencies-number <= 49.5\ngini = 0.278\nsamples = 6\nvalue = [5, 1]\nclass = non-parallelizable", fillcolor="#e58139cc"] ;
194 -> 258 ;
259 [label="gini = 0.0\nsamples = 3\nvalue = [3, 0]\nclass = non-parallelizable", fillcolor="#e58139ff"] ;
258 -> 259 ;
260 [label="gini = 0.444\nsamples = 3\nvalue = [2, 1]\nclass = non-parallelizable", fillcolor="#e581397f"] ;
258 -> 260 ;
}