digraph Tree {
node [shape=box, style="filled, rounded", color="black", fontname=helvetica] ;
edge [fontname=helvetica] ;
0 [label="payload-call-count <= 0.5\ngini = 0.493\nsamples = 1349\nvalue = [597, 752]\nclass = parallelizable", fillcolor="#399de535"] ;
1 [label="iterator-payload-non-cf-cohesion <= 0.034\ngini = 0.423\nsamples = 1039\nvalue = [316, 723]\nclass = parallelizable", fillcolor="#399de590"] ;
0 -> 1 [labeldistance=2.5, labelangle=45, headlabel="True"] ;
2 [label="critical-payload-true-dependencies-number <= 21.5\ngini = 0.473\nsamples = 385\nvalue = [237, 148]\nclass = non-parallelizable", fillcolor="#e5813960"] ;
1 -> 2 ;
3 [label="critical-payload-total-cohesion <= 0.212\ngini = 0.498\nsamples = 315\nvalue = [168, 147]\nclass = non-parallelizable", fillcolor="#e5813920"] ;
2 -> 3 ;
4 [label="(...)", fillcolor="#C0C0C0"] ;
3 -> 4 ;
41 [label="(...)", fillcolor="#C0C0C0"] ;
3 -> 41 ;
84 [label="critical-payload-total-cohesion <= 0.5\ngini = 0.028\nsamples = 70\nvalue = [69, 1]\nclass = non-parallelizable", fillcolor="#e58139fb"] ;
2 -> 84 ;
85 [label="(...)", fillcolor="#C0C0C0"] ;
84 -> 85 ;
86 [label="(...)", fillcolor="#C0C0C0"] ;
84 -> 86 ;
89 [label="loop-payload-fraction <= 0.515\ngini = 0.212\nsamples = 654\nvalue = [79, 575]\nclass = parallelizable", fillcolor="#399de5dc"] ;
1 -> 89 ;
90 [label="iterator-branch-fraction <= 0.102\ngini = 0.375\nsamples = 16\nvalue = [12, 4]\nclass = non-parallelizable", fillcolor="#e58139aa"] ;
89 -> 90 ;
91 [label="(...)", fillcolor="#C0C0C0"] ;
90 -> 91 ;
94 [label="(...)", fillcolor="#C0C0C0"] ;
90 -> 94 ;
97 [label="loop-critical-payload-fraction <= 0.359\ngini = 0.188\nsamples = 638\nvalue = [67, 571]\nclass = parallelizable", fillcolor="#399de5e1"] ;
89 -> 97 ;
98 [label="(...)", fillcolor="#C0C0C0"] ;
97 -> 98 ;
183 [label="(...)", fillcolor="#C0C0C0"] ;
97 -> 183 ;
192 [label="payload-mem-write-fraction <= 0.047\ngini = 0.17\nsamples = 310\nvalue = [281, 29]\nclass = non-parallelizable", fillcolor="#e58139e5"] ;
0 -> 192 [labeldistance=2.5, labelangle=-45, headlabel="False"] ;
193 [label="payload-call-count <= 4.5\ngini = 0.386\nsamples = 65\nvalue = [48, 17]\nclass = non-parallelizable", fillcolor="#e58139a5"] ;
192 -> 193 ;
194 [label="payload-call-fraction <= 0.046\ngini = 0.204\nsamples = 52\nvalue = [46, 6]\nclass = non-parallelizable", fillcolor="#e58139de"] ;
193 -> 194 ;
195 [label="(...)", fillcolor="#C0C0C0"] ;
194 -> 195 ;
204 [label="(...)", fillcolor="#C0C0C0"] ;
194 -> 204 ;
205 [label="payload-mem-dependencies-number <= 33.5\ngini = 0.26\nsamples = 13\nvalue = [2, 11]\nclass = parallelizable", fillcolor="#399de5d1"] ;
193 -> 205 ;
206 [label="(...)", fillcolor="#C0C0C0"] ;
205 -> 206 ;
207 [label="(...)", fillcolor="#C0C0C0"] ;
205 -> 207 ;
208 [label="critical-payload-non-cf-cohesion <= 0.152\ngini = 0.093\nsamples = 245\nvalue = [233, 12]\nclass = non-parallelizable", fillcolor="#e58139f2"] ;
192 -> 208 ;
209 [label="iterator-payload-total-cohesion <= 0.522\ngini = 0.057\nsamples = 237\nvalue = [230, 7]\nclass = non-parallelizable", fillcolor="#e58139f7"] ;
208 -> 209 ;
210 [label="(...)", fillcolor="#C0C0C0"] ;
209 -> 210 ;
223 [label="(...)", fillcolor="#C0C0C0"] ;
209 -> 223 ;
226 [label="payload-getelemptr-fraction <= 0.273\ngini = 0.469\nsamples = 8\nvalue = [3, 5]\nclass = parallelizable", fillcolor="#399de566"] ;
208 -> 226 ;
227 [label="(...)", fillcolor="#C0C0C0"] ;
226 -> 227 ;
228 [label="(...)", fillcolor="#C0C0C0"] ;
226 -> 228 ;
}