digraph Tree {
node [shape=box, style="filled, rounded", color="black", fontname=helvetica] ;
edge [fontname=helvetica] ;
0 [label="iterator-payload-non-cf-cohesion <= 0.026\ngini = 0.49\nsamples = 1349\nvalue = [577, 772]\nclass = parallelizable", fillcolor="#399de540"] ;
1 [label="payload-mem-dependencies-number-diff <= 0.5\ngini = 0.322\nsamples = 372\nvalue = [297, 75]\nclass = non-parallelizable", fillcolor="#e58139bf"] ;
0 -> 1 [labeldistance=2.5, labelangle=45, headlabel="True"] ;
2 [label="payload-total-dependencies-number <= 16.0\ngini = 0.453\nsamples = 213\nvalue = [139, 74]\nclass = non-parallelizable", fillcolor="#e5813977"] ;
1 -> 2 ;
3 [label="iterator-conf-dependencies-number <= 0.5\ngini = 0.164\nsamples = 89\nvalue = [81, 8]\nclass = non-parallelizable", fillcolor="#e58139e6"] ;
2 -> 3 ;
4 [label="gini = 0.0\nsamples = 66\nvalue = [66, 0]\nclass = non-parallelizable", fillcolor="#e58139ff"] ;
3 -> 4 ;
5 [label="loop-depth <= 1.5\ngini = 0.454\nsamples = 23\nvalue = [15, 8]\nclass = non-parallelizable", fillcolor="#e5813977"] ;
3 -> 5 ;
6 [label="iterator-mem-dependencies-number <= 1.5\ngini = 0.305\nsamples = 16\nvalue = [13, 3]\nclass = non-parallelizable", fillcolor="#e58139c4"] ;
5 -> 6 ;
7 [label="(...)", fillcolor="#C0C0C0"] ;
6 -> 7 ;
8 [label="(...)", fillcolor="#C0C0C0"] ;
6 -> 8 ;
13 [label="loop-proper-sccs-number-diff <= -0.5\ngini = 0.408\nsamples = 7\nvalue = [2, 5]\nclass = parallelizable", fillcolor="#399de599"] ;
5 -> 13 ;
14 [label="(...)", fillcolor="#C0C0C0"] ;
13 -> 14 ;
19 [label="(...)", fillcolor="#C0C0C0"] ;
13 -> 19 ;
20 [label="payload-cntl-dependencies-number <= 62.0\ngini = 0.498\nsamples = 124\nvalue = [58, 66]\nclass = parallelizable", fillcolor="#399de51f"] ;
2 -> 20 ;
21 [label="loop-iterator-size <= 7.5\ngini = 0.422\nsamples = 86\nvalue = [26, 60]\nclass = parallelizable", fillcolor="#399de591"] ;
20 -> 21 ;
22 [label="iterator-payload-total-cohesion <= 0.124\ngini = 0.365\nsamples = 79\nvalue = [19, 60]\nclass = parallelizable", fillcolor="#399de5ae"] ;
21 -> 22 ;
23 [label="(...)", fillcolor="#C0C0C0"] ;
22 -> 23 ;
26 [label="(...)", fillcolor="#C0C0C0"] ;
22 -> 26 ;
37 [label="gini = 0.0\nsamples = 7\nvalue = [7, 0]\nclass = non-parallelizable", fillcolor="#e58139ff"] ;
21 -> 37 ;
38 [label="critical-payload-non-cf-cohesion <= 0.067\ngini = 0.266\nsamples = 38\nvalue = [32, 6]\nclass = non-parallelizable", fillcolor="#e58139cf"] ;
20 -> 38 ;
39 [label="loop-depth <= 3.5\ngini = 0.071\nsamples = 27\nvalue = [26, 1]\nclass = non-parallelizable", fillcolor="#e58139f5"] ;
38 -> 39 ;
40 [label="(...)", fillcolor="#C0C0C0"] ;
39 -> 40 ;
41 [label="(...)", fillcolor="#C0C0C0"] ;
39 -> 41 ;
42 [label="iterator-payload-total-cohesion <= 0.061\ngini = 0.496\nsamples = 11\nvalue = [6, 5]\nclass = non-parallelizable", fillcolor="#e581392a"] ;
38 -> 42 ;
43 [label="(...)", fillcolor="#C0C0C0"] ;
42 -> 43 ;
46 [label="(...)", fillcolor="#C0C0C0"] ;
42 -> 46 ;
47 [label="payload-total-dependencies-number <= 18.0\ngini = 0.012\nsamples = 159\nvalue = [158, 1]\nclass = non-parallelizable", fillcolor="#e58139fd"] ;
1 -> 47 ;
48 [label="payload-true-dependencies-number <= 10.0\ngini = 0.444\nsamples = 3\nvalue = [2, 1]\nclass = non-parallelizable", fillcolor="#e581397f"] ;
47 -> 48 ;
49 [label="gini = 0.0\nsamples = 2\nvalue = [2, 0]\nclass = non-parallelizable", fillcolor="#e58139ff"] ;
48 -> 49 ;
50 [label="gini = 0.0\nsamples = 1\nvalue = [0, 1]\nclass = parallelizable", fillcolor="#399de5ff"] ;
48 -> 50 ;
51 [label="gini = 0.0\nsamples = 156\nvalue = [156, 0]\nclass = non-parallelizable", fillcolor="#e58139ff"] ;
47 -> 51 ;
52 [label="payload-conf-dependencies-number <= 2.5\ngini = 0.409\nsamples = 977\nvalue = [280, 697]\nclass = parallelizable", fillcolor="#399de599"] ;
0 -> 52 [labeldistance=2.5, labelangle=-45, headlabel="False"] ;
53 [label="iterator-payload-non-cf-cohesion <= 0.083\ngini = 0.38\nsamples = 922\nvalue = [235, 687]\nclass = parallelizable", fillcolor="#399de5a8"] ;
52 -> 53 ;
54 [label="iterator-payload-non-cf-cohesion <= 0.035\ngini = 0.342\nsamples = 846\nvalue = [185, 661]\nclass = parallelizable", fillcolor="#399de5b8"] ;
53 -> 54 ;
55 [label="critical-payload-total-cohesion <= 0.412\ngini = 0.494\nsamples = 184\nvalue = [82, 102]\nclass = parallelizable", fillcolor="#399de532"] ;
54 -> 55 ;
56 [label="iterator-payload-total-cohesion <= 0.324\ngini = 0.454\nsamples = 86\nvalue = [56, 30]\nclass = non-parallelizable", fillcolor="#e5813976"] ;
55 -> 56 ;
57 [label="(...)", fillcolor="#C0C0C0"] ;
56 -> 57 ;
64 [label="(...)", fillcolor="#C0C0C0"] ;
56 -> 64 ;
95 [label="critical-payload-reg-dependencies-number <= 35.0\ngini = 0.39\nsamples = 98\nvalue = [26, 72]\nclass = parallelizable", fillcolor="#399de5a3"] ;
55 -> 95 ;
96 [label="(...)", fillcolor="#C0C0C0"] ;
95 -> 96 ;
123 [label="(...)", fillcolor="#C0C0C0"] ;
95 -> 123 ;
124 [label="iterator-cntl-dependencies-number <= 12.0\ngini = 0.263\nsamples = 662\nvalue = [103, 559]\nclass = parallelizable", fillcolor="#399de5d0"] ;
54 -> 124 ;
125 [label="iterator-payload-total-cohesion <= 0.423\ngini = 0.246\nsamples = 653\nvalue = [94, 559]\nclass = parallelizable", fillcolor="#399de5d4"] ;
124 -> 125 ;
126 [label="(...)", fillcolor="#C0C0C0"] ;
125 -> 126 ;
199 [label="(...)", fillcolor="#C0C0C0"] ;
125 -> 199 ;
258 [label="gini = 0.0\nsamples = 9\nvalue = [9, 0]\nclass = non-parallelizable", fillcolor="#e58139ff"] ;
124 -> 258 ;
259 [label="iterator-payload-total-cohesion <= 0.448\ngini = 0.45\nsamples = 76\nvalue = [50, 26]\nclass = non-parallelizable", fillcolor="#e581397a"] ;
53 -> 259 ;
260 [label="iterator-cntl-dependencies-number <= 7.0\ngini = 0.219\nsamples = 48\nvalue = [42, 6]\nclass = non-parallelizable", fillcolor="#e58139db"] ;
259 -> 260 ;
261 [label="payload-cross-dependencies-number <= 0.5\ngini = 0.127\nsamples = 44\nvalue = [41, 3]\nclass = non-parallelizable", fillcolor="#e58139ec"] ;
260 -> 261 ;
262 [label="(...)", fillcolor="#C0C0C0"] ;
261 -> 262 ;
269 [label="(...)", fillcolor="#C0C0C0"] ;
261 -> 269 ;
270 [label="loop-inner-loop-num <= 1.0\ngini = 0.375\nsamples = 4\nvalue = [1, 3]\nclass = parallelizable", fillcolor="#399de5aa"] ;
260 -> 270 ;
271 [label="(...)", fillcolor="#C0C0C0"] ;
270 -> 271 ;
272 [label="(...)", fillcolor="#C0C0C0"] ;
270 -> 272 ;
273 [label="critical-payload-total-dependencies-number <= 2.5\ngini = 0.408\nsamples = 28\nvalue = [8, 20]\nclass = parallelizable", fillcolor="#399de599"] ;
259 -> 273 ;
274 [label="loop-absolute-size <= 58.0\ngini = 0.278\nsamples = 24\nvalue = [4, 20]\nclass = parallelizable", fillcolor="#399de5cc"] ;
273 -> 274 ;
275 [label="(...)", fillcolor="#C0C0C0"] ;
274 -> 275 ;
284 [label="(...)", fillcolor="#C0C0C0"] ;
274 -> 284 ;
285 [label="gini = 0.0\nsamples = 4\nvalue = [4, 0]\nclass = non-parallelizable", fillcolor="#e58139ff"] ;
273 -> 285 ;
286 [label="critical-payload-non-cf-cohesion <= 0.155\ngini = 0.298\nsamples = 55\nvalue = [45, 10]\nclass = non-parallelizable", fillcolor="#e58139c6"] ;
52 -> 286 ;
287 [label="iterator-payload-total-cohesion <= 0.486\ngini = 0.051\nsamples = 38\nvalue = [37, 1]\nclass = non-parallelizable", fillcolor="#e58139f8"] ;
286 -> 287 ;
288 [label="gini = 0.0\nsamples = 33\nvalue = [33, 0]\nclass = non-parallelizable", fillcolor="#e58139ff"] ;
287 -> 288 ;
289 [label="iterator-total-dependencies-number <= 9.0\ngini = 0.32\nsamples = 5\nvalue = [4, 1]\nclass = non-parallelizable", fillcolor="#e58139bf"] ;
287 -> 289 ;
290 [label="gini = 0.0\nsamples = 4\nvalue = [4, 0]\nclass = non-parallelizable", fillcolor="#e58139ff"] ;
289 -> 290 ;
291 [label="gini = 0.0\nsamples = 1\nvalue = [0, 1]\nclass = parallelizable", fillcolor="#399de5ff"] ;
289 -> 291 ;
292 [label="payload-mem-dependencies-number <= 68.0\ngini = 0.498\nsamples = 17\nvalue = [8, 9]\nclass = parallelizable", fillcolor="#399de51c"] ;
286 -> 292 ;
293 [label="iterator-payload-non-cf-cohesion <= 0.053\ngini = 0.459\nsamples = 14\nvalue = [5, 9]\nclass = parallelizable", fillcolor="#399de571"] ;
292 -> 293 ;
294 [label="gini = 0.0\nsamples = 6\nvalue = [0, 6]\nclass = parallelizable", fillcolor="#399de5ff"] ;
293 -> 294 ;
295 [label="payload-output-dependencies-number <= 1.5\ngini = 0.469\nsamples = 8\nvalue = [5, 3]\nclass = non-parallelizable", fillcolor="#e5813966"] ;
293 -> 295 ;
296 [label="(...)", fillcolor="#C0C0C0"] ;
295 -> 296 ;
299 [label="(...)", fillcolor="#C0C0C0"] ;
295 -> 299 ;
300 [label="gini = 0.0\nsamples = 3\nvalue = [3, 0]\nclass = non-parallelizable", fillcolor="#e58139ff"] ;
292 -> 300 ;
}