digraph Tree {
node [shape=box, style="filled, rounded", color="black", fontname=helvetica] ;
edge [fontname=helvetica] ;
0 [label="payload-call-count <= 0.5\ngini = 0.493\nsamples = 1325\nvalue = [584, 741]\nclass = parallelizable", fillcolor="#399de536"] ;
1 [label="iterator-payload-non-cf-cohesion <= 0.034\ngini = 0.423\nsamples = 1023\nvalue = [311, 712]\nclass = parallelizable", fillcolor="#399de590"] ;
0 -> 1 [labeldistance=2.5, labelangle=45, headlabel="True"] ;
2 [label="critical-payload-true-dependencies-number <= 21.5\ngini = 0.472\nsamples = 380\nvalue = [235, 145]\nclass = non-parallelizable", fillcolor="#e5813962"] ;
1 -> 2 ;
3 [label="critical-payload-total-cohesion <= 0.212\ngini = 0.497\nsamples = 310\nvalue = [166, 144]\nclass = non-parallelizable", fillcolor="#e5813922"] ;
2 -> 3 ;
4 [label="payload-output-dependencies-number <= 1.5\ngini = 0.353\nsamples = 153\nvalue = [118, 35]\nclass = non-parallelizable", fillcolor="#e58139b3"] ;
3 -> 4 ;
5 [label="iterator-payload-non-cf-cohesion <= 0.031\ngini = 0.257\nsamples = 132\nvalue = [112, 20]\nclass = non-parallelizable", fillcolor="#e58139d1"] ;
4 -> 5 ;
6 [label="(...)", fillcolor="#C0C0C0"] ;
5 -> 6 ;
19 [label="(...)", fillcolor="#C0C0C0"] ;
5 -> 19 ;
32 [label="critical-payload-non-cf-cohesion <= 0.067\ngini = 0.408\nsamples = 21\nvalue = [6, 15]\nclass = parallelizable", fillcolor="#399de599"] ;
4 -> 32 ;
33 [label="(...)", fillcolor="#C0C0C0"] ;
32 -> 33 ;
38 [label="(...)", fillcolor="#C0C0C0"] ;
32 -> 38 ;
39 [label="critical-payload-cntl-dependencies-number <= 3.5\ngini = 0.425\nsamples = 157\nvalue = [48, 109]\nclass = parallelizable", fillcolor="#399de58f"] ;
3 -> 39 ;
40 [label="iterator-payload-non-cf-cohesion <= 0.021\ngini = 0.371\nsamples = 142\nvalue = [35, 107]\nclass = parallelizable", fillcolor="#399de5ac"] ;
39 -> 40 ;
41 [label="(...)", fillcolor="#C0C0C0"] ;
40 -> 41 ;
58 [label="(...)", fillcolor="#C0C0C0"] ;
40 -> 58 ;
79 [label="critical-payload-mem-write-fraction <= 0.121\ngini = 0.231\nsamples = 15\nvalue = [13, 2]\nclass = non-parallelizable", fillcolor="#e58139d8"] ;
39 -> 79 ;
80 [label="(...)", fillcolor="#C0C0C0"] ;
79 -> 80 ;
81 [label="(...)", fillcolor="#C0C0C0"] ;
79 -> 81 ;
82 [label="critical-payload-total-cohesion <= 0.5\ngini = 0.028\nsamples = 70\nvalue = [69, 1]\nclass = non-parallelizable", fillcolor="#e58139fb"] ;
2 -> 82 ;
83 [label="gini = 0.0\nsamples = 68\nvalue = [68, 0]\nclass = non-parallelizable", fillcolor="#e58139ff"] ;
82 -> 83 ;
84 [label="critical-payload-total-dependencies-number <= 52.5\ngini = 0.5\nsamples = 2\nvalue = [1, 1]\nclass = non-parallelizable", fillcolor="#e5813900"] ;
82 -> 84 ;
85 [label="gini = 0.0\nsamples = 1\nvalue = [1, 0]\nclass = non-parallelizable", fillcolor="#e58139ff"] ;
84 -> 85 ;
86 [label="gini = 0.0\nsamples = 1\nvalue = [0, 1]\nclass = parallelizable", fillcolor="#399de5ff"] ;
84 -> 86 ;
87 [label="loop-payload-fraction <= 0.515\ngini = 0.208\nsamples = 643\nvalue = [76, 567]\nclass = parallelizable", fillcolor="#399de5dd"] ;
1 -> 87 ;
88 [label="critical-payload-branch-fraction <= 0.102\ngini = 0.375\nsamples = 16\nvalue = [12, 4]\nclass = non-parallelizable", fillcolor="#e58139aa"] ;
87 -> 88 ;
89 [label="iterator-mem-write-count <= 4.5\ngini = 0.375\nsamples = 4\nvalue = [1, 3]\nclass = parallelizable", fillcolor="#399de5aa"] ;
88 -> 89 ;
90 [label="gini = 0.0\nsamples = 3\nvalue = [0, 3]\nclass = parallelizable", fillcolor="#399de5ff"] ;
89 -> 90 ;
91 [label="gini = 0.0\nsamples = 1\nvalue = [1, 0]\nclass = non-parallelizable", fillcolor="#e58139ff"] ;
89 -> 91 ;
92 [label="iterator-true-dependencies-number <= 5.5\ngini = 0.153\nsamples = 12\nvalue = [11, 1]\nclass = non-parallelizable", fillcolor="#e58139e8"] ;
88 -> 92 ;
93 [label="gini = 0.245\nsamples = 7\nvalue = [6, 1]\nclass = non-parallelizable", fillcolor="#e58139d4"] ;
92 -> 93 ;
94 [label="gini = 0.0\nsamples = 5\nvalue = [5, 0]\nclass = non-parallelizable", fillcolor="#e58139ff"] ;
92 -> 94 ;
95 [label="critical-payload-mem-read-count <= 5.5\ngini = 0.183\nsamples = 627\nvalue = [64, 563]\nclass = parallelizable", fillcolor="#399de5e2"] ;
87 -> 95 ;
96 [label="iterator-payload-non-cf-cohesion <= 0.079\ngini = 0.143\nsamples = 579\nvalue = [45, 534]\nclass = parallelizable", fillcolor="#399de5ea"] ;
95 -> 96 ;
97 [label="payload-branch-fraction <= 0.22\ngini = 0.111\nsamples = 540\nvalue = [32, 508]\nclass = parallelizable", fillcolor="#399de5ef"] ;
96 -> 97 ;
98 [label="(...)", fillcolor="#C0C0C0"] ;
97 -> 98 ;
149 [label="(...)", fillcolor="#C0C0C0"] ;
97 -> 149 ;
162 [label="critical-payload-non-cf-cohesion <= 0.092\ngini = 0.444\nsamples = 39\nvalue = [13, 26]\nclass = parallelizable", fillcolor="#399de57f"] ;
96 -> 162 ;
163 [label="(...)", fillcolor="#C0C0C0"] ;
162 -> 163 ;
168 [label="(...)", fillcolor="#C0C0C0"] ;
162 -> 168 ;
171 [label="critical-payload-mem-write-fraction <= 0.1\ngini = 0.478\nsamples = 48\nvalue = [19, 29]\nclass = parallelizable", fillcolor="#399de558"] ;
95 -> 171 ;
172 [label="critical-payload-non-cf-cohesion <= 0.142\ngini = 0.133\nsamples = 14\nvalue = [13, 1]\nclass = non-parallelizable", fillcolor="#e58139eb"] ;
171 -> 172 ;
173 [label="(...)", fillcolor="#C0C0C0"] ;
172 -> 173 ;
174 [label="(...)", fillcolor="#C0C0C0"] ;
172 -> 174 ;
175 [label="critical-payload-cross-dependencies-number <= 2.0\ngini = 0.291\nsamples = 34\nvalue = [6, 28]\nclass = parallelizable", fillcolor="#399de5c8"] ;
171 -> 175 ;
176 [label="(...)", fillcolor="#C0C0C0"] ;
175 -> 176 ;
179 [label="(...)", fillcolor="#C0C0C0"] ;
175 -> 179 ;
184 [label="payload-mem-write-fraction <= 0.047\ngini = 0.174\nsamples = 302\nvalue = [273, 29]\nclass = non-parallelizable", fillcolor="#e58139e4"] ;
0 -> 184 [labeldistance=2.5, labelangle=-45, headlabel="False"] ;
185 [label="payload-call-count <= 4.5\ngini = 0.39\nsamples = 64\nvalue = [47, 17]\nclass = non-parallelizable", fillcolor="#e58139a3"] ;
184 -> 185 ;
186 [label="payload-call-fraction <= 0.046\ngini = 0.208\nsamples = 51\nvalue = [45, 6]\nclass = non-parallelizable", fillcolor="#e58139dd"] ;
185 -> 186 ;
187 [label="iterator-payload-non-cf-cohesion <= 0.04\ngini = 0.15\nsamples = 49\nvalue = [45, 4]\nclass = non-parallelizable", fillcolor="#e58139e8"] ;
186 -> 187 ;
188 [label="payload-getelemptr-fraction <= 0.123\ngini = 0.044\nsamples = 44\nvalue = [43, 1]\nclass = non-parallelizable", fillcolor="#e58139f9"] ;
187 -> 188 ;
189 [label="(...)", fillcolor="#C0C0C0"] ;
188 -> 189 ;
192 [label="(...)", fillcolor="#C0C0C0"] ;
188 -> 192 ;
193 [label="payload-getelemptr-count <= 51.0\ngini = 0.48\nsamples = 5\nvalue = [2, 3]\nclass = parallelizable", fillcolor="#399de555"] ;
187 -> 193 ;
194 [label="(...)", fillcolor="#C0C0C0"] ;
193 -> 194 ;
195 [label="(...)", fillcolor="#C0C0C0"] ;
193 -> 195 ;
196 [label="gini = 0.0\nsamples = 2\nvalue = [0, 2]\nclass = parallelizable", fillcolor="#399de5ff"] ;
186 -> 196 ;
197 [label="payload-reg-dependencies-number <= 385.5\ngini = 0.26\nsamples = 13\nvalue = [2, 11]\nclass = parallelizable", fillcolor="#399de5d1"] ;
185 -> 197 ;
198 [label="gini = 0.0\nsamples = 11\nvalue = [0, 11]\nclass = parallelizable", fillcolor="#399de5ff"] ;
197 -> 198 ;
199 [label="gini = 0.0\nsamples = 2\nvalue = [2, 0]\nclass = non-parallelizable", fillcolor="#e58139ff"] ;
197 -> 199 ;
200 [label="critical-payload-non-cf-cohesion <= 0.152\ngini = 0.096\nsamples = 238\nvalue = [226, 12]\nclass = non-parallelizable", fillcolor="#e58139f1"] ;
184 -> 200 ;
201 [label="iterator-payload-total-cohesion <= 0.522\ngini = 0.059\nsamples = 230\nvalue = [223, 7]\nclass = non-parallelizable", fillcolor="#e58139f7"] ;
200 -> 201 ;
202 [label="critical-payload-total-cohesion <= 0.5\ngini = 0.035\nsamples = 225\nvalue = [221, 4]\nclass = non-parallelizable", fillcolor="#e58139fa"] ;
201 -> 202 ;
203 [label="iterator-payload-total-cohesion <= 0.456\ngini = 0.026\nsamples = 224\nvalue = [221, 3]\nclass = non-parallelizable", fillcolor="#e58139fc"] ;
202 -> 203 ;
204 [label="(...)", fillcolor="#C0C0C0"] ;
203 -> 204 ;
209 [label="(...)", fillcolor="#C0C0C0"] ;
203 -> 209 ;
214 [label="gini = 0.0\nsamples = 1\nvalue = [0, 1]\nclass = parallelizable", fillcolor="#399de5ff"] ;
202 -> 214 ;
215 [label="payload-branch-fraction <= 0.055\ngini = 0.48\nsamples = 5\nvalue = [2, 3]\nclass = parallelizable", fillcolor="#399de555"] ;
201 -> 215 ;
216 [label="gini = 0.0\nsamples = 2\nvalue = [2, 0]\nclass = non-parallelizable", fillcolor="#e58139ff"] ;
215 -> 216 ;
217 [label="gini = 0.0\nsamples = 3\nvalue = [0, 3]\nclass = parallelizable", fillcolor="#399de5ff"] ;
215 -> 217 ;
218 [label="payload-getelemptr-count <= 6.0\ngini = 0.469\nsamples = 8\nvalue = [3, 5]\nclass = parallelizable", fillcolor="#399de566"] ;
200 -> 218 ;
219 [label="gini = 0.0\nsamples = 5\nvalue = [0, 5]\nclass = parallelizable", fillcolor="#399de5ff"] ;
218 -> 219 ;
220 [label="gini = 0.0\nsamples = 3\nvalue = [3, 0]\nclass = non-parallelizable", fillcolor="#e58139ff"] ;
218 -> 220 ;
}