digraph Tree {
node [shape=box, style="filled, rounded", color="black", fontname=helvetica] ;
edge [fontname=helvetica] ;
0 [label="payload-call-count <= 0.5\ngini = 0.388\nsamples = 882\nvalue = [232, 650]\nclass = parallelizable", fillcolor="#399de5a4"] ;
1 [label="critical-payload-output-dependencies-number <= 0.5\ngini = 0.222\nsamples = 699\nvalue = [89, 610]\nclass = parallelizable", fillcolor="#399de5da"] ;
0 -> 1 [labeldistance=2.5, labelangle=45, headlabel="True"] ;
2 [label="payload-branch-count <= 21.5\ngini = 0.14\nsamples = 622\nvalue = [47, 575]\nclass = parallelizable", fillcolor="#399de5ea"] ;
1 -> 2 ;
3 [label="loop-iterator-size <= 8.5\ngini = 0.132\nsamples = 619\nvalue = [44, 575]\nclass = parallelizable", fillcolor="#399de5eb"] ;
2 -> 3 ;
4 [label="loop-proper-sccs-number-diff <= 2.5\ngini = 0.124\nsamples = 616\nvalue = [41, 575]\nclass = parallelizable", fillcolor="#399de5ed"] ;
3 -> 4 ;
5 [label="payload-output-dependencies-number <= 56.5\ngini = 0.119\nsamples = 614\nvalue = [39, 575]\nclass = parallelizable", fillcolor="#399de5ee"] ;
4 -> 5 ;
6 [label="(...)", fillcolor="#C0C0C0"] ;
5 -> 6 ;
95 [label="(...)", fillcolor="#C0C0C0"] ;
5 -> 95 ;
100 [label="gini = 0.0\nsamples = 2\nvalue = [2, 0]\nclass = non-parallelizable", fillcolor="#e58139ff"] ;
4 -> 100 ;
101 [label="gini = 0.0\nsamples = 3\nvalue = [3, 0]\nclass = non-parallelizable", fillcolor="#e58139ff"] ;
3 -> 101 ;
102 [label="gini = 0.0\nsamples = 3\nvalue = [3, 0]\nclass = non-parallelizable", fillcolor="#e58139ff"] ;
2 -> 102 ;
103 [label="loop-iterator-size <= 4.5\ngini = 0.496\nsamples = 77\nvalue = [42, 35]\nclass = non-parallelizable", fillcolor="#e581392a"] ;
1 -> 103 ;
104 [label="critical-payload-getelemptr-count <= 0.5\ngini = 0.471\nsamples = 50\nvalue = [19, 31]\nclass = parallelizable", fillcolor="#399de563"] ;
103 -> 104 ;
105 [label="critical-payload-conf-dependencies-number <= 0.5\ngini = 0.346\nsamples = 36\nvalue = [8, 28]\nclass = parallelizable", fillcolor="#399de5b6"] ;
104 -> 105 ;
106 [label="payload-output-dependencies-number <= 1.5\ngini = 0.278\nsamples = 6\nvalue = [5, 1]\nclass = non-parallelizable", fillcolor="#e58139cc"] ;
105 -> 106 ;
107 [label="(...)", fillcolor="#C0C0C0"] ;
106 -> 107 ;
110 [label="(...)", fillcolor="#C0C0C0"] ;
106 -> 110 ;
111 [label="critical-payload-mem-dependencies-number <= 43.0\ngini = 0.18\nsamples = 30\nvalue = [3, 27]\nclass = parallelizable", fillcolor="#399de5e3"] ;
105 -> 111 ;
112 [label="(...)", fillcolor="#C0C0C0"] ;
111 -> 112 ;
117 [label="(...)", fillcolor="#C0C0C0"] ;
111 -> 117 ;
118 [label="payload-true-dependencies-number <= 34.0\ngini = 0.337\nsamples = 14\nvalue = [11, 3]\nclass = non-parallelizable", fillcolor="#e58139b9"] ;
104 -> 118 ;
119 [label="gini = 0.0\nsamples = 3\nvalue = [0, 3]\nclass = parallelizable", fillcolor="#399de5ff"] ;
118 -> 119 ;
120 [label="gini = 0.0\nsamples = 11\nvalue = [11, 0]\nclass = non-parallelizable", fillcolor="#e58139ff"] ;
118 -> 120 ;
121 [label="loop-iterator-size <= 5.5\ngini = 0.252\nsamples = 27\nvalue = [23, 4]\nclass = non-parallelizable", fillcolor="#e58139d3"] ;
103 -> 121 ;
122 [label="critical-payload-total-dependencies-number <= 13.0\ngini = 0.08\nsamples = 24\nvalue = [23, 1]\nclass = non-parallelizable", fillcolor="#e58139f4"] ;
121 -> 122 ;
123 [label="payload-getelemptr-count <= 20.0\ngini = 0.245\nsamples = 7\nvalue = [6, 1]\nclass = non-parallelizable", fillcolor="#e58139d4"] ;
122 -> 123 ;
124 [label="(...)", fillcolor="#C0C0C0"] ;
123 -> 124 ;
125 [label="(...)", fillcolor="#C0C0C0"] ;
123 -> 125 ;
126 [label="gini = 0.0\nsamples = 17\nvalue = [17, 0]\nclass = non-parallelizable", fillcolor="#e58139ff"] ;
122 -> 126 ;
127 [label="gini = 0.0\nsamples = 3\nvalue = [0, 3]\nclass = parallelizable", fillcolor="#399de5ff"] ;
121 -> 127 ;
128 [label="loop-proper-sccs-number-diff <= 2.5\ngini = 0.342\nsamples = 183\nvalue = [143, 40]\nclass = non-parallelizable", fillcolor="#e58139b8"] ;
0 -> 128 [labeldistance=2.5, labelangle=-45, headlabel="False"] ;
129 [label="payload-mem-read-count <= 2.5\ngini = 0.283\nsamples = 170\nvalue = [141, 29]\nclass = non-parallelizable", fillcolor="#e58139cb"] ;
128 -> 129 ;
130 [label="payload-reg-dependencies-number <= 15.5\ngini = 0.488\nsamples = 38\nvalue = [22, 16]\nclass = non-parallelizable", fillcolor="#e5813946"] ;
129 -> 130 ;
131 [label="payload-reg-dependencies-number <= 10.5\ngini = 0.153\nsamples = 24\nvalue = [22, 2]\nclass = non-parallelizable", fillcolor="#e58139e8"] ;
130 -> 131 ;
132 [label="gini = 0.0\nsamples = 19\nvalue = [19, 0]\nclass = non-parallelizable", fillcolor="#e58139ff"] ;
131 -> 132 ;
133 [label="loop-proper-sccs-ddg-number <= 1.5\ngini = 0.48\nsamples = 5\nvalue = [3, 2]\nclass = non-parallelizable", fillcolor="#e5813955"] ;
131 -> 133 ;
134 [label="(...)", fillcolor="#C0C0C0"] ;
133 -> 134 ;
135 [label="(...)", fillcolor="#C0C0C0"] ;
133 -> 135 ;
136 [label="gini = 0.0\nsamples = 14\nvalue = [0, 14]\nclass = parallelizable", fillcolor="#399de5ff"] ;
130 -> 136 ;
137 [label="payload-branch-count <= 9.5\ngini = 0.178\nsamples = 132\nvalue = [119, 13]\nclass = non-parallelizable", fillcolor="#e58139e3"] ;
129 -> 137 ;
138 [label="critical-payload-reg-dependencies-number <= 5.5\ngini = 0.307\nsamples = 58\nvalue = [47, 11]\nclass = non-parallelizable", fillcolor="#e58139c3"] ;
137 -> 138 ;
139 [label="loop-payload-fraction <= 0.953\ngini = 0.233\nsamples = 52\nvalue = [45, 7]\nclass = non-parallelizable", fillcolor="#e58139d7"] ;
138 -> 139 ;
140 [label="(...)", fillcolor="#C0C0C0"] ;
139 -> 140 ;
149 [label="(...)", fillcolor="#C0C0C0"] ;
139 -> 149 ;
152 [label="payload-getelemptr-count <= 7.0\ngini = 0.444\nsamples = 6\nvalue = [2, 4]\nclass = parallelizable", fillcolor="#399de57f"] ;
138 -> 152 ;
153 [label="(...)", fillcolor="#C0C0C0"] ;
152 -> 153 ;
154 [label="(...)", fillcolor="#C0C0C0"] ;
152 -> 154 ;
157 [label="loop-iterator-size <= 4.5\ngini = 0.053\nsamples = 74\nvalue = [72, 2]\nclass = non-parallelizable", fillcolor="#e58139f8"] ;
137 -> 157 ;
158 [label="payload-cntl-dependencies-number <= 92.5\ngini = 0.172\nsamples = 21\nvalue = [19, 2]\nclass = non-parallelizable", fillcolor="#e58139e4"] ;
157 -> 158 ;
159 [label="(...)", fillcolor="#C0C0C0"] ;
158 -> 159 ;
160 [label="(...)", fillcolor="#C0C0C0"] ;
158 -> 160 ;
163 [label="gini = 0.0\nsamples = 53\nvalue = [53, 0]\nclass = non-parallelizable", fillcolor="#e58139ff"] ;
157 -> 163 ;
164 [label="payload-branch-count <= 12.5\ngini = 0.26\nsamples = 13\nvalue = [2, 11]\nclass = parallelizable", fillcolor="#399de5d1"] ;
128 -> 164 ;
165 [label="gini = 0.0\nsamples = 2\nvalue = [2, 0]\nclass = non-parallelizable", fillcolor="#e58139ff"] ;
164 -> 165 ;
166 [label="gini = 0.0\nsamples = 11\nvalue = [0, 11]\nclass = parallelizable", fillcolor="#399de5ff"] ;
164 -> 166 ;
}