digraph Tree {
node [shape=box, style="filled, rounded", color="black", fontname=helvetica] ;
edge [fontname=helvetica] ;
0 [label="iterator-payload-non-cf-cohesion <= 0.026\ngini = 0.49\nsamples = 1349\nvalue = [577, 772]\nclass = parallelizable", fillcolor="#399de540"] ;
1 [label="payload-mem-dependencies-number-diff <= 0.5\ngini = 0.322\nsamples = 372\nvalue = [297, 75]\nclass = non-parallelizable", fillcolor="#e58139bf"] ;
0 -> 1 [labeldistance=2.5, labelangle=45, headlabel="True"] ;
2 [label="payload-total-dependencies-number <= 16.0\ngini = 0.453\nsamples = 213\nvalue = [139, 74]\nclass = non-parallelizable", fillcolor="#e5813977"] ;
1 -> 2 ;
3 [label="iterator-mem-dependencies-number <= 0.5\ngini = 0.164\nsamples = 89\nvalue = [81, 8]\nclass = non-parallelizable", fillcolor="#e58139e6"] ;
2 -> 3 ;
4 [label="(...)", fillcolor="#C0C0C0"] ;
3 -> 4 ;
5 [label="(...)", fillcolor="#C0C0C0"] ;
3 -> 5 ;
16 [label="payload-mem-read-count <= 4.5\ngini = 0.498\nsamples = 124\nvalue = [58, 66]\nclass = parallelizable", fillcolor="#399de51f"] ;
2 -> 16 ;
17 [label="(...)", fillcolor="#C0C0C0"] ;
16 -> 17 ;
26 [label="(...)", fillcolor="#C0C0C0"] ;
16 -> 26 ;
35 [label="payload-true-dependencies-number <= 15.5\ngini = 0.012\nsamples = 159\nvalue = [158, 1]\nclass = non-parallelizable", fillcolor="#e58139fd"] ;
1 -> 35 ;
36 [label="payload-mem-write-fraction <= 0.184\ngini = 0.444\nsamples = 3\nvalue = [2, 1]\nclass = non-parallelizable", fillcolor="#e581397f"] ;
35 -> 36 ;
37 [label="(...)", fillcolor="#C0C0C0"] ;
36 -> 37 ;
38 [label="(...)", fillcolor="#C0C0C0"] ;
36 -> 38 ;
39 [label="gini = 0.0\nsamples = 156\nvalue = [156, 0]\nclass = non-parallelizable", fillcolor="#e58139ff"] ;
35 -> 39 ;
40 [label="payload-mem-read-fraction <= 0.149\ngini = 0.409\nsamples = 977\nvalue = [280, 697]\nclass = parallelizable", fillcolor="#399de599"] ;
0 -> 40 [labeldistance=2.5, labelangle=-45, headlabel="False"] ;
41 [label="critical-payload-mem-read-count <= 2.5\ngini = 0.32\nsamples = 784\nvalue = [157, 627]\nclass = parallelizable", fillcolor="#399de5bf"] ;
40 -> 41 ;
42 [label="loop-critical-payload-fraction <= 0.146\ngini = 0.267\nsamples = 732\nvalue = [116, 616]\nclass = parallelizable", fillcolor="#399de5cf"] ;
41 -> 42 ;
43 [label="(...)", fillcolor="#C0C0C0"] ;
42 -> 43 ;
140 [label="(...)", fillcolor="#C0C0C0"] ;
42 -> 140 ;
171 [label="critical-payload-mem-write-fraction <= 0.146\ngini = 0.334\nsamples = 52\nvalue = [41, 11]\nclass = non-parallelizable", fillcolor="#e58139bb"] ;
41 -> 171 ;
172 [label="(...)", fillcolor="#C0C0C0"] ;
171 -> 172 ;
181 [label="(...)", fillcolor="#C0C0C0"] ;
171 -> 181 ;
188 [label="payload-mem-write-fraction <= 0.048\ngini = 0.462\nsamples = 193\nvalue = [123, 70]\nclass = non-parallelizable", fillcolor="#e581396e"] ;
40 -> 188 ;
189 [label="critical-payload-mem-read-fraction <= 0.203\ngini = 0.32\nsamples = 45\nvalue = [9, 36]\nclass = parallelizable", fillcolor="#399de5bf"] ;
188 -> 189 ;
190 [label="(...)", fillcolor="#C0C0C0"] ;
189 -> 190 ;
201 [label="(...)", fillcolor="#C0C0C0"] ;
189 -> 201 ;
202 [label="iterator-payload-total-cohesion <= 0.424\ngini = 0.354\nsamples = 148\nvalue = [114, 34]\nclass = non-parallelizable", fillcolor="#e58139b3"] ;
188 -> 202 ;
203 [label="(...)", fillcolor="#C0C0C0"] ;
202 -> 203 ;
224 [label="(...)", fillcolor="#C0C0C0"] ;
202 -> 224 ;
}