digraph Tree {
node [shape=box, style="filled, rounded", color="black", fontname=helvetica] ;
edge [fontname=helvetica] ;
0 [label="payload-call-fraction <= 0.0\ngini = 0.493\nsamples = 1372\nvalue = [606, 766]\nclass = parallelizable", fillcolor="#399de535"] ;
1 [label="iterator-payload-non-cf-cohesion <= 0.034\ngini = 0.421\nsamples = 1054\nvalue = [318, 736]\nclass = parallelizable", fillcolor="#399de591"] ;
0 -> 1 [labeldistance=2.5, labelangle=45, headlabel="True"] ;
2 [label="critical-payload-true-dependencies-number <= 21.5\ngini = 0.474\nsamples = 387\nvalue = [238, 149]\nclass = non-parallelizable", fillcolor="#e581395f"] ;
1 -> 2 ;
3 [label="critical-payload-total-cohesion <= 0.212\ngini = 0.498\nsamples = 317\nvalue = [169, 148]\nclass = non-parallelizable", fillcolor="#e5813920"] ;
2 -> 3 ;
4 [label="payload-mem-write-count <= 1.5\ngini = 0.355\nsamples = 156\nvalue = [120, 36]\nclass = non-parallelizable", fillcolor="#e58139b3"] ;
3 -> 4 ;
5 [label="iterator-payload-non-cf-cohesion <= 0.031\ngini = 0.263\nsamples = 135\nvalue = [114, 21]\nclass = non-parallelizable", fillcolor="#e58139d0"] ;
4 -> 5 ;
6 [label="(...)", fillcolor="#C0C0C0"] ;
5 -> 6 ;
19 [label="(...)", fillcolor="#C0C0C0"] ;
5 -> 19 ;
34 [label="critical-payload-non-cf-cohesion <= 0.067\ngini = 0.408\nsamples = 21\nvalue = [6, 15]\nclass = parallelizable", fillcolor="#399de599"] ;
4 -> 34 ;
35 [label="(...)", fillcolor="#C0C0C0"] ;
34 -> 35 ;
40 [label="(...)", fillcolor="#C0C0C0"] ;
34 -> 40 ;
41 [label="critical-payload-cntl-dependencies-number <= 3.5\ngini = 0.423\nsamples = 161\nvalue = [49, 112]\nclass = parallelizable", fillcolor="#399de58f"] ;
3 -> 41 ;
42 [label="iterator-payload-non-cf-cohesion <= 0.021\ngini = 0.372\nsamples = 146\nvalue = [36, 110]\nclass = parallelizable", fillcolor="#399de5ac"] ;
41 -> 42 ;
43 [label="(...)", fillcolor="#C0C0C0"] ;
42 -> 43 ;
60 [label="(...)", fillcolor="#C0C0C0"] ;
42 -> 60 ;
81 [label="critical-payload-mem-write-fraction <= 0.121\ngini = 0.231\nsamples = 15\nvalue = [13, 2]\nclass = non-parallelizable", fillcolor="#e58139d8"] ;
41 -> 81 ;
82 [label="(...)", fillcolor="#C0C0C0"] ;
81 -> 82 ;
83 [label="(...)", fillcolor="#C0C0C0"] ;
81 -> 83 ;
84 [label="critical-payload-total-cohesion <= 0.5\ngini = 0.028\nsamples = 70\nvalue = [69, 1]\nclass = non-parallelizable", fillcolor="#e58139fb"] ;
2 -> 84 ;
85 [label="gini = 0.0\nsamples = 68\nvalue = [68, 0]\nclass = non-parallelizable", fillcolor="#e58139ff"] ;
84 -> 85 ;
86 [label="loop-payload-fraction <= 0.979\ngini = 0.5\nsamples = 2\nvalue = [1, 1]\nclass = non-parallelizable", fillcolor="#e5813900"] ;
84 -> 86 ;
87 [label="gini = 0.0\nsamples = 1\nvalue = [1, 0]\nclass = non-parallelizable", fillcolor="#e58139ff"] ;
86 -> 87 ;
88 [label="gini = 0.0\nsamples = 1\nvalue = [0, 1]\nclass = parallelizable", fillcolor="#399de5ff"] ;
86 -> 88 ;
89 [label="loop-payload-fraction <= 0.515\ngini = 0.211\nsamples = 667\nvalue = [80, 587]\nclass = parallelizable", fillcolor="#399de5dc"] ;
1 -> 89 ;
90 [label="iterator-payload-non-cf-cohesion <= 0.057\ngini = 0.375\nsamples = 16\nvalue = [12, 4]\nclass = non-parallelizable", fillcolor="#e58139aa"] ;
89 -> 90 ;
91 [label="iterator-reg-dependencies-number <= 5.5\ngini = 0.153\nsamples = 12\nvalue = [11, 1]\nclass = non-parallelizable", fillcolor="#e58139e8"] ;
90 -> 91 ;
92 [label="gini = 0.245\nsamples = 7\nvalue = [6, 1]\nclass = non-parallelizable", fillcolor="#e58139d4"] ;
91 -> 92 ;
93 [label="gini = 0.0\nsamples = 5\nvalue = [5, 0]\nclass = non-parallelizable", fillcolor="#e58139ff"] ;
91 -> 93 ;
94 [label="payload-branch-count <= 9.5\ngini = 0.375\nsamples = 4\nvalue = [1, 3]\nclass = parallelizable", fillcolor="#399de5aa"] ;
90 -> 94 ;
95 [label="gini = 0.0\nsamples = 3\nvalue = [0, 3]\nclass = parallelizable", fillcolor="#399de5ff"] ;
94 -> 95 ;
96 [label="gini = 0.0\nsamples = 1\nvalue = [1, 0]\nclass = non-parallelizable", fillcolor="#e58139ff"] ;
94 -> 96 ;
97 [label="critical-payload-getelemptr-count <= 1.5\ngini = 0.187\nsamples = 651\nvalue = [68, 583]\nclass = parallelizable", fillcolor="#399de5e1"] ;
89 -> 97 ;
98 [label="critical-payload-mem-read-count <= 5.5\ngini = 0.174\nsamples = 645\nvalue = [62, 583]\nclass = parallelizable", fillcolor="#399de5e4"] ;
97 -> 98 ;
99 [label="iterator-payload-non-cf-cohesion <= 0.079\ngini = 0.139\nsamples = 599\nvalue = [45, 554]\nclass = parallelizable", fillcolor="#399de5ea"] ;
98 -> 99 ;
100 [label="(...)", fillcolor="#C0C0C0"] ;
99 -> 100 ;
165 [label="(...)", fillcolor="#C0C0C0"] ;
99 -> 165 ;
174 [label="critical-payload-mem-write-fraction <= 0.1\ngini = 0.466\nsamples = 46\nvalue = [17, 29]\nclass = parallelizable", fillcolor="#399de56a"] ;
98 -> 174 ;
175 [label="(...)", fillcolor="#C0C0C0"] ;
174 -> 175 ;
178 [label="(...)", fillcolor="#C0C0C0"] ;
174 -> 178 ;
187 [label="gini = 0.0\nsamples = 6\nvalue = [6, 0]\nclass = non-parallelizable", fillcolor="#e58139ff"] ;
97 -> 187 ;
188 [label="payload-mem-write-fraction <= 0.047\ngini = 0.171\nsamples = 318\nvalue = [288, 30]\nclass = non-parallelizable", fillcolor="#e58139e4"] ;
0 -> 188 [labeldistance=2.5, labelangle=-45, headlabel="False"] ;
189 [label="payload-call-count <= 4.5\ngini = 0.393\nsamples = 67\nvalue = [49, 18]\nclass = non-parallelizable", fillcolor="#e58139a1"] ;
188 -> 189 ;
190 [label="payload-call-fraction <= 0.046\ngini = 0.201\nsamples = 53\nvalue = [47, 6]\nclass = non-parallelizable", fillcolor="#e58139de"] ;
189 -> 190 ;
191 [label="iterator-payload-non-cf-cohesion <= 0.04\ngini = 0.145\nsamples = 51\nvalue = [47, 4]\nclass = non-parallelizable", fillcolor="#e58139e9"] ;
190 -> 191 ;
192 [label="payload-getelemptr-fraction <= 0.123\ngini = 0.043\nsamples = 46\nvalue = [45, 1]\nclass = non-parallelizable", fillcolor="#e58139f9"] ;
191 -> 192 ;
193 [label="(...)", fillcolor="#C0C0C0"] ;
192 -> 193 ;
196 [label="(...)", fillcolor="#C0C0C0"] ;
192 -> 196 ;
197 [label="loop-absolute-size <= 141.0\ngini = 0.48\nsamples = 5\nvalue = [2, 3]\nclass = parallelizable", fillcolor="#399de555"] ;
191 -> 197 ;
198 [label="(...)", fillcolor="#C0C0C0"] ;
197 -> 198 ;
199 [label="(...)", fillcolor="#C0C0C0"] ;
197 -> 199 ;
200 [label="gini = 0.0\nsamples = 2\nvalue = [0, 2]\nclass = parallelizable", fillcolor="#399de5ff"] ;
190 -> 200 ;
201 [label="critical-payload-reg-dependencies-number <= 91.5\ngini = 0.245\nsamples = 14\nvalue = [2, 12]\nclass = parallelizable", fillcolor="#399de5d4"] ;
189 -> 201 ;
202 [label="gini = 0.0\nsamples = 12\nvalue = [0, 12]\nclass = parallelizable", fillcolor="#399de5ff"] ;
201 -> 202 ;
203 [label="gini = 0.0\nsamples = 2\nvalue = [2, 0]\nclass = non-parallelizable", fillcolor="#e58139ff"] ;
201 -> 203 ;
204 [label="critical-payload-non-cf-cohesion <= 0.152\ngini = 0.091\nsamples = 251\nvalue = [239, 12]\nclass = non-parallelizable", fillcolor="#e58139f2"] ;
188 -> 204 ;
205 [label="iterator-payload-total-cohesion <= 0.522\ngini = 0.056\nsamples = 242\nvalue = [235, 7]\nclass = non-parallelizable", fillcolor="#e58139f7"] ;
204 -> 205 ;
206 [label="critical-payload-total-cohesion <= 0.5\ngini = 0.033\nsamples = 237\nvalue = [233, 4]\nclass = non-parallelizable", fillcolor="#e58139fb"] ;
205 -> 206 ;
207 [label="iterator-payload-total-cohesion <= 0.456\ngini = 0.025\nsamples = 236\nvalue = [233, 3]\nclass = non-parallelizable", fillcolor="#e58139fc"] ;
206 -> 207 ;
208 [label="(...)", fillcolor="#C0C0C0"] ;
207 -> 208 ;
213 [label="(...)", fillcolor="#C0C0C0"] ;
207 -> 213 ;
218 [label="gini = 0.0\nsamples = 1\nvalue = [0, 1]\nclass = parallelizable", fillcolor="#399de5ff"] ;
206 -> 218 ;
219 [label="payload-mem-write-fraction <= 0.1\ngini = 0.48\nsamples = 5\nvalue = [2, 3]\nclass = parallelizable", fillcolor="#399de555"] ;
205 -> 219 ;
220 [label="gini = 0.0\nsamples = 3\nvalue = [0, 3]\nclass = parallelizable", fillcolor="#399de5ff"] ;
219 -> 220 ;
221 [label="gini = 0.0\nsamples = 2\nvalue = [2, 0]\nclass = non-parallelizable", fillcolor="#e58139ff"] ;
219 -> 221 ;
222 [label="payload-mem-write-fraction <= 0.141\ngini = 0.494\nsamples = 9\nvalue = [4, 5]\nclass = parallelizable", fillcolor="#399de533"] ;
204 -> 222 ;
223 [label="gini = 0.0\nsamples = 5\nvalue = [0, 5]\nclass = parallelizable", fillcolor="#399de5ff"] ;
222 -> 223 ;
224 [label="gini = 0.0\nsamples = 4\nvalue = [4, 0]\nclass = non-parallelizable", fillcolor="#e58139ff"] ;
222 -> 224 ;
}