digraph Tree {
node [shape=box, style="filled, rounded", color="black", fontname=helvetica] ;
edge [fontname=helvetica] ;
0 [label="payload-call-count <= 0.5\ngini = 0.388\nsamples = 882\nvalue = [232, 650]\nclass = parallelizable", fillcolor="#399de5a4"] ;
1 [label="critical-payload-output-dependencies-number <= 0.5\ngini = 0.222\nsamples = 699\nvalue = [89, 610]\nclass = parallelizable", fillcolor="#399de5da"] ;
0 -> 1 [labeldistance=2.5, labelangle=45, headlabel="True"] ;
2 [label="iterator-payload-non-cf-cohesion <= 0.004\ngini = 0.14\nsamples = 622\nvalue = [47, 575]\nclass = parallelizable", fillcolor="#399de5ea"] ;
1 -> 2 ;
3 [label="gini = 0.0\nsamples = 4\nvalue = [4, 0]\nclass = non-parallelizable", fillcolor="#e58139ff"] ;
2 -> 3 ;
4 [label="iterator-payload-non-cf-cohesion <= 0.034\ngini = 0.129\nsamples = 618\nvalue = [43, 575]\nclass = parallelizable", fillcolor="#399de5ec"] ;
2 -> 4 ;
5 [label="payload-mem-dependencies-number <= 6.0\ngini = 0.295\nsamples = 139\nvalue = [25, 114]\nclass = parallelizable", fillcolor="#399de5c7"] ;
4 -> 5 ;
6 [label="payload-getelemptr-count <= 2.5\ngini = 0.227\nsamples = 130\nvalue = [17, 113]\nclass = parallelizable", fillcolor="#399de5d9"] ;
5 -> 6 ;
7 [label="(...)", fillcolor="#C0C0C0"] ;
6 -> 7 ;
8 [label="(...)", fillcolor="#C0C0C0"] ;
6 -> 8 ;
29 [label="payload-cross-dependencies-number <= 0.5\ngini = 0.198\nsamples = 9\nvalue = [8, 1]\nclass = non-parallelizable", fillcolor="#e58139df"] ;
5 -> 29 ;
30 [label="(...)", fillcolor="#C0C0C0"] ;
29 -> 30 ;
31 [label="(...)", fillcolor="#C0C0C0"] ;
29 -> 31 ;
32 [label="payload-getelemptr-fraction <= 0.191\ngini = 0.072\nsamples = 479\nvalue = [18, 461]\nclass = parallelizable", fillcolor="#399de5f5"] ;
4 -> 32 ;
33 [label="payload-branch-count <= 3.0\ngini = 0.415\nsamples = 17\nvalue = [5, 12]\nclass = parallelizable", fillcolor="#399de595"] ;
32 -> 33 ;
34 [label="(...)", fillcolor="#C0C0C0"] ;
33 -> 34 ;
39 [label="(...)", fillcolor="#C0C0C0"] ;
33 -> 39 ;
44 [label="payload-getelemptr-fraction <= 0.414\ngini = 0.055\nsamples = 462\nvalue = [13, 449]\nclass = parallelizable", fillcolor="#399de5f8"] ;
32 -> 44 ;
45 [label="(...)", fillcolor="#C0C0C0"] ;
44 -> 45 ;
70 [label="(...)", fillcolor="#C0C0C0"] ;
44 -> 70 ;
85 [label="critical-payload-non-cf-cohesion <= 0.1\ngini = 0.496\nsamples = 77\nvalue = [42, 35]\nclass = non-parallelizable", fillcolor="#e581392a"] ;
1 -> 85 ;
86 [label="critical-payload-conf-dependencies-number <= 8.5\ngini = 0.17\nsamples = 32\nvalue = [29, 3]\nclass = non-parallelizable", fillcolor="#e58139e5"] ;
85 -> 86 ;
87 [label="loop-iterator-size <= 5.5\ngini = 0.064\nsamples = 30\nvalue = [29, 1]\nclass = non-parallelizable", fillcolor="#e58139f6"] ;
86 -> 87 ;
88 [label="gini = 0.0\nsamples = 29\nvalue = [29, 0]\nclass = non-parallelizable", fillcolor="#e58139ff"] ;
87 -> 88 ;
89 [label="gini = 0.0\nsamples = 1\nvalue = [0, 1]\nclass = parallelizable", fillcolor="#399de5ff"] ;
87 -> 89 ;
90 [label="gini = 0.0\nsamples = 2\nvalue = [0, 2]\nclass = parallelizable", fillcolor="#399de5ff"] ;
86 -> 90 ;
91 [label="payload-getelemptr-fraction <= 0.242\ngini = 0.411\nsamples = 45\nvalue = [13, 32]\nclass = parallelizable", fillcolor="#399de597"] ;
85 -> 91 ;
92 [label="iterator-total-dependencies-number <= 11.0\ngini = 0.298\nsamples = 11\nvalue = [9, 2]\nclass = non-parallelizable", fillcolor="#e58139c6"] ;
91 -> 92 ;
93 [label="gini = 0.0\nsamples = 9\nvalue = [9, 0]\nclass = non-parallelizable", fillcolor="#e58139ff"] ;
92 -> 93 ;
94 [label="gini = 0.0\nsamples = 2\nvalue = [0, 2]\nclass = parallelizable", fillcolor="#399de5ff"] ;
92 -> 94 ;
95 [label="critical-payload-cntl-dependencies-number <= 43.0\ngini = 0.208\nsamples = 34\nvalue = [4, 30]\nclass = parallelizable", fillcolor="#399de5dd"] ;
91 -> 95 ;
96 [label="payload-mem-read-fraction <= 0.143\ngini = 0.117\nsamples = 32\nvalue = [2, 30]\nclass = parallelizable", fillcolor="#399de5ee"] ;
95 -> 96 ;
97 [label="(...)", fillcolor="#C0C0C0"] ;
96 -> 97 ;
102 [label="(...)", fillcolor="#C0C0C0"] ;
96 -> 102 ;
103 [label="gini = 0.0\nsamples = 2\nvalue = [2, 0]\nclass = non-parallelizable", fillcolor="#e58139ff"] ;
95 -> 103 ;
104 [label="payload-mem-read-fraction <= 0.074\ngini = 0.342\nsamples = 183\nvalue = [143, 40]\nclass = non-parallelizable", fillcolor="#e58139b8"] ;
0 -> 104 [labeldistance=2.5, labelangle=-45, headlabel="False"] ;
105 [label="payload-getelemptr-fraction <= 0.371\ngini = 0.227\nsamples = 23\nvalue = [3, 20]\nclass = parallelizable", fillcolor="#399de5d9"] ;
104 -> 105 ;
106 [label="gini = 0.0\nsamples = 20\nvalue = [0, 20]\nclass = parallelizable", fillcolor="#399de5ff"] ;
105 -> 106 ;
107 [label="gini = 0.0\nsamples = 3\nvalue = [3, 0]\nclass = non-parallelizable", fillcolor="#e58139ff"] ;
105 -> 107 ;
108 [label="loop-proper-sccs-number-diff <= 2.5\ngini = 0.219\nsamples = 160\nvalue = [140, 20]\nclass = non-parallelizable", fillcolor="#e58139db"] ;
104 -> 108 ;
109 [label="iterator-payload-total-cohesion <= 0.458\ngini = 0.115\nsamples = 147\nvalue = [138, 9]\nclass = non-parallelizable", fillcolor="#e58139ee"] ;
108 -> 109 ;
110 [label="critical-payload-non-cf-cohesion <= 0.131\ngini = 0.045\nsamples = 129\nvalue = [126, 3]\nclass = non-parallelizable", fillcolor="#e58139f9"] ;
109 -> 110 ;
111 [label="payload-branch-fraction <= 0.037\ngini = 0.016\nsamples = 126\nvalue = [125, 1]\nclass = non-parallelizable", fillcolor="#e58139fd"] ;
110 -> 111 ;
112 [label="(...)", fillcolor="#C0C0C0"] ;
111 -> 112 ;
113 [label="(...)", fillcolor="#C0C0C0"] ;
111 -> 113 ;
114 [label="payload-conf-dependencies-number <= 22.0\ngini = 0.444\nsamples = 3\nvalue = [1, 2]\nclass = parallelizable", fillcolor="#399de57f"] ;
110 -> 114 ;
115 [label="(...)", fillcolor="#C0C0C0"] ;
114 -> 115 ;
116 [label="(...)", fillcolor="#C0C0C0"] ;
114 -> 116 ;
117 [label="payload-true-dependencies-number <= 31.0\ngini = 0.444\nsamples = 18\nvalue = [12, 6]\nclass = non-parallelizable", fillcolor="#e581397f"] ;
109 -> 117 ;
118 [label="payload-call-fraction <= 0.049\ngini = 0.278\nsamples = 6\nvalue = [1, 5]\nclass = parallelizable", fillcolor="#399de5cc"] ;
117 -> 118 ;
119 [label="(...)", fillcolor="#C0C0C0"] ;
118 -> 119 ;
120 [label="(...)", fillcolor="#C0C0C0"] ;
118 -> 120 ;
121 [label="payload-total-dependencies-number <= 160.0\ngini = 0.153\nsamples = 12\nvalue = [11, 1]\nclass = non-parallelizable", fillcolor="#e58139e8"] ;
117 -> 121 ;
122 [label="(...)", fillcolor="#C0C0C0"] ;
121 -> 122 ;
123 [label="(...)", fillcolor="#C0C0C0"] ;
121 -> 123 ;
124 [label="loop-proper-sccs-ddg-number <= 6.0\ngini = 0.26\nsamples = 13\nvalue = [2, 11]\nclass = parallelizable", fillcolor="#399de5d1"] ;
108 -> 124 ;
125 [label="gini = 0.0\nsamples = 2\nvalue = [2, 0]\nclass = non-parallelizable", fillcolor="#e58139ff"] ;
124 -> 125 ;
126 [label="gini = 0.0\nsamples = 11\nvalue = [0, 11]\nclass = parallelizable", fillcolor="#399de5ff"] ;
124 -> 126 ;
}