digraph Tree {
node [shape=box, style="filled, rounded", color="black", fontname=helvetica] ;
edge [fontname=helvetica] ;
0 [label="payload-call-count <= 0.5\ngini = 0.493\nsamples = 1372\nvalue = [606, 766]\nclass = parallelizable", fillcolor="#399de535"] ;
1 [label="iterator-payload-non-cf-cohesion <= 0.034\ngini = 0.421\nsamples = 1054\nvalue = [318, 736]\nclass = parallelizable", fillcolor="#399de591"] ;
0 -> 1 [labeldistance=2.5, labelangle=45, headlabel="True"] ;
2 [label="critical-payload-true-dependencies-number <= 21.5\ngini = 0.474\nsamples = 387\nvalue = [238, 149]\nclass = non-parallelizable", fillcolor="#e581395f"] ;
1 -> 2 ;
3 [label="critical-payload-total-cohesion <= 0.212\ngini = 0.498\nsamples = 317\nvalue = [169, 148]\nclass = non-parallelizable", fillcolor="#e5813920"] ;
2 -> 3 ;
4 [label="(...)", fillcolor="#C0C0C0"] ;
3 -> 4 ;
39 [label="(...)", fillcolor="#C0C0C0"] ;
3 -> 39 ;
82 [label="critical-payload-total-cohesion <= 0.5\ngini = 0.028\nsamples = 70\nvalue = [69, 1]\nclass = non-parallelizable", fillcolor="#e58139fb"] ;
2 -> 82 ;
83 [label="(...)", fillcolor="#C0C0C0"] ;
82 -> 83 ;
84 [label="(...)", fillcolor="#C0C0C0"] ;
82 -> 84 ;
87 [label="loop-payload-fraction <= 0.515\ngini = 0.211\nsamples = 667\nvalue = [80, 587]\nclass = parallelizable", fillcolor="#399de5dc"] ;
1 -> 87 ;
88 [label="critical-payload-branch-fraction <= 0.102\ngini = 0.375\nsamples = 16\nvalue = [12, 4]\nclass = non-parallelizable", fillcolor="#e58139aa"] ;
87 -> 88 ;
89 [label="(...)", fillcolor="#C0C0C0"] ;
88 -> 89 ;
92 [label="(...)", fillcolor="#C0C0C0"] ;
88 -> 92 ;
95 [label="loop-critical-payload-fraction <= 0.359\ngini = 0.187\nsamples = 651\nvalue = [68, 583]\nclass = parallelizable", fillcolor="#399de5e1"] ;
87 -> 95 ;
96 [label="(...)", fillcolor="#C0C0C0"] ;
95 -> 96 ;
187 [label="(...)", fillcolor="#C0C0C0"] ;
95 -> 187 ;
196 [label="payload-mem-write-fraction <= 0.047\ngini = 0.171\nsamples = 318\nvalue = [288, 30]\nclass = non-parallelizable", fillcolor="#e58139e4"] ;
0 -> 196 [labeldistance=2.5, labelangle=-45, headlabel="False"] ;
197 [label="payload-call-count <= 4.5\ngini = 0.393\nsamples = 67\nvalue = [49, 18]\nclass = non-parallelizable", fillcolor="#e58139a1"] ;
196 -> 197 ;
198 [label="payload-call-fraction <= 0.046\ngini = 0.201\nsamples = 53\nvalue = [47, 6]\nclass = non-parallelizable", fillcolor="#e58139de"] ;
197 -> 198 ;
199 [label="(...)", fillcolor="#C0C0C0"] ;
198 -> 199 ;
208 [label="(...)", fillcolor="#C0C0C0"] ;
198 -> 208 ;
209 [label="iterator-payload-non-cf-cohesion <= 0.023\ngini = 0.245\nsamples = 14\nvalue = [2, 12]\nclass = parallelizable", fillcolor="#399de5d4"] ;
197 -> 209 ;
210 [label="(...)", fillcolor="#C0C0C0"] ;
209 -> 210 ;
211 [label="(...)", fillcolor="#C0C0C0"] ;
209 -> 211 ;
212 [label="critical-payload-non-cf-cohesion <= 0.152\ngini = 0.091\nsamples = 251\nvalue = [239, 12]\nclass = non-parallelizable", fillcolor="#e58139f2"] ;
196 -> 212 ;
213 [label="iterator-payload-total-cohesion <= 0.522\ngini = 0.056\nsamples = 242\nvalue = [235, 7]\nclass = non-parallelizable", fillcolor="#e58139f7"] ;
212 -> 213 ;
214 [label="(...)", fillcolor="#C0C0C0"] ;
213 -> 214 ;
227 [label="(...)", fillcolor="#C0C0C0"] ;
213 -> 227 ;
230 [label="payload-mem-read-fraction <= 0.15\ngini = 0.494\nsamples = 9\nvalue = [4, 5]\nclass = parallelizable", fillcolor="#399de533"] ;
212 -> 230 ;
231 [label="(...)", fillcolor="#C0C0C0"] ;
230 -> 231 ;
232 [label="(...)", fillcolor="#C0C0C0"] ;
230 -> 232 ;
}