digraph Tree {
node [shape=box, style="filled, rounded", color="black", fontname=helvetica] ;
edge [fontname=helvetica] ;
0 [label="iterator-payload-non-cf-cohesion <= 0.029\ngini = 0.472\nsamples = 1277\nvalue = [790, 487]\nclass = non-parallelizable", fillcolor="#e5813962"] ;
1 [label="loop-payload-fraction <= 0.189\ngini = 0.38\nsamples = 793\nvalue = [591, 202]\nclass = non-parallelizable", fillcolor="#e58139a8"] ;
0 -> 1 [labeldistance=2.5, labelangle=45, headlabel="True"] ;
2 [label="loop-absolute-size <= 133.5\ngini = 0.446\nsamples = 412\nvalue = [274, 138]\nclass = non-parallelizable", fillcolor="#e581397f"] ;
1 -> 2 ;
3 [label="loop-critical-payload-fraction <= 0.929\ngini = 0.474\nsamples = 251\nvalue = [154, 97]\nclass = non-parallelizable", fillcolor="#e581395e"] ;
2 -> 3 ;
4 [label="payload-anti-dependencies-number <= 13.0\ngini = 0.466\nsamples = 243\nvalue = [153, 90]\nclass = non-parallelizable", fillcolor="#e5813969"] ;
3 -> 4 ;
5 [label="critical-payload-total-dependencies-number <= 20.5\ngini = 0.478\nsamples = 220\nvalue = [133, 87]\nclass = non-parallelizable", fillcolor="#e5813958"] ;
4 -> 5 ;
6 [label="(...)", fillcolor="#C0C0C0"] ;
5 -> 6 ;
137 [label="(...)", fillcolor="#C0C0C0"] ;
5 -> 137 ;
140 [label="critical-payload-true-dependencies-number <= 36.0\ngini = 0.227\nsamples = 23\nvalue = [20, 3]\nclass = non-parallelizable", fillcolor="#e58139d9"] ;
4 -> 140 ;
141 [label="(...)", fillcolor="#C0C0C0"] ;
140 -> 141 ;
150 [label="(...)", fillcolor="#C0C0C0"] ;
140 -> 150 ;
151 [label="iterator-payload-total-cohesion <= 0.036\ngini = 0.219\nsamples = 8\nvalue = [1, 7]\nclass = parallelizable", fillcolor="#399de5db"] ;
3 -> 151 ;
152 [label="gini = 0.0\nsamples = 7\nvalue = [0, 7]\nclass = parallelizable", fillcolor="#399de5ff"] ;
151 -> 152 ;
153 [label="gini = 0.0\nsamples = 1\nvalue = [1, 0]\nclass = non-parallelizable", fillcolor="#e58139ff"] ;
151 -> 153 ;
154 [label="iterator-payload-non-cf-cohesion <= 0.0\ngini = 0.38\nsamples = 161\nvalue = [120, 41]\nclass = non-parallelizable", fillcolor="#e58139a8"] ;
2 -> 154 ;
155 [label="loop-payload-fraction <= 0.105\ngini = 0.452\nsamples = 110\nvalue = [72, 38]\nclass = non-parallelizable", fillcolor="#e5813978"] ;
154 -> 155 ;
156 [label="loop-absolute-size <= 145.5\ngini = 0.44\nsamples = 107\nvalue = [72, 35]\nclass = non-parallelizable", fillcolor="#e5813983"] ;
155 -> 156 ;
157 [label="(...)", fillcolor="#C0C0C0"] ;
156 -> 157 ;
158 [label="(...)", fillcolor="#C0C0C0"] ;
156 -> 158 ;
231 [label="gini = 0.0\nsamples = 3\nvalue = [0, 3]\nclass = parallelizable", fillcolor="#399de5ff"] ;
155 -> 231 ;
232 [label="loop-absolute-size <= 179.0\ngini = 0.111\nsamples = 51\nvalue = [48, 3]\nclass = non-parallelizable", fillcolor="#e58139ef"] ;
154 -> 232 ;
233 [label="loop-critical-payload-fraction <= 0.944\ngini = 0.346\nsamples = 9\nvalue = [7, 2]\nclass = non-parallelizable", fillcolor="#e58139b6"] ;
232 -> 233 ;
234 [label="(...)", fillcolor="#C0C0C0"] ;
233 -> 234 ;
239 [label="(...)", fillcolor="#C0C0C0"] ;
233 -> 239 ;
240 [label="loop-payload-fraction <= 0.08\ngini = 0.046\nsamples = 42\nvalue = [41, 1]\nclass = non-parallelizable", fillcolor="#e58139f9"] ;
232 -> 240 ;
241 [label="(...)", fillcolor="#C0C0C0"] ;
240 -> 241 ;
242 [label="(...)", fillcolor="#C0C0C0"] ;
240 -> 242 ;
245 [label="loop-absolute-size <= 495.0\ngini = 0.28\nsamples = 381\nvalue = [317, 64]\nclass = non-parallelizable", fillcolor="#e58139cc"] ;
1 -> 245 ;
246 [label="iterator-payload-non-cf-cohesion <= 0.015\ngini = 0.262\nsamples = 374\nvalue = [316, 58]\nclass = non-parallelizable", fillcolor="#e58139d0"] ;
245 -> 246 ;
247 [label="iterator-payload-total-cohesion <= 0.124\ngini = 0.104\nsamples = 145\nvalue = [137, 8]\nclass = non-parallelizable", fillcolor="#e58139f0"] ;
246 -> 247 ;
248 [label="iterator-payload-total-cohesion <= 0.103\ngini = 0.273\nsamples = 43\nvalue = [36, 7]\nclass = non-parallelizable", fillcolor="#e58139cd"] ;
247 -> 248 ;
249 [label="(...)", fillcolor="#C0C0C0"] ;
248 -> 249 ;
254 [label="(...)", fillcolor="#C0C0C0"] ;
248 -> 254 ;
263 [label="iterator-payload-total-cohesion <= 0.444\ngini = 0.019\nsamples = 102\nvalue = [101, 1]\nclass = non-parallelizable", fillcolor="#e58139fc"] ;
247 -> 263 ;
264 [label="(...)", fillcolor="#C0C0C0"] ;
263 -> 264 ;
265 [label="(...)", fillcolor="#C0C0C0"] ;
263 -> 265 ;
268 [label="loop-critical-payload-fraction <= 0.455\ngini = 0.341\nsamples = 229\nvalue = [179, 50]\nclass = non-parallelizable", fillcolor="#e58139b8"] ;
246 -> 268 ;
269 [label="critical-payload-anti-dependencies-number <= 34.5\ngini = 0.243\nsamples = 198\nvalue = [170, 28]\nclass = non-parallelizable", fillcolor="#e58139d5"] ;
268 -> 269 ;
270 [label="(...)", fillcolor="#C0C0C0"] ;
269 -> 270 ;
321 [label="(...)", fillcolor="#C0C0C0"] ;
269 -> 321 ;
324 [label="critical-payload-non-cf-cohesion <= 0.042\ngini = 0.412\nsamples = 31\nvalue = [9, 22]\nclass = parallelizable", fillcolor="#399de597"] ;
268 -> 324 ;
325 [label="(...)", fillcolor="#C0C0C0"] ;
324 -> 325 ;
326 [label="(...)", fillcolor="#C0C0C0"] ;
324 -> 326 ;
333 [label="payload-total-dependencies-number <= 939.5\ngini = 0.245\nsamples = 7\nvalue = [1, 6]\nclass = parallelizable", fillcolor="#399de5d4"] ;
245 -> 333 ;
334 [label="gini = 0.0\nsamples = 6\nvalue = [0, 6]\nclass = parallelizable", fillcolor="#399de5ff"] ;
333 -> 334 ;
335 [label="gini = 0.0\nsamples = 1\nvalue = [1, 0]\nclass = non-parallelizable", fillcolor="#e58139ff"] ;
333 -> 335 ;
336 [label="iterator-payload-total-cohesion <= 0.21\ngini = 0.484\nsamples = 484\nvalue = [199, 285]\nclass = parallelizable", fillcolor="#399de54d"] ;
0 -> 336 [labeldistance=2.5, labelangle=-45, headlabel="False"] ;
337 [label="payload-true-dependencies-number <= 111.0\ngini = 0.114\nsamples = 33\nvalue = [31, 2]\nclass = non-parallelizable", fillcolor="#e58139ef"] ;
336 -> 337 ;
338 [label="gini = 0.0\nsamples = 31\nvalue = [31, 0]\nclass = non-parallelizable", fillcolor="#e58139ff"] ;
337 -> 338 ;
339 [label="gini = 0.0\nsamples = 2\nvalue = [0, 2]\nclass = parallelizable", fillcolor="#399de5ff"] ;
337 -> 339 ;
340 [label="loop-critical-payload-fraction <= 0.349\ngini = 0.467\nsamples = 451\nvalue = [168, 283]\nclass = parallelizable", fillcolor="#399de568"] ;
336 -> 340 ;
341 [label="loop-proper-sccs-number <= 1.5\ngini = 0.457\nsamples = 434\nvalue = [153, 281]\nclass = parallelizable", fillcolor="#399de574"] ;
340 -> 341 ;
342 [label="critical-payload-true-dependencies-number <= 6.5\ngini = 0.477\nsamples = 369\nvalue = [145, 224]\nclass = parallelizable", fillcolor="#399de55a"] ;
341 -> 342 ;
343 [label="iterator-payload-non-cf-cohesion <= 0.049\ngini = 0.459\nsamples = 322\nvalue = [115, 207]\nclass = parallelizable", fillcolor="#399de571"] ;
342 -> 343 ;
344 [label="(...)", fillcolor="#C0C0C0"] ;
343 -> 344 ;
435 [label="(...)", fillcolor="#C0C0C0"] ;
343 -> 435 ;
466 [label="critical-payload-true-dependencies-number <= 37.0\ngini = 0.462\nsamples = 47\nvalue = [30, 17]\nclass = non-parallelizable", fillcolor="#e581396e"] ;
342 -> 466 ;
467 [label="(...)", fillcolor="#C0C0C0"] ;
466 -> 467 ;
482 [label="(...)", fillcolor="#C0C0C0"] ;
466 -> 482 ;
483 [label="loop-payload-fraction <= 0.575\ngini = 0.216\nsamples = 65\nvalue = [8, 57]\nclass = parallelizable", fillcolor="#399de5db"] ;
341 -> 483 ;
484 [label="loop-critical-payload-fraction <= 0.307\ngini = 0.375\nsamples = 4\nvalue = [3, 1]\nclass = non-parallelizable", fillcolor="#e58139aa"] ;
483 -> 484 ;
485 [label="(...)", fillcolor="#C0C0C0"] ;
484 -> 485 ;
486 [label="(...)", fillcolor="#C0C0C0"] ;
484 -> 486 ;
487 [label="loop-critical-payload-fraction <= 0.066\ngini = 0.15\nsamples = 61\nvalue = [5, 56]\nclass = parallelizable", fillcolor="#399de5e8"] ;
483 -> 487 ;
488 [label="(...)", fillcolor="#C0C0C0"] ;
487 -> 488 ;
495 [label="(...)", fillcolor="#C0C0C0"] ;
487 -> 495 ;
496 [label="payload-true-dependencies-number <= 19.5\ngini = 0.208\nsamples = 17\nvalue = [15, 2]\nclass = non-parallelizable", fillcolor="#e58139dd"] ;
340 -> 496 ;
497 [label="loop-critical-payload-fraction <= 0.437\ngini = 0.444\nsamples = 3\nvalue = [1, 2]\nclass = parallelizable", fillcolor="#399de57f"] ;
496 -> 497 ;
498 [label="gini = 0.0\nsamples = 2\nvalue = [0, 2]\nclass = parallelizable", fillcolor="#399de5ff"] ;
497 -> 498 ;
499 [label="gini = 0.0\nsamples = 1\nvalue = [1, 0]\nclass = non-parallelizable", fillcolor="#e58139ff"] ;
497 -> 499 ;
500 [label="gini = 0.0\nsamples = 14\nvalue = [14, 0]\nclass = non-parallelizable", fillcolor="#e58139ff"] ;
496 -> 500 ;
}