digraph Tree {
node [shape=box, style="filled, rounded", color="black", fontname=helvetica] ;
edge [fontname=helvetica] ;
0 [label="iterator-payload-non-cf-cohesion <= 0.029\ngini = 0.472\nsamples = 1277\nvalue = [790, 487]\nclass = non-parallelizable", fillcolor="#e5813962"] ;
1 [label="loop-payload-fraction <= 0.189\ngini = 0.38\nsamples = 793\nvalue = [591, 202]\nclass = non-parallelizable", fillcolor="#e58139a8"] ;
0 -> 1 [labeldistance=2.5, labelangle=45, headlabel="True"] ;
2 [label="iterator-payload-non-cf-cohesion <= 0.0\ngini = 0.446\nsamples = 412\nvalue = [274, 138]\nclass = non-parallelizable", fillcolor="#e581397f"] ;
1 -> 2 ;
3 [label="iterator-payload-non-cf-cohesion <= 0.0\ngini = 0.462\nsamples = 348\nvalue = [222, 126]\nclass = non-parallelizable", fillcolor="#e581396e"] ;
2 -> 3 ;
4 [label="loop-critical-payload-fraction <= 0.858\ngini = 0.46\nsamples = 346\nvalue = [222, 124]\nclass = non-parallelizable", fillcolor="#e5813971"] ;
3 -> 4 ;
5 [label="loop-critical-payload-fraction <= 0.793\ngini = 0.465\nsamples = 335\nvalue = [212, 123]\nclass = non-parallelizable", fillcolor="#e581396b"] ;
4 -> 5 ;
6 [label="(...)", fillcolor="#C0C0C0"] ;
5 -> 6 ;
87 [label="(...)", fillcolor="#C0C0C0"] ;
5 -> 87 ;
96 [label="iterator-payload-total-cohesion <= 0.02\ngini = 0.165\nsamples = 11\nvalue = [10, 1]\nclass = non-parallelizable", fillcolor="#e58139e6"] ;
4 -> 96 ;
97 [label="(...)", fillcolor="#C0C0C0"] ;
96 -> 97 ;
98 [label="(...)", fillcolor="#C0C0C0"] ;
96 -> 98 ;
99 [label="gini = 0.0\nsamples = 2\nvalue = [0, 2]\nclass = parallelizable", fillcolor="#399de5ff"] ;
3 -> 99 ;
100 [label="iterator-payload-non-cf-cohesion <= 0.011\ngini = 0.305\nsamples = 64\nvalue = [52, 12]\nclass = non-parallelizable", fillcolor="#e58139c4"] ;
2 -> 100 ;
101 [label="loop-critical-payload-fraction <= 0.942\ngini = 0.087\nsamples = 44\nvalue = [42, 2]\nclass = non-parallelizable", fillcolor="#e58139f3"] ;
100 -> 101 ;
102 [label="gini = 0.0\nsamples = 24\nvalue = [24, 0]\nclass = non-parallelizable", fillcolor="#e58139ff"] ;
101 -> 102 ;
103 [label="loop-critical-payload-fraction <= 0.974\ngini = 0.18\nsamples = 20\nvalue = [18, 2]\nclass = non-parallelizable", fillcolor="#e58139e3"] ;
101 -> 103 ;
104 [label="(...)", fillcolor="#C0C0C0"] ;
103 -> 104 ;
105 [label="(...)", fillcolor="#C0C0C0"] ;
103 -> 105 ;
110 [label="iterator-payload-non-cf-cohesion <= 0.013\ngini = 0.5\nsamples = 20\nvalue = [10, 10]\nclass = non-parallelizable", fillcolor="#e5813900"] ;
100 -> 110 ;
111 [label="gini = 0.0\nsamples = 8\nvalue = [0, 8]\nclass = parallelizable", fillcolor="#399de5ff"] ;
110 -> 111 ;
112 [label="iterator-payload-non-cf-cohesion <= 0.025\ngini = 0.278\nsamples = 12\nvalue = [10, 2]\nclass = non-parallelizable", fillcolor="#e58139cc"] ;
110 -> 112 ;
113 [label="(...)", fillcolor="#C0C0C0"] ;
112 -> 113 ;
114 [label="(...)", fillcolor="#C0C0C0"] ;
112 -> 114 ;
115 [label="iterator-payload-non-cf-cohesion <= 0.015\ngini = 0.28\nsamples = 381\nvalue = [317, 64]\nclass = non-parallelizable", fillcolor="#e58139cc"] ;
1 -> 115 ;
116 [label="iterator-payload-total-cohesion <= 0.124\ngini = 0.104\nsamples = 146\nvalue = [138, 8]\nclass = non-parallelizable", fillcolor="#e58139f0"] ;
115 -> 116 ;
117 [label="iterator-payload-total-cohesion <= 0.103\ngini = 0.273\nsamples = 43\nvalue = [36, 7]\nclass = non-parallelizable", fillcolor="#e58139cd"] ;
116 -> 117 ;
118 [label="iterator-payload-total-cohesion <= 0.09\ngini = 0.08\nsamples = 24\nvalue = [23, 1]\nclass = non-parallelizable", fillcolor="#e58139f4"] ;
117 -> 118 ;
119 [label="(...)", fillcolor="#C0C0C0"] ;
118 -> 119 ;
120 [label="(...)", fillcolor="#C0C0C0"] ;
118 -> 120 ;
125 [label="loop-critical-payload-fraction <= 0.646\ngini = 0.432\nsamples = 19\nvalue = [13, 6]\nclass = non-parallelizable", fillcolor="#e5813989"] ;
117 -> 125 ;
126 [label="(...)", fillcolor="#C0C0C0"] ;
125 -> 126 ;
131 [label="(...)", fillcolor="#C0C0C0"] ;
125 -> 131 ;
136 [label="iterator-payload-total-cohesion <= 0.444\ngini = 0.019\nsamples = 103\nvalue = [102, 1]\nclass = non-parallelizable", fillcolor="#e58139fc"] ;
116 -> 136 ;
137 [label="gini = 0.0\nsamples = 100\nvalue = [100, 0]\nclass = non-parallelizable", fillcolor="#e58139ff"] ;
136 -> 137 ;
138 [label="iterator-payload-non-cf-cohesion <= 0.008\ngini = 0.444\nsamples = 3\nvalue = [2, 1]\nclass = non-parallelizable", fillcolor="#e581397f"] ;
136 -> 138 ;
139 [label="(...)", fillcolor="#C0C0C0"] ;
138 -> 139 ;
140 [label="(...)", fillcolor="#C0C0C0"] ;
138 -> 140 ;
141 [label="loop-critical-payload-fraction <= 0.455\ngini = 0.363\nsamples = 235\nvalue = [179, 56]\nclass = non-parallelizable", fillcolor="#e58139af"] ;
115 -> 141 ;
142 [label="loop-payload-fraction <= 0.939\ngini = 0.278\nsamples = 204\nvalue = [170, 34]\nclass = non-parallelizable", fillcolor="#e58139cc"] ;
141 -> 142 ;
143 [label="loop-payload-fraction <= 0.802\ngini = 0.243\nsamples = 198\nvalue = [170, 28]\nclass = non-parallelizable", fillcolor="#e58139d5"] ;
142 -> 143 ;
144 [label="(...)", fillcolor="#C0C0C0"] ;
143 -> 144 ;
191 [label="(...)", fillcolor="#C0C0C0"] ;
143 -> 191 ;
206 [label="gini = 0.0\nsamples = 6\nvalue = [0, 6]\nclass = parallelizable", fillcolor="#399de5ff"] ;
142 -> 206 ;
207 [label="loop-critical-payload-fraction <= 0.486\ngini = 0.412\nsamples = 31\nvalue = [9, 22]\nclass = parallelizable", fillcolor="#399de597"] ;
141 -> 207 ;
208 [label="gini = 0.0\nsamples = 8\nvalue = [0, 8]\nclass = parallelizable", fillcolor="#399de5ff"] ;
207 -> 208 ;
209 [label="loop-payload-fraction <= 0.44\ngini = 0.476\nsamples = 23\nvalue = [9, 14]\nclass = parallelizable", fillcolor="#399de55b"] ;
207 -> 209 ;
210 [label="(...)", fillcolor="#C0C0C0"] ;
209 -> 210 ;
221 [label="(...)", fillcolor="#C0C0C0"] ;
209 -> 221 ;
222 [label="iterator-payload-total-cohesion <= 0.21\ngini = 0.484\nsamples = 484\nvalue = [199, 285]\nclass = parallelizable", fillcolor="#399de54d"] ;
0 -> 222 [labeldistance=2.5, labelangle=-45, headlabel="False"] ;
223 [label="loop-payload-fraction <= 0.311\ngini = 0.114\nsamples = 33\nvalue = [31, 2]\nclass = non-parallelizable", fillcolor="#e58139ef"] ;
222 -> 223 ;
224 [label="gini = 0.0\nsamples = 26\nvalue = [26, 0]\nclass = non-parallelizable", fillcolor="#e58139ff"] ;
223 -> 224 ;
225 [label="iterator-payload-non-cf-cohesion <= 0.045\ngini = 0.408\nsamples = 7\nvalue = [5, 2]\nclass = non-parallelizable", fillcolor="#e5813999"] ;
223 -> 225 ;
226 [label="gini = 0.0\nsamples = 5\nvalue = [5, 0]\nclass = non-parallelizable", fillcolor="#e58139ff"] ;
225 -> 226 ;
227 [label="gini = 0.0\nsamples = 2\nvalue = [0, 2]\nclass = parallelizable", fillcolor="#399de5ff"] ;
225 -> 227 ;
228 [label="loop-critical-payload-fraction <= 0.349\ngini = 0.467\nsamples = 451\nvalue = [168, 283]\nclass = parallelizable", fillcolor="#399de568"] ;
222 -> 228 ;
229 [label="loop-payload-fraction <= 0.842\ngini = 0.457\nsamples = 434\nvalue = [153, 281]\nclass = parallelizable", fillcolor="#399de574"] ;
228 -> 229 ;
230 [label="loop-payload-fraction <= 0.745\ngini = 0.478\nsamples = 308\nvalue = [122, 186]\nclass = parallelizable", fillcolor="#399de558"] ;
229 -> 230 ;
231 [label="iterator-payload-total-cohesion <= 0.314\ngini = 0.446\nsamples = 238\nvalue = [80, 158]\nclass = parallelizable", fillcolor="#399de57e"] ;
230 -> 231 ;
232 [label="(...)", fillcolor="#C0C0C0"] ;
231 -> 232 ;
275 [label="(...)", fillcolor="#C0C0C0"] ;
231 -> 275 ;
322 [label="loop-critical-payload-fraction <= 0.11\ngini = 0.48\nsamples = 70\nvalue = [42, 28]\nclass = non-parallelizable", fillcolor="#e5813955"] ;
230 -> 322 ;
323 [label="(...)", fillcolor="#C0C0C0"] ;
322 -> 323 ;
346 [label="(...)", fillcolor="#C0C0C0"] ;
322 -> 346 ;
353 [label="iterator-payload-non-cf-cohesion <= 0.045\ngini = 0.371\nsamples = 126\nvalue = [31, 95]\nclass = parallelizable", fillcolor="#399de5ac"] ;
229 -> 353 ;
354 [label="iterator-payload-non-cf-cohesion <= 0.029\ngini = 0.337\nsamples = 121\nvalue = [26, 95]\nclass = parallelizable", fillcolor="#399de5b9"] ;
353 -> 354 ;
355 [label="(...)", fillcolor="#C0C0C0"] ;
354 -> 355 ;
362 [label="(...)", fillcolor="#C0C0C0"] ;
354 -> 362 ;
387 [label="gini = 0.0\nsamples = 5\nvalue = [5, 0]\nclass = non-parallelizable", fillcolor="#e58139ff"] ;
353 -> 387 ;
388 [label="iterator-payload-non-cf-cohesion <= 0.031\ngini = 0.208\nsamples = 17\nvalue = [15, 2]\nclass = non-parallelizable", fillcolor="#e58139dd"] ;
228 -> 388 ;
389 [label="loop-payload-fraction <= 0.565\ngini = 0.444\nsamples = 3\nvalue = [1, 2]\nclass = parallelizable", fillcolor="#399de57f"] ;
388 -> 389 ;
390 [label="gini = 0.0\nsamples = 2\nvalue = [0, 2]\nclass = parallelizable", fillcolor="#399de5ff"] ;
389 -> 390 ;
391 [label="gini = 0.0\nsamples = 1\nvalue = [1, 0]\nclass = non-parallelizable", fillcolor="#e58139ff"] ;
389 -> 391 ;
392 [label="gini = 0.0\nsamples = 14\nvalue = [14, 0]\nclass = non-parallelizable", fillcolor="#e58139ff"] ;
388 -> 392 ;
}