digraph Tree {
node [shape=box, style="filled, rounded", color="black", fontname=helvetica] ;
edge [fontname=helvetica] ;
0 [label="payload-call-fraction <= 0.001\ngini = 0.388\nsamples = 992\nvalue = [261, 731]\nclass = parallelizable", fillcolor="#399de5a4"] ;
1 [label="critical-payload-mem-write-fraction <= 0.013\ngini = 0.227\nsamples = 790\nvalue = [103, 687]\nclass = parallelizable", fillcolor="#399de5d9"] ;
0 -> 1 [labeldistance=2.5, labelangle=45, headlabel="True"] ;
2 [label="iterator-payload-total-cohesion <= 0.043\ngini = 0.149\nsamples = 701\nvalue = [57, 644]\nclass = parallelizable", fillcolor="#399de5e8"] ;
1 -> 2 ;
3 [label="gini = 0.0\nsamples = 5\nvalue = [5, 0]\nclass = non-parallelizable", fillcolor="#e58139ff"] ;
2 -> 3 ;
4 [label="payload-getelemptr-fraction <= 0.064\ngini = 0.138\nsamples = 696\nvalue = [52, 644]\nclass = parallelizable", fillcolor="#399de5ea"] ;
2 -> 4 ;
5 [label="(...)", fillcolor="#C0C0C0"] ;
4 -> 5 ;
6 [label="(...)", fillcolor="#C0C0C0"] ;
4 -> 6 ;
101 [label="iterator-payload-non-cf-cohesion <= 0.03\ngini = 0.499\nsamples = 89\nvalue = [46, 43]\nclass = non-parallelizable", fillcolor="#e5813911"] ;
1 -> 101 ;
102 [label="payload-getelemptr-fraction <= 0.353\ngini = 0.282\nsamples = 47\nvalue = [39, 8]\nclass = non-parallelizable", fillcolor="#e58139cb"] ;
101 -> 102 ;
103 [label="(...)", fillcolor="#C0C0C0"] ;
102 -> 103 ;
110 [label="(...)", fillcolor="#C0C0C0"] ;
102 -> 110 ;
111 [label="critical-payload-mem-write-count <= 1.5\ngini = 0.278\nsamples = 42\nvalue = [7, 35]\nclass = parallelizable", fillcolor="#399de5cc"] ;
101 -> 111 ;
112 [label="(...)", fillcolor="#C0C0C0"] ;
111 -> 112 ;
121 [label="(...)", fillcolor="#C0C0C0"] ;
111 -> 121 ;
128 [label="payload-mem-read-fraction <= 0.074\ngini = 0.341\nsamples = 202\nvalue = [158, 44]\nclass = non-parallelizable", fillcolor="#e58139b8"] ;
0 -> 128 [labeldistance=2.5, labelangle=-45, headlabel="False"] ;
129 [label="payload-getelemptr-fraction <= 0.371\ngini = 0.269\nsamples = 25\nvalue = [4, 21]\nclass = parallelizable", fillcolor="#399de5ce"] ;
128 -> 129 ;
130 [label="gini = 0.0\nsamples = 21\nvalue = [0, 21]\nclass = parallelizable", fillcolor="#399de5ff"] ;
129 -> 130 ;
131 [label="gini = 0.0\nsamples = 4\nvalue = [4, 0]\nclass = non-parallelizable", fillcolor="#e58139ff"] ;
129 -> 131 ;
132 [label="loop-proper-sccs-ddg-number-diff <= 3.5\ngini = 0.226\nsamples = 177\nvalue = [154, 23]\nclass = non-parallelizable", fillcolor="#e58139d9"] ;
128 -> 132 ;
133 [label="iterator-payload-total-cohesion <= 0.458\ngini = 0.126\nsamples = 163\nvalue = [152, 11]\nclass = non-parallelizable", fillcolor="#e58139ed"] ;
132 -> 133 ;
134 [label="(...)", fillcolor="#C0C0C0"] ;
133 -> 134 ;
145 [label="(...)", fillcolor="#C0C0C0"] ;
133 -> 145 ;
152 [label="payload-getelemptr-count <= 27.0\ngini = 0.245\nsamples = 14\nvalue = [2, 12]\nclass = parallelizable", fillcolor="#399de5d4"] ;
132 -> 152 ;
153 [label="(...)", fillcolor="#C0C0C0"] ;
152 -> 153 ;
154 [label="(...)", fillcolor="#C0C0C0"] ;
152 -> 154 ;
}