digraph Tree {
node [shape=box, style="filled, rounded", color="black", fontname=helvetica] ;
edge [fontname=helvetica] ;
0 [label="payload-getelemptr-fraction <= 0.104\ngini = 0.431\nsamples = 937\nvalue = [294, 643]\nclass = parallelizable", fillcolor="#399de58a"] ;
1 [label="iterator-branch-fraction <= 0.17\ngini = 0.206\nsamples = 120\nvalue = [106, 14]\nclass = non-parallelizable", fillcolor="#e58139dd"] ;
0 -> 1 [labeldistance=2.5, labelangle=45, headlabel="True"] ;
2 [label="iterator-getelemptr-fraction <= 0.174\ngini = 0.467\nsamples = 35\nvalue = [22, 13]\nclass = non-parallelizable", fillcolor="#e5813968"] ;
1 -> 2 ;
3 [label="iterator-mem-read-fraction <= 0.216\ngini = 0.444\nsamples = 12\nvalue = [4, 8]\nclass = parallelizable", fillcolor="#399de57f"] ;
2 -> 3 ;
4 [label="iterator-payload-total-cohesion <= 0.335\ngini = 0.32\nsamples = 10\nvalue = [2, 8]\nclass = parallelizable", fillcolor="#399de5bf"] ;
3 -> 4 ;
5 [label="critical-payload-total-dependencies-number <= 1.0\ngini = 0.198\nsamples = 9\nvalue = [1, 8]\nclass = parallelizable", fillcolor="#399de5df"] ;
4 -> 5 ;
6 [label="(...)", fillcolor="#C0C0C0"] ;
5 -> 6 ;
7 [label="(...)", fillcolor="#C0C0C0"] ;
5 -> 7 ;
8 [label="gini = 0.0\nsamples = 1\nvalue = [1, 0]\nclass = non-parallelizable", fillcolor="#e58139ff"] ;
4 -> 8 ;
9 [label="gini = 0.0\nsamples = 2\nvalue = [2, 0]\nclass = non-parallelizable", fillcolor="#e58139ff"] ;
3 -> 9 ;
10 [label="iterator-cntl-dependencies-number <= 15.0\ngini = 0.34\nsamples = 23\nvalue = [18, 5]\nclass = non-parallelizable", fillcolor="#e58139b8"] ;
2 -> 10 ;
11 [label="iterator-total-dependencies-number <= 31.0\ngini = 0.5\nsamples = 6\nvalue = [3, 3]\nclass = non-parallelizable", fillcolor="#e5813900"] ;
10 -> 11 ;
12 [label="iterator-cntl-dependencies-number <= 10.0\ngini = 0.375\nsamples = 4\nvalue = [3, 1]\nclass = non-parallelizable", fillcolor="#e58139aa"] ;
11 -> 12 ;
13 [label="(...)", fillcolor="#C0C0C0"] ;
12 -> 13 ;
14 [label="(...)", fillcolor="#C0C0C0"] ;
12 -> 14 ;
15 [label="gini = 0.0\nsamples = 2\nvalue = [0, 2]\nclass = parallelizable", fillcolor="#399de5ff"] ;
11 -> 15 ;
16 [label="critical-payload-total-cohesion <= 0.194\ngini = 0.208\nsamples = 17\nvalue = [15, 2]\nclass = non-parallelizable", fillcolor="#e58139dd"] ;
10 -> 16 ;
17 [label="critical-payload-branch-fraction <= 0.103\ngini = 0.117\nsamples = 16\nvalue = [15, 1]\nclass = non-parallelizable", fillcolor="#e58139ee"] ;
16 -> 17 ;
18 [label="(...)", fillcolor="#C0C0C0"] ;
17 -> 18 ;
19 [label="(...)", fillcolor="#C0C0C0"] ;
17 -> 19 ;
22 [label="gini = 0.0\nsamples = 1\nvalue = [0, 1]\nclass = parallelizable", fillcolor="#399de5ff"] ;
16 -> 22 ;
23 [label="payload-anti-dependencies-number <= 6.5\ngini = 0.023\nsamples = 85\nvalue = [84, 1]\nclass = non-parallelizable", fillcolor="#e58139fc"] ;
1 -> 23 ;
24 [label="gini = 0.0\nsamples = 84\nvalue = [84, 0]\nclass = non-parallelizable", fillcolor="#e58139ff"] ;
23 -> 24 ;
25 [label="gini = 0.0\nsamples = 1\nvalue = [0, 1]\nclass = parallelizable", fillcolor="#399de5ff"] ;
23 -> 25 ;
26 [label="payload-call-fraction <= 0.001\ngini = 0.354\nsamples = 817\nvalue = [188, 629]\nclass = parallelizable", fillcolor="#399de5b3"] ;
0 -> 26 [labeldistance=2.5, labelangle=-45, headlabel="False"] ;
27 [label="critical-payload-output-dependencies-number <= 0.5\ngini = 0.208\nsamples = 636\nvalue = [75, 561]\nclass = parallelizable", fillcolor="#399de5dd"] ;
26 -> 27 ;
28 [label="critical-payload-getelemptr-count <= 2.0\ngini = 0.13\nsamples = 558\nvalue = [39, 519]\nclass = parallelizable", fillcolor="#399de5ec"] ;
27 -> 28 ;
29 [label="payload-branch-count <= 14.5\ngini = 0.11\nsamples = 550\nvalue = [32, 518]\nclass = parallelizable", fillcolor="#399de5ef"] ;
28 -> 29 ;
30 [label="iterator-true-dependencies-number <= 16.5\ngini = 0.077\nsamples = 525\nvalue = [21, 504]\nclass = parallelizable", fillcolor="#399de5f4"] ;
29 -> 30 ;
31 [label="(...)", fillcolor="#C0C0C0"] ;
30 -> 31 ;
70 [label="(...)", fillcolor="#C0C0C0"] ;
30 -> 70 ;
73 [label="critical-payload-true-dependencies-number <= 43.0\ngini = 0.493\nsamples = 25\nvalue = [11, 14]\nclass = parallelizable", fillcolor="#399de537"] ;
29 -> 73 ;
74 [label="(...)", fillcolor="#C0C0C0"] ;
73 -> 74 ;
77 [label="(...)", fillcolor="#C0C0C0"] ;
73 -> 77 ;
80 [label="critical-payload-total-cohesion <= 0.214\ngini = 0.219\nsamples = 8\nvalue = [7, 1]\nclass = non-parallelizable", fillcolor="#e58139db"] ;
28 -> 80 ;
81 [label="gini = 0.0\nsamples = 7\nvalue = [7, 0]\nclass = non-parallelizable", fillcolor="#e58139ff"] ;
80 -> 81 ;
82 [label="gini = 0.0\nsamples = 1\nvalue = [0, 1]\nclass = parallelizable", fillcolor="#399de5ff"] ;
80 -> 82 ;
83 [label="critical-payload-total-cohesion <= 0.101\ngini = 0.497\nsamples = 78\nvalue = [36, 42]\nclass = parallelizable", fillcolor="#399de524"] ;
27 -> 83 ;
84 [label="critical-payload-mem-read-count <= 9.0\ngini = 0.117\nsamples = 16\nvalue = [15, 1]\nclass = non-parallelizable", fillcolor="#e58139ee"] ;
83 -> 84 ;
85 [label="gini = 0.0\nsamples = 15\nvalue = [15, 0]\nclass = non-parallelizable", fillcolor="#e58139ff"] ;
84 -> 85 ;
86 [label="gini = 0.0\nsamples = 1\nvalue = [0, 1]\nclass = parallelizable", fillcolor="#399de5ff"] ;
84 -> 86 ;
87 [label="payload-getelemptr-fraction <= 0.302\ngini = 0.448\nsamples = 62\nvalue = [21, 41]\nclass = parallelizable", fillcolor="#399de57c"] ;
83 -> 87 ;
88 [label="critical-payload-mem-write-count <= 1.5\ngini = 0.499\nsamples = 44\nvalue = [21, 23]\nclass = parallelizable", fillcolor="#399de516"] ;
87 -> 88 ;
89 [label="(...)", fillcolor="#C0C0C0"] ;
88 -> 89 ;
104 [label="(...)", fillcolor="#C0C0C0"] ;
88 -> 104 ;
113 [label="gini = 0.0\nsamples = 18\nvalue = [0, 18]\nclass = parallelizable", fillcolor="#399de5ff"] ;
87 -> 113 ;
114 [label="payload-mem-write-fraction <= 0.053\ngini = 0.469\nsamples = 181\nvalue = [113, 68]\nclass = non-parallelizable", fillcolor="#e5813966"] ;
26 -> 114 ;
115 [label="payload-getelemptr-count <= 7.0\ngini = 0.42\nsamples = 60\nvalue = [18, 42]\nclass = parallelizable", fillcolor="#399de592"] ;
114 -> 115 ;
116 [label="gini = 0.0\nsamples = 28\nvalue = [0, 28]\nclass = parallelizable", fillcolor="#399de5ff"] ;
115 -> 116 ;
117 [label="critical-payload-total-cohesion <= 0.405\ngini = 0.492\nsamples = 32\nvalue = [18, 14]\nclass = non-parallelizable", fillcolor="#e5813939"] ;
115 -> 117 ;
118 [label="iterator-payload-non-cf-cohesion <= 0.061\ngini = 0.298\nsamples = 11\nvalue = [2, 9]\nclass = parallelizable", fillcolor="#399de5c6"] ;
117 -> 118 ;
119 [label="(...)", fillcolor="#C0C0C0"] ;
118 -> 119 ;
120 [label="(...)", fillcolor="#C0C0C0"] ;
118 -> 120 ;
121 [label="critical-payload-total-cohesion <= 0.49\ngini = 0.363\nsamples = 21\nvalue = [16, 5]\nclass = non-parallelizable", fillcolor="#e58139af"] ;
117 -> 121 ;
122 [label="(...)", fillcolor="#C0C0C0"] ;
121 -> 122 ;
125 [label="(...)", fillcolor="#C0C0C0"] ;
121 -> 125 ;
126 [label="critical-payload-total-cohesion <= 0.462\ngini = 0.337\nsamples = 121\nvalue = [95, 26]\nclass = non-parallelizable", fillcolor="#e58139b9"] ;
114 -> 126 ;
127 [label="iterator-payload-total-cohesion <= 0.459\ngini = 0.276\nsamples = 109\nvalue = [91, 18]\nclass = non-parallelizable", fillcolor="#e58139cd"] ;
126 -> 127 ;
128 [label="payload-getelemptr-fraction <= 0.182\ngini = 0.201\nsamples = 97\nvalue = [86, 11]\nclass = non-parallelizable", fillcolor="#e58139de"] ;
127 -> 128 ;
129 [label="(...)", fillcolor="#C0C0C0"] ;
128 -> 129 ;
136 [label="(...)", fillcolor="#C0C0C0"] ;
128 -> 136 ;
145 [label="payload-branch-fraction <= 0.042\ngini = 0.486\nsamples = 12\nvalue = [5, 7]\nclass = parallelizable", fillcolor="#399de549"] ;
127 -> 145 ;
146 [label="(...)", fillcolor="#C0C0C0"] ;
145 -> 146 ;
147 [label="(...)", fillcolor="#C0C0C0"] ;
145 -> 147 ;
150 [label="payload-getelemptr-fraction <= 0.418\ngini = 0.444\nsamples = 12\nvalue = [4, 8]\nclass = parallelizable", fillcolor="#399de57f"] ;
126 -> 150 ;
151 [label="critical-payload-total-cohesion <= 0.496\ngini = 0.198\nsamples = 9\nvalue = [1, 8]\nclass = parallelizable", fillcolor="#399de5df"] ;
150 -> 151 ;
152 [label="(...)", fillcolor="#C0C0C0"] ;
151 -> 152 ;
153 [label="(...)", fillcolor="#C0C0C0"] ;
151 -> 153 ;
154 [label="gini = 0.0\nsamples = 3\nvalue = [3, 0]\nclass = non-parallelizable", fillcolor="#e58139ff"] ;
150 -> 154 ;
}