digraph Tree {
node [shape=box, style="filled, rounded", color="black", fontname=helvetica] ;
edge [fontname=helvetica] ;
0 [label="payload-call-fraction <= 0.001\ngini = 0.391\nsamples = 1047\nvalue = [279, 768]\nclass = parallelizable", fillcolor="#399de5a2"] ;
1 [label="critical-payload-mem-write-fraction <= 0.013\ngini = 0.231\nsamples = 834\nvalue = [111, 723]\nclass = parallelizable", fillcolor="#399de5d8"] ;
0 -> 1 [labeldistance=2.5, labelangle=45, headlabel="True"] ;
2 [label="iterator-payload-non-cf-cohesion <= 0.004\ngini = 0.148\nsamples = 735\nvalue = [59, 676]\nclass = parallelizable", fillcolor="#399de5e9"] ;
1 -> 2 ;
3 [label="gini = 0.0\nsamples = 6\nvalue = [6, 0]\nclass = non-parallelizable", fillcolor="#e58139ff"] ;
2 -> 3 ;
4 [label="payload-branch-count <= 21.5\ngini = 0.135\nsamples = 729\nvalue = [53, 676]\nclass = parallelizable", fillcolor="#399de5eb"] ;
2 -> 4 ;
5 [label="iterator-payload-total-cohesion <= 0.043\ngini = 0.126\nsamples = 725\nvalue = [49, 676]\nclass = parallelizable", fillcolor="#399de5ed"] ;
4 -> 5 ;
6 [label="gini = 0.0\nsamples = 4\nvalue = [4, 0]\nclass = non-parallelizable", fillcolor="#e58139ff"] ;
5 -> 6 ;
7 [label="iterator-payload-non-cf-cohesion <= 0.034\ngini = 0.117\nsamples = 721\nvalue = [45, 676]\nclass = parallelizable", fillcolor="#399de5ee"] ;
5 -> 7 ;
8 [label="(...)", fillcolor="#C0C0C0"] ;
7 -> 8 ;
37 [label="(...)", fillcolor="#C0C0C0"] ;
7 -> 37 ;
94 [label="gini = 0.0\nsamples = 4\nvalue = [4, 0]\nclass = non-parallelizable", fillcolor="#e58139ff"] ;
4 -> 94 ;
95 [label="iterator-payload-non-cf-cohesion <= 0.03\ngini = 0.499\nsamples = 99\nvalue = [52, 47]\nclass = non-parallelizable", fillcolor="#e5813919"] ;
1 -> 95 ;
96 [label="payload-getelemptr-fraction <= 0.353\ngini = 0.286\nsamples = 52\nvalue = [43, 9]\nclass = non-parallelizable", fillcolor="#e58139ca"] ;
95 -> 96 ;
97 [label="loop-iterator-size <= 5.5\ngini = 0.156\nsamples = 47\nvalue = [43, 4]\nclass = non-parallelizable", fillcolor="#e58139e7"] ;
96 -> 97 ;
98 [label="payload-branch-fraction <= 0.225\ngini = 0.085\nsamples = 45\nvalue = [43, 2]\nclass = non-parallelizable", fillcolor="#e58139f3"] ;
97 -> 98 ;
99 [label="(...)", fillcolor="#C0C0C0"] ;
98 -> 99 ;
100 [label="(...)", fillcolor="#C0C0C0"] ;
98 -> 100 ;
103 [label="gini = 0.0\nsamples = 2\nvalue = [0, 2]\nclass = parallelizable", fillcolor="#399de5ff"] ;
97 -> 103 ;
104 [label="gini = 0.0\nsamples = 5\nvalue = [0, 5]\nclass = parallelizable", fillcolor="#399de5ff"] ;
96 -> 104 ;
105 [label="payload-getelemptr-fraction <= 0.237\ngini = 0.31\nsamples = 47\nvalue = [9, 38]\nclass = parallelizable", fillcolor="#399de5c3"] ;
95 -> 105 ;
106 [label="payload-mem-write-count <= 1.5\ngini = 0.48\nsamples = 5\nvalue = [3, 2]\nclass = non-parallelizable", fillcolor="#e5813955"] ;
105 -> 106 ;
107 [label="gini = 0.0\nsamples = 2\nvalue = [0, 2]\nclass = parallelizable", fillcolor="#399de5ff"] ;
106 -> 107 ;
108 [label="gini = 0.0\nsamples = 3\nvalue = [3, 0]\nclass = non-parallelizable", fillcolor="#e58139ff"] ;
106 -> 108 ;
109 [label="iterator-payload-non-cf-cohesion <= 0.041\ngini = 0.245\nsamples = 42\nvalue = [6, 36]\nclass = parallelizable", fillcolor="#399de5d4"] ;
105 -> 109 ;
110 [label="payload-mem-read-fraction <= 0.082\ngini = 0.087\nsamples = 22\nvalue = [1, 21]\nclass = parallelizable", fillcolor="#399de5f3"] ;
109 -> 110 ;
111 [label="(...)", fillcolor="#C0C0C0"] ;
110 -> 111 ;
114 [label="(...)", fillcolor="#C0C0C0"] ;
110 -> 114 ;
115 [label="payload-mem-write-fraction <= 0.014\ngini = 0.375\nsamples = 20\nvalue = [5, 15]\nclass = parallelizable", fillcolor="#399de5aa"] ;
109 -> 115 ;
116 [label="(...)", fillcolor="#C0C0C0"] ;
115 -> 116 ;
117 [label="(...)", fillcolor="#C0C0C0"] ;
115 -> 117 ;
128 [label="payload-mem-read-fraction <= 0.074\ngini = 0.333\nsamples = 213\nvalue = [168, 45]\nclass = non-parallelizable", fillcolor="#e58139bb"] ;
0 -> 128 [labeldistance=2.5, labelangle=-45, headlabel="False"] ;
129 [label="payload-getelemptr-fraction <= 0.371\ngini = 0.311\nsamples = 26\nvalue = [5, 21]\nclass = parallelizable", fillcolor="#399de5c2"] ;
128 -> 129 ;
130 [label="gini = 0.0\nsamples = 21\nvalue = [0, 21]\nclass = parallelizable", fillcolor="#399de5ff"] ;
129 -> 130 ;
131 [label="gini = 0.0\nsamples = 5\nvalue = [5, 0]\nclass = non-parallelizable", fillcolor="#e58139ff"] ;
129 -> 131 ;
132 [label="loop-proper-sccs-ddg-number-diff <= 3.5\ngini = 0.224\nsamples = 187\nvalue = [163, 24]\nclass = non-parallelizable", fillcolor="#e58139d9"] ;
128 -> 132 ;
133 [label="iterator-payload-total-cohesion <= 0.458\ngini = 0.129\nsamples = 173\nvalue = [161, 12]\nclass = non-parallelizable", fillcolor="#e58139ec"] ;
132 -> 133 ;
134 [label="critical-payload-non-cf-cohesion <= 0.133\ngini = 0.063\nsamples = 154\nvalue = [149, 5]\nclass = non-parallelizable", fillcolor="#e58139f6"] ;
133 -> 134 ;
135 [label="payload-branch-fraction <= 0.037\ngini = 0.039\nsamples = 151\nvalue = [148, 3]\nclass = non-parallelizable", fillcolor="#e58139fa"] ;
134 -> 135 ;
136 [label="(...)", fillcolor="#C0C0C0"] ;
135 -> 136 ;
137 [label="(...)", fillcolor="#C0C0C0"] ;
135 -> 137 ;
144 [label="payload-mem-write-fraction <= 0.083\ngini = 0.444\nsamples = 3\nvalue = [1, 2]\nclass = parallelizable", fillcolor="#399de57f"] ;
134 -> 144 ;
145 [label="(...)", fillcolor="#C0C0C0"] ;
144 -> 145 ;
146 [label="(...)", fillcolor="#C0C0C0"] ;
144 -> 146 ;
147 [label="payload-branch-fraction <= 0.061\ngini = 0.465\nsamples = 19\nvalue = [12, 7]\nclass = non-parallelizable", fillcolor="#e581396a"] ;
133 -> 147 ;
148 [label="payload-getelemptr-count <= 62.5\ngini = 0.153\nsamples = 12\nvalue = [11, 1]\nclass = non-parallelizable", fillcolor="#e58139e8"] ;
147 -> 148 ;
149 [label="(...)", fillcolor="#C0C0C0"] ;
148 -> 149 ;
150 [label="(...)", fillcolor="#C0C0C0"] ;
148 -> 150 ;
151 [label="payload-call-fraction <= 0.049\ngini = 0.245\nsamples = 7\nvalue = [1, 6]\nclass = parallelizable", fillcolor="#399de5d4"] ;
147 -> 151 ;
152 [label="(...)", fillcolor="#C0C0C0"] ;
151 -> 152 ;
153 [label="(...)", fillcolor="#C0C0C0"] ;
151 -> 153 ;
154 [label="payload-mem-write-fraction <= 0.057\ngini = 0.245\nsamples = 14\nvalue = [2, 12]\nclass = parallelizable", fillcolor="#399de5d4"] ;
132 -> 154 ;
155 [label="gini = 0.0\nsamples = 12\nvalue = [0, 12]\nclass = parallelizable", fillcolor="#399de5ff"] ;
154 -> 155 ;
156 [label="gini = 0.0\nsamples = 2\nvalue = [2, 0]\nclass = non-parallelizable", fillcolor="#e58139ff"] ;
154 -> 156 ;
}