digraph Tree {
node [shape=box, style="filled, rounded", color="black", fontname=helvetica] ;
edge [fontname=helvetica] ;
0 [label="payload-call-fraction <= 0.0\ngini = 0.493\nsamples = 1325\nvalue = [584, 741]\nclass = parallelizable", fillcolor="#399de536"] ;
1 [label="iterator-payload-non-cf-cohesion <= 0.034\ngini = 0.423\nsamples = 1023\nvalue = [311, 712]\nclass = parallelizable", fillcolor="#399de590"] ;
0 -> 1 [labeldistance=2.5, labelangle=45, headlabel="True"] ;
2 [label="critical-payload-true-dependencies-number <= 21.5\ngini = 0.472\nsamples = 380\nvalue = [235, 145]\nclass = non-parallelizable", fillcolor="#e5813962"] ;
1 -> 2 ;
3 [label="critical-payload-total-cohesion <= 0.212\ngini = 0.497\nsamples = 310\nvalue = [166, 144]\nclass = non-parallelizable", fillcolor="#e5813922"] ;
2 -> 3 ;
4 [label="payload-mem-write-count <= 1.5\ngini = 0.353\nsamples = 153\nvalue = [118, 35]\nclass = non-parallelizable", fillcolor="#e58139b3"] ;
3 -> 4 ;
5 [label="iterator-payload-non-cf-cohesion <= 0.031\ngini = 0.257\nsamples = 132\nvalue = [112, 20]\nclass = non-parallelizable", fillcolor="#e58139d1"] ;
4 -> 5 ;
6 [label="(...)", fillcolor="#C0C0C0"] ;
5 -> 6 ;
21 [label="(...)", fillcolor="#C0C0C0"] ;
5 -> 21 ;
36 [label="critical-payload-non-cf-cohesion <= 0.067\ngini = 0.408\nsamples = 21\nvalue = [6, 15]\nclass = parallelizable", fillcolor="#399de599"] ;
4 -> 36 ;
37 [label="(...)", fillcolor="#C0C0C0"] ;
36 -> 37 ;
42 [label="(...)", fillcolor="#C0C0C0"] ;
36 -> 42 ;
43 [label="critical-payload-mem-dependencies-number <= 3.5\ngini = 0.425\nsamples = 157\nvalue = [48, 109]\nclass = parallelizable", fillcolor="#399de58f"] ;
3 -> 43 ;
44 [label="iterator-payload-non-cf-cohesion <= 0.021\ngini = 0.371\nsamples = 142\nvalue = [35, 107]\nclass = parallelizable", fillcolor="#399de5ac"] ;
43 -> 44 ;
45 [label="(...)", fillcolor="#C0C0C0"] ;
44 -> 45 ;
62 [label="(...)", fillcolor="#C0C0C0"] ;
44 -> 62 ;
83 [label="critical-payload-mem-write-fraction <= 0.121\ngini = 0.231\nsamples = 15\nvalue = [13, 2]\nclass = non-parallelizable", fillcolor="#e58139d8"] ;
43 -> 83 ;
84 [label="(...)", fillcolor="#C0C0C0"] ;
83 -> 84 ;
85 [label="(...)", fillcolor="#C0C0C0"] ;
83 -> 85 ;
86 [label="critical-payload-total-cohesion <= 0.5\ngini = 0.028\nsamples = 70\nvalue = [69, 1]\nclass = non-parallelizable", fillcolor="#e58139fb"] ;
2 -> 86 ;
87 [label="gini = 0.0\nsamples = 68\nvalue = [68, 0]\nclass = non-parallelizable", fillcolor="#e58139ff"] ;
86 -> 87 ;
88 [label="critical-payload-true-dependencies-number <= 29.5\ngini = 0.5\nsamples = 2\nvalue = [1, 1]\nclass = non-parallelizable", fillcolor="#e5813900"] ;
86 -> 88 ;
89 [label="gini = 0.0\nsamples = 1\nvalue = [1, 0]\nclass = non-parallelizable", fillcolor="#e58139ff"] ;
88 -> 89 ;
90 [label="gini = 0.0\nsamples = 1\nvalue = [0, 1]\nclass = parallelizable", fillcolor="#399de5ff"] ;
88 -> 90 ;
91 [label="loop-payload-fraction <= 0.515\ngini = 0.208\nsamples = 643\nvalue = [76, 567]\nclass = parallelizable", fillcolor="#399de5dd"] ;
1 -> 91 ;
92 [label="critical-payload-branch-fraction <= 0.102\ngini = 0.375\nsamples = 16\nvalue = [12, 4]\nclass = non-parallelizable", fillcolor="#e58139aa"] ;
91 -> 92 ;
93 [label="iterator-reg-dependencies-number <= 58.5\ngini = 0.375\nsamples = 4\nvalue = [1, 3]\nclass = parallelizable", fillcolor="#399de5aa"] ;
92 -> 93 ;
94 [label="gini = 0.0\nsamples = 3\nvalue = [0, 3]\nclass = parallelizable", fillcolor="#399de5ff"] ;
93 -> 94 ;
95 [label="gini = 0.0\nsamples = 1\nvalue = [1, 0]\nclass = non-parallelizable", fillcolor="#e58139ff"] ;
93 -> 95 ;
96 [label="loop-absolute-size <= 11.0\ngini = 0.153\nsamples = 12\nvalue = [11, 1]\nclass = non-parallelizable", fillcolor="#e58139e8"] ;
92 -> 96 ;
97 [label="gini = 0.245\nsamples = 7\nvalue = [6, 1]\nclass = non-parallelizable", fillcolor="#e58139d4"] ;
96 -> 97 ;
98 [label="gini = 0.0\nsamples = 5\nvalue = [5, 0]\nclass = non-parallelizable", fillcolor="#e58139ff"] ;
96 -> 98 ;
99 [label="loop-critical-payload-fraction <= 0.359\ngini = 0.183\nsamples = 627\nvalue = [64, 563]\nclass = parallelizable", fillcolor="#399de5e2"] ;
91 -> 99 ;
100 [label="critical-payload-mem-read-count <= 5.5\ngini = 0.156\nsamples = 609\nvalue = [52, 557]\nclass = parallelizable", fillcolor="#399de5e7"] ;
99 -> 100 ;
101 [label="payload-branch-fraction <= 0.22\ngini = 0.128\nsamples = 569\nvalue = [39, 530]\nclass = parallelizable", fillcolor="#399de5ec"] ;
100 -> 101 ;
102 [label="(...)", fillcolor="#C0C0C0"] ;
101 -> 102 ;
157 [label="(...)", fillcolor="#C0C0C0"] ;
101 -> 157 ;
176 [label="critical-payload-mem-write-fraction <= 0.1\ngini = 0.439\nsamples = 40\nvalue = [13, 27]\nclass = parallelizable", fillcolor="#399de584"] ;
100 -> 176 ;
177 [label="(...)", fillcolor="#C0C0C0"] ;
176 -> 177 ;
178 [label="(...)", fillcolor="#C0C0C0"] ;
176 -> 178 ;
185 [label="payload-output-dependencies-number <= 1.5\ngini = 0.444\nsamples = 18\nvalue = [12, 6]\nclass = non-parallelizable", fillcolor="#e581397f"] ;
99 -> 185 ;
186 [label="payload-branch-count <= 3.0\ngini = 0.496\nsamples = 11\nvalue = [5, 6]\nclass = parallelizable", fillcolor="#399de52a"] ;
185 -> 186 ;
187 [label="(...)", fillcolor="#C0C0C0"] ;
186 -> 187 ;
190 [label="(...)", fillcolor="#C0C0C0"] ;
186 -> 190 ;
193 [label="gini = 0.0\nsamples = 7\nvalue = [7, 0]\nclass = non-parallelizable", fillcolor="#e58139ff"] ;
185 -> 193 ;
194 [label="payload-mem-write-fraction <= 0.047\ngini = 0.174\nsamples = 302\nvalue = [273, 29]\nclass = non-parallelizable", fillcolor="#e58139e4"] ;
0 -> 194 [labeldistance=2.5, labelangle=-45, headlabel="False"] ;
195 [label="payload-call-count <= 4.5\ngini = 0.39\nsamples = 64\nvalue = [47, 17]\nclass = non-parallelizable", fillcolor="#e58139a3"] ;
194 -> 195 ;
196 [label="payload-call-fraction <= 0.046\ngini = 0.208\nsamples = 51\nvalue = [45, 6]\nclass = non-parallelizable", fillcolor="#e58139dd"] ;
195 -> 196 ;
197 [label="iterator-payload-non-cf-cohesion <= 0.04\ngini = 0.15\nsamples = 49\nvalue = [45, 4]\nclass = non-parallelizable", fillcolor="#e58139e8"] ;
196 -> 197 ;
198 [label="payload-getelemptr-fraction <= 0.123\ngini = 0.044\nsamples = 44\nvalue = [43, 1]\nclass = non-parallelizable", fillcolor="#e58139f9"] ;
197 -> 198 ;
199 [label="(...)", fillcolor="#C0C0C0"] ;
198 -> 199 ;
202 [label="(...)", fillcolor="#C0C0C0"] ;
198 -> 202 ;
203 [label="payload-call-fraction <= 0.018\ngini = 0.48\nsamples = 5\nvalue = [2, 3]\nclass = parallelizable", fillcolor="#399de555"] ;
197 -> 203 ;
204 [label="(...)", fillcolor="#C0C0C0"] ;
203 -> 204 ;
205 [label="(...)", fillcolor="#C0C0C0"] ;
203 -> 205 ;
206 [label="gini = 0.0\nsamples = 2\nvalue = [0, 2]\nclass = parallelizable", fillcolor="#399de5ff"] ;
196 -> 206 ;
207 [label="critical-payload-branch-fraction <= 0.225\ngini = 0.26\nsamples = 13\nvalue = [2, 11]\nclass = parallelizable", fillcolor="#399de5d1"] ;
195 -> 207 ;
208 [label="gini = 0.0\nsamples = 2\nvalue = [2, 0]\nclass = non-parallelizable", fillcolor="#e58139ff"] ;
207 -> 208 ;
209 [label="gini = 0.0\nsamples = 11\nvalue = [0, 11]\nclass = parallelizable", fillcolor="#399de5ff"] ;
207 -> 209 ;
210 [label="critical-payload-non-cf-cohesion <= 0.152\ngini = 0.096\nsamples = 238\nvalue = [226, 12]\nclass = non-parallelizable", fillcolor="#e58139f1"] ;
194 -> 210 ;
211 [label="iterator-payload-total-cohesion <= 0.522\ngini = 0.059\nsamples = 230\nvalue = [223, 7]\nclass = non-parallelizable", fillcolor="#e58139f7"] ;
210 -> 211 ;
212 [label="critical-payload-total-cohesion <= 0.5\ngini = 0.035\nsamples = 225\nvalue = [221, 4]\nclass = non-parallelizable", fillcolor="#e58139fa"] ;
211 -> 212 ;
213 [label="iterator-payload-total-cohesion <= 0.456\ngini = 0.026\nsamples = 224\nvalue = [221, 3]\nclass = non-parallelizable", fillcolor="#e58139fc"] ;
212 -> 213 ;
214 [label="(...)", fillcolor="#C0C0C0"] ;
213 -> 214 ;
219 [label="(...)", fillcolor="#C0C0C0"] ;
213 -> 219 ;
224 [label="gini = 0.0\nsamples = 1\nvalue = [0, 1]\nclass = parallelizable", fillcolor="#399de5ff"] ;
212 -> 224 ;
225 [label="loop-payload-fraction <= 0.902\ngini = 0.48\nsamples = 5\nvalue = [2, 3]\nclass = parallelizable", fillcolor="#399de555"] ;
211 -> 225 ;
226 [label="gini = 0.0\nsamples = 3\nvalue = [0, 3]\nclass = parallelizable", fillcolor="#399de5ff"] ;
225 -> 226 ;
227 [label="gini = 0.0\nsamples = 2\nvalue = [2, 0]\nclass = non-parallelizable", fillcolor="#e58139ff"] ;
225 -> 227 ;
228 [label="payload-mem-write-fraction <= 0.141\ngini = 0.469\nsamples = 8\nvalue = [3, 5]\nclass = parallelizable", fillcolor="#399de566"] ;
210 -> 228 ;
229 [label="gini = 0.0\nsamples = 5\nvalue = [0, 5]\nclass = parallelizable", fillcolor="#399de5ff"] ;
228 -> 229 ;
230 [label="gini = 0.0\nsamples = 3\nvalue = [3, 0]\nclass = non-parallelizable", fillcolor="#e58139ff"] ;
228 -> 230 ;
}