digraph Tree {
node [shape=box, style="filled, rounded", color="black", fontname=helvetica] ;
edge [fontname=helvetica] ;
0 [label="payload-call-fraction <= 0.028\ngini = 0.441\nsamples = 1167\nvalue = [383, 784]\nclass = parallelizable", fillcolor="#399de582"] ;
1 [label="payload-getelemptr-fraction <= 0.098\ngini = 0.356\nsamples = 947\nvalue = [219, 728]\nclass = parallelizable", fillcolor="#399de5b2"] ;
0 -> 1 [labeldistance=2.5, labelangle=45, headlabel="True"] ;
2 [label="iterator-conf-dependencies-number <= 0.5\ngini = 0.278\nsamples = 84\nvalue = [70, 14]\nclass = non-parallelizable", fillcolor="#e58139cc"] ;
1 -> 2 ;
3 [label="gini = 0.0\nsamples = 57\nvalue = [57, 0]\nclass = non-parallelizable", fillcolor="#e58139ff"] ;
2 -> 3 ;
4 [label="loop-absolute-size <= 68.5\ngini = 0.499\nsamples = 27\nvalue = [13, 14]\nclass = parallelizable", fillcolor="#399de512"] ;
2 -> 4 ;
5 [label="loop-absolute-size <= 30.5\ngini = 0.401\nsamples = 18\nvalue = [5, 13]\nclass = parallelizable", fillcolor="#399de59d"] ;
4 -> 5 ;
6 [label="iterator-total-dependencies-number <= 54.0\ngini = 0.486\nsamples = 12\nvalue = [5, 7]\nclass = parallelizable", fillcolor="#399de549"] ;
5 -> 6 ;
7 [label="(...)", fillcolor="#C0C0C0"] ;
6 -> 7 ;
14 [label="(...)", fillcolor="#C0C0C0"] ;
6 -> 14 ;
15 [label="gini = 0.0\nsamples = 6\nvalue = [0, 6]\nclass = parallelizable", fillcolor="#399de5ff"] ;
5 -> 15 ;
16 [label="loop-iterator-size <= 497.5\ngini = 0.198\nsamples = 9\nvalue = [8, 1]\nclass = non-parallelizable", fillcolor="#e58139df"] ;
4 -> 16 ;
17 [label="gini = 0.0\nsamples = 8\nvalue = [8, 0]\nclass = non-parallelizable", fillcolor="#e58139ff"] ;
16 -> 17 ;
18 [label="gini = 0.0\nsamples = 1\nvalue = [0, 1]\nclass = parallelizable", fillcolor="#399de5ff"] ;
16 -> 18 ;
19 [label="critical-payload-getelemptr-count <= 1.5\ngini = 0.286\nsamples = 863\nvalue = [149, 714]\nclass = parallelizable", fillcolor="#399de5ca"] ;
1 -> 19 ;
20 [label="critical-payload-output-dependencies-number <= 0.5\ngini = 0.243\nsamples = 825\nvalue = [117, 708]\nclass = parallelizable", fillcolor="#399de5d5"] ;
19 -> 20 ;
21 [label="payload-mem-dependencies-number <= 5.5\ngini = 0.178\nsamples = 688\nvalue = [68, 620]\nclass = parallelizable", fillcolor="#399de5e3"] ;
20 -> 21 ;
22 [label="loop-critical-payload-fraction <= 0.14\ngini = 0.117\nsamples = 592\nvalue = [37, 555]\nclass = parallelizable", fillcolor="#399de5ee"] ;
21 -> 22 ;
23 [label="(...)", fillcolor="#C0C0C0"] ;
22 -> 23 ;
80 [label="(...)", fillcolor="#C0C0C0"] ;
22 -> 80 ;
99 [label="payload-call-fraction <= 0.003\ngini = 0.437\nsamples = 96\nvalue = [31, 65]\nclass = parallelizable", fillcolor="#399de585"] ;
21 -> 99 ;
100 [label="(...)", fillcolor="#C0C0C0"] ;
99 -> 100 ;
119 [label="(...)", fillcolor="#C0C0C0"] ;
99 -> 119 ;
126 [label="payload-mem-read-fraction <= 0.066\ngini = 0.459\nsamples = 137\nvalue = [49, 88]\nclass = parallelizable", fillcolor="#399de571"] ;
20 -> 126 ;
127 [label="loop-depth <= 1.5\ngini = 0.332\nsamples = 19\nvalue = [15, 4]\nclass = non-parallelizable", fillcolor="#e58139bb"] ;
126 -> 127 ;
128 [label="(...)", fillcolor="#C0C0C0"] ;
127 -> 128 ;
129 [label="(...)", fillcolor="#C0C0C0"] ;
127 -> 129 ;
130 [label="payload-getelemptr-fraction <= 0.303\ngini = 0.41\nsamples = 118\nvalue = [34, 84]\nclass = parallelizable", fillcolor="#399de598"] ;
126 -> 130 ;
131 [label="(...)", fillcolor="#C0C0C0"] ;
130 -> 131 ;
156 [label="(...)", fillcolor="#C0C0C0"] ;
130 -> 156 ;
173 [label="payload-mem-write-fraction <= 0.041\ngini = 0.266\nsamples = 38\nvalue = [32, 6]\nclass = non-parallelizable", fillcolor="#e58139cf"] ;
19 -> 173 ;
174 [label="gini = 0.0\nsamples = 24\nvalue = [24, 0]\nclass = non-parallelizable", fillcolor="#e58139ff"] ;
173 -> 174 ;
175 [label="critical-payload-mem-read-fraction <= 0.252\ngini = 0.49\nsamples = 14\nvalue = [8, 6]\nclass = non-parallelizable", fillcolor="#e5813940"] ;
173 -> 175 ;
176 [label="loop-proper-sccs-ddg-number <= 2.5\ngini = 0.397\nsamples = 11\nvalue = [8, 3]\nclass = non-parallelizable", fillcolor="#e581399f"] ;
175 -> 176 ;
177 [label="(...)", fillcolor="#C0C0C0"] ;
176 -> 177 ;
178 [label="(...)", fillcolor="#C0C0C0"] ;
176 -> 178 ;
183 [label="gini = 0.0\nsamples = 3\nvalue = [0, 3]\nclass = parallelizable", fillcolor="#399de5ff"] ;
175 -> 183 ;
184 [label="payload-mem-read-fraction <= 0.096\ngini = 0.38\nsamples = 220\nvalue = [164, 56]\nclass = non-parallelizable", fillcolor="#e58139a8"] ;
0 -> 184 [labeldistance=2.5, labelangle=-45, headlabel="False"] ;
185 [label="payload-call-count <= 2.5\ngini = 0.389\nsamples = 34\nvalue = [9, 25]\nclass = parallelizable", fillcolor="#399de5a3"] ;
184 -> 185 ;
186 [label="payload-true-dependencies-number <= 10.5\ngini = 0.153\nsamples = 24\nvalue = [2, 22]\nclass = parallelizable", fillcolor="#399de5e8"] ;
185 -> 186 ;
187 [label="gini = 0.0\nsamples = 2\nvalue = [2, 0]\nclass = non-parallelizable", fillcolor="#e58139ff"] ;
186 -> 187 ;
188 [label="gini = 0.0\nsamples = 22\nvalue = [0, 22]\nclass = parallelizable", fillcolor="#399de5ff"] ;
186 -> 188 ;
189 [label="payload-call-fraction <= 0.04\ngini = 0.42\nsamples = 10\nvalue = [7, 3]\nclass = non-parallelizable", fillcolor="#e5813992"] ;
185 -> 189 ;
190 [label="gini = 0.0\nsamples = 3\nvalue = [0, 3]\nclass = parallelizable", fillcolor="#399de5ff"] ;
189 -> 190 ;
191 [label="gini = 0.0\nsamples = 7\nvalue = [7, 0]\nclass = non-parallelizable", fillcolor="#e58139ff"] ;
189 -> 191 ;
192 [label="payload-branch-count <= 16.5\ngini = 0.278\nsamples = 186\nvalue = [155, 31]\nclass = non-parallelizable", fillcolor="#e58139cc"] ;
184 -> 192 ;
193 [label="iterator-mem-read-fraction <= 0.185\ngini = 0.221\nsamples = 166\nvalue = [145, 21]\nclass = non-parallelizable", fillcolor="#e58139da"] ;
192 -> 193 ;
194 [label="critical-payload-branch-count <= 2.5\ngini = 0.138\nsamples = 134\nvalue = [124, 10]\nclass = non-parallelizable", fillcolor="#e58139ea"] ;
193 -> 194 ;
195 [label="loop-critical-payload-fraction <= 0.319\ngini = 0.126\nsamples = 133\nvalue = [124, 9]\nclass = non-parallelizable", fillcolor="#e58139ec"] ;
194 -> 195 ;
196 [label="(...)", fillcolor="#C0C0C0"] ;
195 -> 196 ;
211 [label="(...)", fillcolor="#C0C0C0"] ;
195 -> 211 ;
214 [label="gini = 0.0\nsamples = 1\nvalue = [0, 1]\nclass = parallelizable", fillcolor="#399de5ff"] ;
194 -> 214 ;
215 [label="payload-mem-write-fraction <= 0.09\ngini = 0.451\nsamples = 32\nvalue = [21, 11]\nclass = non-parallelizable", fillcolor="#e5813979"] ;
193 -> 215 ;
216 [label="iterator-total-dependencies-number <= 19.0\ngini = 0.32\nsamples = 10\nvalue = [2, 8]\nclass = parallelizable", fillcolor="#399de5bf"] ;
215 -> 216 ;
217 [label="(...)", fillcolor="#C0C0C0"] ;
216 -> 217 ;
220 [label="(...)", fillcolor="#C0C0C0"] ;
216 -> 220 ;
221 [label="payload-mem-read-fraction <= 0.117\ngini = 0.236\nsamples = 22\nvalue = [19, 3]\nclass = non-parallelizable", fillcolor="#e58139d7"] ;
215 -> 221 ;
222 [label="(...)", fillcolor="#C0C0C0"] ;
221 -> 222 ;
223 [label="(...)", fillcolor="#C0C0C0"] ;
221 -> 223 ;
228 [label="payload-call-fraction <= 0.031\ngini = 0.5\nsamples = 20\nvalue = [10, 10]\nclass = non-parallelizable", fillcolor="#e5813900"] ;
192 -> 228 ;
229 [label="gini = 0.0\nsamples = 6\nvalue = [0, 6]\nclass = parallelizable", fillcolor="#399de5ff"] ;
228 -> 229 ;
230 [label="loop-critical-payload-fraction <= 0.196\ngini = 0.408\nsamples = 14\nvalue = [10, 4]\nclass = non-parallelizable", fillcolor="#e5813999"] ;
228 -> 230 ;
231 [label="critical-payload-branch-fraction <= 0.225\ngini = 0.5\nsamples = 8\nvalue = [4, 4]\nclass = non-parallelizable", fillcolor="#e5813900"] ;
230 -> 231 ;
232 [label="(...)", fillcolor="#C0C0C0"] ;
231 -> 232 ;
233 [label="(...)", fillcolor="#C0C0C0"] ;
231 -> 233 ;
236 [label="gini = 0.0\nsamples = 6\nvalue = [6, 0]\nclass = non-parallelizable", fillcolor="#e58139ff"] ;
230 -> 236 ;
}