digraph Tree {
node [shape=box, style="filled, rounded", color="black", fontname=helvetica] ;
edge [fontname=helvetica] ;
0 [label="payload-call-fraction <= 0.028\ngini = 0.441\nsamples = 1167\nvalue = [383, 784]\nclass = parallelizable", fillcolor="#399de582"] ;
1 [label="iterator-payload-non-cf-cohesion <= 0.021\ngini = 0.356\nsamples = 947\nvalue = [219, 728]\nclass = parallelizable", fillcolor="#399de5b2"] ;
0 -> 1 [labeldistance=2.5, labelangle=45, headlabel="True"] ;
2 [label="loop-inner-loop-num <= 1.5\ngini = 0.468\nsamples = 182\nvalue = [114, 68]\nclass = non-parallelizable", fillcolor="#e5813967"] ;
1 -> 2 ;
3 [label="iterator-conf-dependencies-number <= 0.5\ngini = 0.313\nsamples = 103\nvalue = [83, 20]\nclass = non-parallelizable", fillcolor="#e58139c2"] ;
2 -> 3 ;
4 [label="(...)", fillcolor="#C0C0C0"] ;
3 -> 4 ;
15 [label="(...)", fillcolor="#C0C0C0"] ;
3 -> 15 ;
26 [label="loop-depth <= 1.5\ngini = 0.477\nsamples = 79\nvalue = [31, 48]\nclass = parallelizable", fillcolor="#399de55a"] ;
2 -> 26 ;
27 [label="(...)", fillcolor="#C0C0C0"] ;
26 -> 27 ;
38 [label="(...)", fillcolor="#C0C0C0"] ;
26 -> 38 ;
51 [label="critical-payload-getelemptr-fraction <= 0.118\ngini = 0.237\nsamples = 765\nvalue = [105, 660]\nclass = parallelizable", fillcolor="#399de5d6"] ;
1 -> 51 ;
52 [label="critical-payload-output-dependencies-number <= 0.5\ngini = 0.205\nsamples = 741\nvalue = [86, 655]\nclass = parallelizable", fillcolor="#399de5de"] ;
51 -> 52 ;
53 [label="(...)", fillcolor="#C0C0C0"] ;
52 -> 53 ;
136 [label="(...)", fillcolor="#C0C0C0"] ;
52 -> 136 ;
175 [label="iterator-mem-read-fraction <= 0.155\ngini = 0.33\nsamples = 24\nvalue = [19, 5]\nclass = non-parallelizable", fillcolor="#e58139bc"] ;
51 -> 175 ;
176 [label="(...)", fillcolor="#C0C0C0"] ;
175 -> 176 ;
179 [label="(...)", fillcolor="#C0C0C0"] ;
175 -> 179 ;
182 [label="payload-mem-read-fraction <= 0.096\ngini = 0.38\nsamples = 220\nvalue = [164, 56]\nclass = non-parallelizable", fillcolor="#e58139a8"] ;
0 -> 182 [labeldistance=2.5, labelangle=-45, headlabel="False"] ;
183 [label="iterator-payload-non-cf-cohesion <= 0.053\ngini = 0.389\nsamples = 34\nvalue = [9, 25]\nclass = parallelizable", fillcolor="#399de5a3"] ;
182 -> 183 ;
184 [label="iterator-reg-dependencies-number <= 6.0\ngini = 0.238\nsamples = 29\nvalue = [4, 25]\nclass = parallelizable", fillcolor="#399de5d6"] ;
183 -> 184 ;
185 [label="(...)", fillcolor="#C0C0C0"] ;
184 -> 185 ;
188 [label="(...)", fillcolor="#C0C0C0"] ;
184 -> 188 ;
189 [label="gini = 0.0\nsamples = 5\nvalue = [5, 0]\nclass = non-parallelizable", fillcolor="#e58139ff"] ;
183 -> 189 ;
190 [label="loop-inner-loop-num <= 2.5\ngini = 0.278\nsamples = 186\nvalue = [155, 31]\nclass = non-parallelizable", fillcolor="#e58139cc"] ;
182 -> 190 ;
191 [label="iterator-mem-read-fraction <= 0.183\ngini = 0.222\nsamples = 165\nvalue = [144, 21]\nclass = non-parallelizable", fillcolor="#e58139da"] ;
190 -> 191 ;
192 [label="(...)", fillcolor="#C0C0C0"] ;
191 -> 192 ;
217 [label="(...)", fillcolor="#C0C0C0"] ;
191 -> 217 ;
228 [label="payload-mem-dependencies-number <= 5.0\ngini = 0.499\nsamples = 21\nvalue = [11, 10]\nclass = non-parallelizable", fillcolor="#e5813917"] ;
190 -> 228 ;
229 [label="(...)", fillcolor="#C0C0C0"] ;
228 -> 229 ;
230 [label="(...)", fillcolor="#C0C0C0"] ;
228 -> 230 ;
}