digraph Tree {
node [shape=box, style="filled, rounded", color="black", fontname=helvetica] ;
edge [fontname=helvetica] ;
0 [label="iterator-payload-non-cf-cohesion <= 0.021\ngini = 0.429\nsamples = 1229\nvalue = [383, 846]\nclass = parallelizable", fillcolor="#399de58c"] ;
1 [label="iterator-payload-total-cohesion <= 0.151\ngini = 0.448\nsamples = 239\nvalue = [158, 81]\nclass = non-parallelizable", fillcolor="#e581397c"] ;
0 -> 1 [labeldistance=2.5, labelangle=45, headlabel="True"] ;
2 [label="loop-depth <= 1.5\ngini = 0.498\nsamples = 161\nvalue = [86, 75]\nclass = non-parallelizable", fillcolor="#e5813921"] ;
1 -> 2 ;
3 [label="iterator-payload-non-cf-cohesion <= 0.002\ngini = 0.4\nsamples = 76\nvalue = [21, 55]\nclass = parallelizable", fillcolor="#399de59e"] ;
2 -> 3 ;
4 [label="(...)", fillcolor="#C0C0C0"] ;
3 -> 4 ;
15 [label="(...)", fillcolor="#C0C0C0"] ;
3 -> 15 ;
26 [label="loop-absolute-size <= 48.5\ngini = 0.36\nsamples = 85\nvalue = [65, 20]\nclass = non-parallelizable", fillcolor="#e58139b1"] ;
2 -> 26 ;
27 [label="(...)", fillcolor="#C0C0C0"] ;
26 -> 27 ;
40 [label="(...)", fillcolor="#C0C0C0"] ;
26 -> 40 ;
43 [label="loop-absolute-size <= 77.5\ngini = 0.142\nsamples = 78\nvalue = [72, 6]\nclass = non-parallelizable", fillcolor="#e58139ea"] ;
1 -> 43 ;
44 [label="critical-payload-total-dependencies-number <= 23.0\ngini = 0.031\nsamples = 64\nvalue = [63, 1]\nclass = non-parallelizable", fillcolor="#e58139fb"] ;
43 -> 44 ;
45 [label="(...)", fillcolor="#C0C0C0"] ;
44 -> 45 ;
46 [label="(...)", fillcolor="#C0C0C0"] ;
44 -> 46 ;
49 [label="loop-proper-sccs-number <= 0.5\ngini = 0.459\nsamples = 14\nvalue = [9, 5]\nclass = non-parallelizable", fillcolor="#e5813971"] ;
43 -> 49 ;
50 [label="(...)", fillcolor="#C0C0C0"] ;
49 -> 50 ;
53 [label="(...)", fillcolor="#C0C0C0"] ;
49 -> 53 ;
54 [label="loop-payload-fraction <= 0.437\ngini = 0.351\nsamples = 990\nvalue = [225, 765]\nclass = parallelizable", fillcolor="#399de5b4"] ;
0 -> 54 [labeldistance=2.5, labelangle=-45, headlabel="False"] ;
55 [label="iterator-payload-non-cf-cohesion <= 0.085\ngini = 0.211\nsamples = 25\nvalue = [22, 3]\nclass = non-parallelizable", fillcolor="#e58139dc"] ;
54 -> 55 ;
56 [label="iterator-payload-non-cf-cohesion <= 0.046\ngini = 0.091\nsamples = 21\nvalue = [20, 1]\nclass = non-parallelizable", fillcolor="#e58139f2"] ;
55 -> 56 ;
57 [label="(...)", fillcolor="#C0C0C0"] ;
56 -> 57 ;
60 [label="(...)", fillcolor="#C0C0C0"] ;
56 -> 60 ;
61 [label="iterator-cntl-dependencies-number <= 54.5\ngini = 0.5\nsamples = 4\nvalue = [2, 2]\nclass = non-parallelizable", fillcolor="#e5813900"] ;
55 -> 61 ;
62 [label="(...)", fillcolor="#C0C0C0"] ;
61 -> 62 ;
63 [label="(...)", fillcolor="#C0C0C0"] ;
61 -> 63 ;
64 [label="critical-payload-output-dependencies-number <= 0.5\ngini = 0.332\nsamples = 965\nvalue = [203, 762]\nclass = parallelizable", fillcolor="#399de5bb"] ;
54 -> 64 ;
65 [label="iterator-payload-non-cf-cohesion <= 0.097\ngini = 0.277\nsamples = 824\nvalue = [137, 687]\nclass = parallelizable", fillcolor="#399de5cc"] ;
64 -> 65 ;
66 [label="(...)", fillcolor="#C0C0C0"] ;
65 -> 66 ;
227 [label="(...)", fillcolor="#C0C0C0"] ;
65 -> 227 ;
238 [label="critical-payload-non-cf-cohesion <= 0.102\ngini = 0.498\nsamples = 141\nvalue = [66, 75]\nclass = parallelizable", fillcolor="#399de51f"] ;
64 -> 238 ;
239 [label="(...)", fillcolor="#C0C0C0"] ;
238 -> 239 ;
254 [label="(...)", fillcolor="#C0C0C0"] ;
238 -> 254 ;
}