digraph Tree {
node [shape=box, style="filled, rounded", color="black", fontname=helvetica] ;
edge [fontname=helvetica] ;
0 [label="payload-call-fraction <= 0.028\ngini = 0.429\nsamples = 1229\nvalue = [383, 846]\nclass = parallelizable", fillcolor="#399de58c"] ;
1 [label="iterator-payload-non-cf-cohesion <= 0.021\ngini = 0.337\nsamples = 1011\nvalue = [217, 794]\nclass = parallelizable", fillcolor="#399de5b9"] ;
0 -> 1 [labeldistance=2.5, labelangle=45, headlabel="True"] ;
2 [label="critical-payload-branch-fraction <= 0.211\ngini = 0.484\nsamples = 178\nvalue = [105, 73]\nclass = non-parallelizable", fillcolor="#e581394e"] ;
1 -> 2 ;
3 [label="loop-depth <= 1.5\ngini = 0.489\nsamples = 108\nvalue = [46, 62]\nclass = parallelizable", fillcolor="#399de542"] ;
2 -> 3 ;
4 [label="loop-inner-loop-num <= 1.5\ngini = 0.379\nsamples = 59\nvalue = [15, 44]\nclass = parallelizable", fillcolor="#399de5a8"] ;
3 -> 4 ;
5 [label="loop-absolute-size <= 17.0\ngini = 0.42\nsamples = 20\nvalue = [14, 6]\nclass = non-parallelizable", fillcolor="#e5813992"] ;
4 -> 5 ;
6 [label="(...)", fillcolor="#C0C0C0"] ;
5 -> 6 ;
9 [label="(...)", fillcolor="#C0C0C0"] ;
5 -> 9 ;
12 [label="iterator-payload-total-cohesion <= 0.147\ngini = 0.05\nsamples = 39\nvalue = [1, 38]\nclass = parallelizable", fillcolor="#399de5f8"] ;
4 -> 12 ;
13 [label="(...)", fillcolor="#C0C0C0"] ;
12 -> 13 ;
14 [label="(...)", fillcolor="#C0C0C0"] ;
12 -> 14 ;
15 [label="payload-branch-fraction <= 0.179\ngini = 0.465\nsamples = 49\nvalue = [31, 18]\nclass = non-parallelizable", fillcolor="#e581396b"] ;
3 -> 15 ;
16 [label="gini = 0.0\nsamples = 19\nvalue = [19, 0]\nclass = non-parallelizable", fillcolor="#e58139ff"] ;
15 -> 16 ;
17 [label="iterator-mem-read-fraction <= 0.17\ngini = 0.48\nsamples = 30\nvalue = [12, 18]\nclass = parallelizable", fillcolor="#399de555"] ;
15 -> 17 ;
18 [label="(...)", fillcolor="#C0C0C0"] ;
17 -> 18 ;
21 [label="(...)", fillcolor="#C0C0C0"] ;
17 -> 21 ;
26 [label="iterator-payload-total-cohesion <= 0.436\ngini = 0.265\nsamples = 70\nvalue = [59, 11]\nclass = non-parallelizable", fillcolor="#e58139cf"] ;
2 -> 26 ;
27 [label="critical-payload-total-cohesion <= 0.368\ngini = 0.23\nsamples = 68\nvalue = [59, 9]\nclass = non-parallelizable", fillcolor="#e58139d8"] ;
26 -> 27 ;
28 [label="loop-proper-sccs-ddg-number <= 32.5\ngini = 0.078\nsamples = 49\nvalue = [47, 2]\nclass = non-parallelizable", fillcolor="#e58139f4"] ;
27 -> 28 ;
29 [label="(...)", fillcolor="#C0C0C0"] ;
28 -> 29 ;
34 [label="(...)", fillcolor="#C0C0C0"] ;
28 -> 34 ;
35 [label="payload-branch-fraction <= 0.323\ngini = 0.465\nsamples = 19\nvalue = [12, 7]\nclass = non-parallelizable", fillcolor="#e581396a"] ;
27 -> 35 ;
36 [label="(...)", fillcolor="#C0C0C0"] ;
35 -> 36 ;
43 [label="(...)", fillcolor="#C0C0C0"] ;
35 -> 43 ;
44 [label="gini = 0.0\nsamples = 2\nvalue = [0, 2]\nclass = parallelizable", fillcolor="#399de5ff"] ;
26 -> 44 ;
45 [label="critical-payload-getelemptr-count <= 1.5\ngini = 0.233\nsamples = 833\nvalue = [112, 721]\nclass = parallelizable", fillcolor="#399de5d7"] ;
1 -> 45 ;
46 [label="payload-getelemptr-fraction <= 0.098\ngini = 0.205\nsamples = 812\nvalue = [94, 718]\nclass = parallelizable", fillcolor="#399de5de"] ;
45 -> 46 ;
47 [label="gini = 0.0\nsamples = 6\nvalue = [6, 0]\nclass = non-parallelizable", fillcolor="#e58139ff"] ;
46 -> 47 ;
48 [label="critical-payload-mem-write-fraction <= 0.05\ngini = 0.195\nsamples = 806\nvalue = [88, 718]\nclass = parallelizable", fillcolor="#399de5e0"] ;
46 -> 48 ;
49 [label="payload-call-fraction <= 0.006\ngini = 0.142\nsamples = 676\nvalue = [52, 624]\nclass = parallelizable", fillcolor="#399de5ea"] ;
48 -> 49 ;
50 [label="(...)", fillcolor="#C0C0C0"] ;
49 -> 50 ;
127 [label="(...)", fillcolor="#C0C0C0"] ;
49 -> 127 ;
132 [label="critical-payload-non-cf-cohesion <= 0.1\ngini = 0.4\nsamples = 130\nvalue = [36, 94]\nclass = parallelizable", fillcolor="#399de59d"] ;
48 -> 132 ;
133 [label="(...)", fillcolor="#C0C0C0"] ;
132 -> 133 ;
138 [label="(...)", fillcolor="#C0C0C0"] ;
132 -> 138 ;
169 [label="critical-payload-mem-write-fraction <= 0.238\ngini = 0.245\nsamples = 21\nvalue = [18, 3]\nclass = non-parallelizable", fillcolor="#e58139d4"] ;
45 -> 169 ;
170 [label="critical-payload-mem-read-count <= 6.5\ngini = 0.1\nsamples = 19\nvalue = [18, 1]\nclass = non-parallelizable", fillcolor="#e58139f1"] ;
169 -> 170 ;
171 [label="gini = 0.0\nsamples = 16\nvalue = [16, 0]\nclass = non-parallelizable", fillcolor="#e58139ff"] ;
170 -> 171 ;
172 [label="payload-getelemptr-fraction <= 0.242\ngini = 0.444\nsamples = 3\nvalue = [2, 1]\nclass = non-parallelizable", fillcolor="#e581397f"] ;
170 -> 172 ;
173 [label="(...)", fillcolor="#C0C0C0"] ;
172 -> 173 ;
174 [label="(...)", fillcolor="#C0C0C0"] ;
172 -> 174 ;
175 [label="gini = 0.0\nsamples = 2\nvalue = [0, 2]\nclass = parallelizable", fillcolor="#399de5ff"] ;
169 -> 175 ;
176 [label="payload-mem-read-fraction <= 0.096\ngini = 0.363\nsamples = 218\nvalue = [166, 52]\nclass = non-parallelizable", fillcolor="#e58139af"] ;
0 -> 176 [labeldistance=2.5, labelangle=-45, headlabel="False"] ;
177 [label="iterator-payload-non-cf-cohesion <= 0.053\ngini = 0.389\nsamples = 34\nvalue = [9, 25]\nclass = parallelizable", fillcolor="#399de5a3"] ;
176 -> 177 ;
178 [label="critical-payload-branch-fraction <= 0.171\ngini = 0.238\nsamples = 29\nvalue = [4, 25]\nclass = parallelizable", fillcolor="#399de5d6"] ;
177 -> 178 ;
179 [label="gini = 0.0\nsamples = 3\nvalue = [3, 0]\nclass = non-parallelizable", fillcolor="#e58139ff"] ;
178 -> 179 ;
180 [label="loop-payload-fraction <= 0.728\ngini = 0.074\nsamples = 26\nvalue = [1, 25]\nclass = parallelizable", fillcolor="#399de5f5"] ;
178 -> 180 ;
181 [label="gini = 0.0\nsamples = 1\nvalue = [1, 0]\nclass = non-parallelizable", fillcolor="#e58139ff"] ;
180 -> 181 ;
182 [label="gini = 0.0\nsamples = 25\nvalue = [0, 25]\nclass = parallelizable", fillcolor="#399de5ff"] ;
180 -> 182 ;
183 [label="gini = 0.0\nsamples = 5\nvalue = [5, 0]\nclass = non-parallelizable", fillcolor="#e58139ff"] ;
177 -> 183 ;
184 [label="payload-branch-count <= 16.5\ngini = 0.25\nsamples = 184\nvalue = [157, 27]\nclass = non-parallelizable", fillcolor="#e58139d3"] ;
176 -> 184 ;
185 [label="loop-critical-payload-fraction <= 0.319\ngini = 0.185\nsamples = 165\nvalue = [148, 17]\nclass = non-parallelizable", fillcolor="#e58139e2"] ;
184 -> 185 ;
186 [label="iterator-mem-read-fraction <= 0.185\ngini = 0.151\nsamples = 158\nvalue = [145, 13]\nclass = non-parallelizable", fillcolor="#e58139e8"] ;
185 -> 186 ;
187 [label="iterator-payload-total-cohesion <= 0.518\ngini = 0.072\nsamples = 133\nvalue = [128, 5]\nclass = non-parallelizable", fillcolor="#e58139f5"] ;
186 -> 187 ;
188 [label="(...)", fillcolor="#C0C0C0"] ;
187 -> 188 ;
199 [label="(...)", fillcolor="#C0C0C0"] ;
187 -> 199 ;
202 [label="payload-call-fraction <= 0.085\ngini = 0.435\nsamples = 25\nvalue = [17, 8]\nclass = non-parallelizable", fillcolor="#e5813987"] ;
186 -> 202 ;
203 [label="(...)", fillcolor="#C0C0C0"] ;
202 -> 203 ;
206 [label="(...)", fillcolor="#C0C0C0"] ;
202 -> 206 ;
209 [label="payload-getelemptr-count <= 7.5\ngini = 0.49\nsamples = 7\nvalue = [3, 4]\nclass = parallelizable", fillcolor="#399de540"] ;
185 -> 209 ;
210 [label="gini = 0.0\nsamples = 4\nvalue = [0, 4]\nclass = parallelizable", fillcolor="#399de5ff"] ;
209 -> 210 ;
211 [label="gini = 0.0\nsamples = 3\nvalue = [3, 0]\nclass = non-parallelizable", fillcolor="#e58139ff"] ;
209 -> 211 ;
212 [label="loop-critical-payload-fraction <= 0.196\ngini = 0.499\nsamples = 19\nvalue = [9, 10]\nclass = parallelizable", fillcolor="#399de519"] ;
184 -> 212 ;
213 [label="loop-payload-fraction <= 0.99\ngini = 0.355\nsamples = 13\nvalue = [3, 10]\nclass = parallelizable", fillcolor="#399de5b3"] ;
212 -> 213 ;
214 [label="iterator-payload-non-cf-cohesion <= 0.035\ngini = 0.165\nsamples = 11\nvalue = [1, 10]\nclass = parallelizable", fillcolor="#399de5e6"] ;
213 -> 214 ;
215 [label="(...)", fillcolor="#C0C0C0"] ;
214 -> 215 ;
216 [label="(...)", fillcolor="#C0C0C0"] ;
214 -> 216 ;
217 [label="gini = 0.0\nsamples = 2\nvalue = [2, 0]\nclass = non-parallelizable", fillcolor="#e58139ff"] ;
213 -> 217 ;
218 [label="gini = 0.0\nsamples = 6\nvalue = [6, 0]\nclass = non-parallelizable", fillcolor="#e58139ff"] ;
212 -> 218 ;
}