digraph Tree {
node [shape=box, style="filled, rounded", color="black", fontname=helvetica] ;
edge [fontname=helvetica] ;
0 [label="iterator-payload-non-cf-cohesion <= 0.021\ngini = 0.429\nsamples = 1229\nvalue = [383, 846]\nclass = parallelizable", fillcolor="#399de58c"] ;
1 [label="critical-payload-branch-fraction <= 0.211\ngini = 0.448\nsamples = 239\nvalue = [158, 81]\nclass = non-parallelizable", fillcolor="#e581397c"] ;
0 -> 1 [labeldistance=2.5, labelangle=45, headlabel="True"] ;
2 [label="loop-depth <= 1.5\ngini = 0.499\nsamples = 126\nvalue = [60, 66]\nclass = parallelizable", fillcolor="#399de517"] ;
1 -> 2 ;
3 [label="loop-inner-loop-num <= 2.5\ngini = 0.434\nsamples = 69\nvalue = [22, 47]\nclass = parallelizable", fillcolor="#399de588"] ;
2 -> 3 ;
4 [label="(...)", fillcolor="#C0C0C0"] ;
3 -> 4 ;
19 [label="(...)", fillcolor="#C0C0C0"] ;
3 -> 19 ;
24 [label="iterator-payload-non-cf-cohesion <= 0.019\ngini = 0.444\nsamples = 57\nvalue = [38, 19]\nclass = non-parallelizable", fillcolor="#e581397f"] ;
2 -> 24 ;
25 [label="(...)", fillcolor="#C0C0C0"] ;
24 -> 25 ;
38 [label="(...)", fillcolor="#C0C0C0"] ;
24 -> 38 ;
39 [label="critical-payload-branch-count <= 1.5\ngini = 0.23\nsamples = 113\nvalue = [98, 15]\nclass = non-parallelizable", fillcolor="#e58139d8"] ;
1 -> 39 ;
40 [label="loop-payload-fraction <= 0.948\ngini = 0.082\nsamples = 70\nvalue = [67, 3]\nclass = non-parallelizable", fillcolor="#e58139f4"] ;
39 -> 40 ;
41 [label="(...)", fillcolor="#C0C0C0"] ;
40 -> 41 ;
44 [label="(...)", fillcolor="#C0C0C0"] ;
40 -> 44 ;
47 [label="payload-getelemptr-count <= 14.5\ngini = 0.402\nsamples = 43\nvalue = [31, 12]\nclass = non-parallelizable", fillcolor="#e581399c"] ;
39 -> 47 ;
48 [label="(...)", fillcolor="#C0C0C0"] ;
47 -> 48 ;
55 [label="(...)", fillcolor="#C0C0C0"] ;
47 -> 55 ;
62 [label="payload-mem-read-fraction <= 0.209\ngini = 0.351\nsamples = 990\nvalue = [225, 765]\nclass = parallelizable", fillcolor="#399de5b4"] ;
0 -> 62 [labeldistance=2.5, labelangle=-45, headlabel="False"] ;
63 [label="critical-payload-getelemptr-count <= 1.5\ngini = 0.3\nsamples = 930\nvalue = [171, 759]\nclass = parallelizable", fillcolor="#399de5c6"] ;
62 -> 63 ;
64 [label="payload-getelemptr-fraction <= 0.098\ngini = 0.271\nsamples = 902\nvalue = [146, 756]\nclass = parallelizable", fillcolor="#399de5ce"] ;
63 -> 64 ;
65 [label="(...)", fillcolor="#C0C0C0"] ;
64 -> 65 ;
66 [label="(...)", fillcolor="#C0C0C0"] ;
64 -> 66 ;
221 [label="critical-payload-true-dependencies-number <= 5.5\ngini = 0.191\nsamples = 28\nvalue = [25, 3]\nclass = non-parallelizable", fillcolor="#e58139e0"] ;
63 -> 221 ;
222 [label="(...)", fillcolor="#C0C0C0"] ;
221 -> 222 ;
223 [label="(...)", fillcolor="#C0C0C0"] ;
221 -> 223 ;
226 [label="payload-mem-write-fraction <= 0.082\ngini = 0.18\nsamples = 60\nvalue = [54, 6]\nclass = non-parallelizable", fillcolor="#e58139e3"] ;
62 -> 226 ;
227 [label="payload-reg-dependencies-number <= 29.0\ngini = 0.5\nsamples = 10\nvalue = [5, 5]\nclass = non-parallelizable", fillcolor="#e5813900"] ;
226 -> 227 ;
228 [label="(...)", fillcolor="#C0C0C0"] ;
227 -> 228 ;
229 [label="(...)", fillcolor="#C0C0C0"] ;
227 -> 229 ;
230 [label="critical-payload-non-cf-cohesion <= 0.271\ngini = 0.039\nsamples = 50\nvalue = [49, 1]\nclass = non-parallelizable", fillcolor="#e58139fa"] ;
226 -> 230 ;
231 [label="(...)", fillcolor="#C0C0C0"] ;
230 -> 231 ;
232 [label="(...)", fillcolor="#C0C0C0"] ;
230 -> 232 ;
}