digraph Tree {
node [shape=box, style="filled, rounded", color="black", fontname=helvetica] ;
edge [fontname=helvetica] ;
0 [label="payload-call-count <= 0.5\ngini = 0.462\nsamples = 1058\nvalue = [383, 675]\nclass = parallelizable", fillcolor="#399de56e"] ;
1 [label="iterator-payload-non-cf-cohesion <= 0.034\ngini = 0.366\nsamples = 853\nvalue = [206, 647]\nclass = parallelizable", fillcolor="#399de5ae"] ;
0 -> 1 [labeldistance=2.5, labelangle=45, headlabel="True"] ;
2 [label="iterator-mem-read-fraction <= 0.16\ngini = 0.499\nsamples = 267\nvalue = [139, 128]\nclass = non-parallelizable", fillcolor="#e5813914"] ;
1 -> 2 ;
3 [label="critical-payload-mem-read-count <= 3.5\ngini = 0.414\nsamples = 171\nvalue = [121, 50]\nclass = non-parallelizable", fillcolor="#e5813996"] ;
2 -> 3 ;
4 [label="iterator-payload-non-cf-cohesion <= 0.026\ngini = 0.473\nsamples = 130\nvalue = [80, 50]\nclass = non-parallelizable", fillcolor="#e5813960"] ;
3 -> 4 ;
5 [label="iterator-payload-total-cohesion <= 0.468\ngini = 0.346\nsamples = 63\nvalue = [49, 14]\nclass = non-parallelizable", fillcolor="#e58139b6"] ;
4 -> 5 ;
6 [label="(...)", fillcolor="#C0C0C0"] ;
5 -> 6 ;
25 [label="(...)", fillcolor="#C0C0C0"] ;
5 -> 25 ;
26 [label="critical-payload-total-cohesion <= 0.441\ngini = 0.497\nsamples = 67\nvalue = [31, 36]\nclass = parallelizable", fillcolor="#399de523"] ;
4 -> 26 ;
27 [label="(...)", fillcolor="#C0C0C0"] ;
26 -> 27 ;
44 [label="(...)", fillcolor="#C0C0C0"] ;
26 -> 44 ;
49 [label="gini = 0.0\nsamples = 41\nvalue = [41, 0]\nclass = non-parallelizable", fillcolor="#e58139ff"] ;
3 -> 49 ;
50 [label="payload-mem-dependencies-number <= 11.0\ngini = 0.305\nsamples = 96\nvalue = [18, 78]\nclass = parallelizable", fillcolor="#399de5c4"] ;
2 -> 50 ;
51 [label="payload-branch-fraction <= 0.276\ngini = 0.185\nsamples = 87\nvalue = [9, 78]\nclass = parallelizable", fillcolor="#399de5e2"] ;
50 -> 51 ;
52 [label="payload-true-dependencies-number <= 24.0\ngini = 0.033\nsamples = 60\nvalue = [1, 59]\nclass = parallelizable", fillcolor="#399de5fb"] ;
51 -> 52 ;
53 [label="(...)", fillcolor="#C0C0C0"] ;
52 -> 53 ;
56 [label="(...)", fillcolor="#C0C0C0"] ;
52 -> 56 ;
57 [label="payload-mem-read-fraction <= 0.085\ngini = 0.417\nsamples = 27\nvalue = [8, 19]\nclass = parallelizable", fillcolor="#399de594"] ;
51 -> 57 ;
58 [label="(...)", fillcolor="#C0C0C0"] ;
57 -> 58 ;
67 [label="(...)", fillcolor="#C0C0C0"] ;
57 -> 67 ;
70 [label="gini = 0.0\nsamples = 9\nvalue = [9, 0]\nclass = non-parallelizable", fillcolor="#e58139ff"] ;
50 -> 70 ;
71 [label="payload-branch-fraction <= 0.206\ngini = 0.203\nsamples = 586\nvalue = [67, 519]\nclass = parallelizable", fillcolor="#399de5de"] ;
1 -> 71 ;
72 [label="critical-payload-mem-read-count <= 5.5\ngini = 0.147\nsamples = 501\nvalue = [40, 461]\nclass = parallelizable", fillcolor="#399de5e9"] ;
71 -> 72 ;
73 [label="critical-payload-non-cf-cohesion <= 0.128\ngini = 0.103\nsamples = 458\nvalue = [25, 433]\nclass = parallelizable", fillcolor="#399de5f0"] ;
72 -> 73 ;
74 [label="payload-mem-write-fraction <= 0.028\ngini = 0.072\nsamples = 425\nvalue = [16, 409]\nclass = parallelizable", fillcolor="#399de5f5"] ;
73 -> 74 ;
75 [label="(...)", fillcolor="#C0C0C0"] ;
74 -> 75 ;
80 [label="(...)", fillcolor="#C0C0C0"] ;
74 -> 80 ;
119 [label="iterator-payload-non-cf-cohesion <= 0.046\ngini = 0.397\nsamples = 33\nvalue = [9, 24]\nclass = parallelizable", fillcolor="#399de59f"] ;
73 -> 119 ;
120 [label="(...)", fillcolor="#C0C0C0"] ;
119 -> 120 ;
127 [label="(...)", fillcolor="#C0C0C0"] ;
119 -> 127 ;
134 [label="iterator-branch-fraction <= 0.225\ngini = 0.454\nsamples = 43\nvalue = [15, 28]\nclass = parallelizable", fillcolor="#399de576"] ;
72 -> 134 ;
135 [label="gini = 0.0\nsamples = 22\nvalue = [0, 22]\nclass = parallelizable", fillcolor="#399de5ff"] ;
134 -> 135 ;
136 [label="critical-payload-mem-read-count <= 8.5\ngini = 0.408\nsamples = 21\nvalue = [15, 6]\nclass = non-parallelizable", fillcolor="#e5813999"] ;
134 -> 136 ;
137 [label="(...)", fillcolor="#C0C0C0"] ;
136 -> 137 ;
138 [label="(...)", fillcolor="#C0C0C0"] ;
136 -> 138 ;
147 [label="iterator-mem-read-fraction <= 0.117\ngini = 0.433\nsamples = 85\nvalue = [27, 58]\nclass = parallelizable", fillcolor="#399de588"] ;
71 -> 147 ;
148 [label="critical-payload-non-cf-cohesion <= 0.105\ngini = 0.342\nsamples = 64\nvalue = [14, 50]\nclass = parallelizable", fillcolor="#399de5b8"] ;
147 -> 148 ;
149 [label="iterator-payload-non-cf-cohesion <= 0.044\ngini = 0.296\nsamples = 61\nvalue = [11, 50]\nclass = parallelizable", fillcolor="#399de5c7"] ;
148 -> 149 ;
150 [label="(...)", fillcolor="#C0C0C0"] ;
149 -> 150 ;
155 [label="(...)", fillcolor="#C0C0C0"] ;
149 -> 155 ;
164 [label="gini = 0.0\nsamples = 3\nvalue = [3, 0]\nclass = non-parallelizable", fillcolor="#e58139ff"] ;
148 -> 164 ;
165 [label="payload-mem-write-fraction <= 0.118\ngini = 0.472\nsamples = 21\nvalue = [13, 8]\nclass = non-parallelizable", fillcolor="#e5813962"] ;
147 -> 165 ;
166 [label="iterator-payload-total-cohesion <= 0.293\ngini = 0.278\nsamples = 6\nvalue = [1, 5]\nclass = parallelizable", fillcolor="#399de5cc"] ;
165 -> 166 ;
167 [label="(...)", fillcolor="#C0C0C0"] ;
166 -> 167 ;
168 [label="(...)", fillcolor="#C0C0C0"] ;
166 -> 168 ;
169 [label="payload-mem-write-fraction <= 0.225\ngini = 0.32\nsamples = 15\nvalue = [12, 3]\nclass = non-parallelizable", fillcolor="#e58139bf"] ;
165 -> 169 ;
170 [label="(...)", fillcolor="#C0C0C0"] ;
169 -> 170 ;
175 [label="(...)", fillcolor="#C0C0C0"] ;
169 -> 175 ;
176 [label="payload-reg-dependencies-number <= 161.0\ngini = 0.236\nsamples = 205\nvalue = [177, 28]\nclass = non-parallelizable", fillcolor="#e58139d7"] ;
0 -> 176 [labeldistance=2.5, labelangle=-45, headlabel="False"] ;
177 [label="critical-payload-non-cf-cohesion <= 0.146\ngini = 0.125\nsamples = 179\nvalue = [167, 12]\nclass = non-parallelizable", fillcolor="#e58139ed"] ;
176 -> 177 ;
178 [label="payload-mem-write-fraction <= 0.027\ngini = 0.087\nsamples = 175\nvalue = [167, 8]\nclass = non-parallelizable", fillcolor="#e58139f3"] ;
177 -> 178 ;
179 [label="gini = 0.0\nsamples = 2\nvalue = [0, 2]\nclass = parallelizable", fillcolor="#399de5ff"] ;
178 -> 179 ;
180 [label="iterator-payload-total-cohesion <= 0.522\ngini = 0.067\nsamples = 173\nvalue = [167, 6]\nclass = non-parallelizable", fillcolor="#e58139f6"] ;
178 -> 180 ;
181 [label="payload-mem-write-fraction <= 0.032\ngini = 0.035\nsamples = 168\nvalue = [165, 3]\nclass = non-parallelizable", fillcolor="#e58139fa"] ;
180 -> 181 ;
182 [label="(...)", fillcolor="#C0C0C0"] ;
181 -> 182 ;
185 [label="(...)", fillcolor="#C0C0C0"] ;
181 -> 185 ;
192 [label="payload-total-dependencies-number <= 32.5\ngini = 0.48\nsamples = 5\nvalue = [2, 3]\nclass = parallelizable", fillcolor="#399de555"] ;
180 -> 192 ;
193 [label="(...)", fillcolor="#C0C0C0"] ;
192 -> 193 ;
194 [label="(...)", fillcolor="#C0C0C0"] ;
192 -> 194 ;
195 [label="gini = 0.0\nsamples = 4\nvalue = [0, 4]\nclass = parallelizable", fillcolor="#399de5ff"] ;
177 -> 195 ;
196 [label="payload-mem-dependencies-number <= 20.0\ngini = 0.473\nsamples = 26\nvalue = [10, 16]\nclass = parallelizable", fillcolor="#399de560"] ;
176 -> 196 ;
197 [label="gini = 0.0\nsamples = 16\nvalue = [0, 16]\nclass = parallelizable", fillcolor="#399de5ff"] ;
196 -> 197 ;
198 [label="gini = 0.0\nsamples = 10\nvalue = [10, 0]\nclass = non-parallelizable", fillcolor="#e58139ff"] ;
196 -> 198 ;
}