digraph Tree {
node [shape=box, style="filled, rounded", color="black", fontname=helvetica] ;
edge [fontname=helvetica] ;
0 [label="iterator-payload-non-cf-cohesion <= 0.026\ngini = 0.489\nsamples = 1372\nvalue = [586, 786]\nclass = parallelizable", fillcolor="#399de541"] ;
1 [label="payload-mem-dependencies-number-diff <= 0.5\ngini = 0.319\nsamples = 376\nvalue = [301, 75]\nclass = non-parallelizable", fillcolor="#e58139bf"] ;
0 -> 1 [labeldistance=2.5, labelangle=45, headlabel="True"] ;
2 [label="iterator-payload-non-cf-cohesion <= 0.007\ngini = 0.452\nsamples = 214\nvalue = [140, 74]\nclass = non-parallelizable", fillcolor="#e5813978"] ;
1 -> 2 ;
3 [label="iterator-conf-dependencies-number <= 0.5\ngini = 0.164\nsamples = 89\nvalue = [81, 8]\nclass = non-parallelizable", fillcolor="#e58139e6"] ;
2 -> 3 ;
4 [label="(...)", fillcolor="#C0C0C0"] ;
3 -> 4 ;
7 [label="(...)", fillcolor="#C0C0C0"] ;
3 -> 7 ;
16 [label="payload-cntl-dependencies-number <= 62.0\ngini = 0.498\nsamples = 125\nvalue = [59, 66]\nclass = parallelizable", fillcolor="#399de51b"] ;
2 -> 16 ;
17 [label="(...)", fillcolor="#C0C0C0"] ;
16 -> 17 ;
34 [label="(...)", fillcolor="#C0C0C0"] ;
16 -> 34 ;
43 [label="loop-payload-fraction <= 0.811\ngini = 0.012\nsamples = 162\nvalue = [161, 1]\nclass = non-parallelizable", fillcolor="#e58139fd"] ;
1 -> 43 ;
44 [label="loop-critical-payload-fraction <= 0.276\ngini = 0.444\nsamples = 3\nvalue = [2, 1]\nclass = non-parallelizable", fillcolor="#e581397f"] ;
43 -> 44 ;
45 [label="(...)", fillcolor="#C0C0C0"] ;
44 -> 45 ;
46 [label="(...)", fillcolor="#C0C0C0"] ;
44 -> 46 ;
47 [label="gini = 0.0\nsamples = 159\nvalue = [159, 0]\nclass = non-parallelizable", fillcolor="#e58139ff"] ;
43 -> 47 ;
48 [label="payload-conf-dependencies-number <= 2.5\ngini = 0.409\nsamples = 996\nvalue = [285, 711]\nclass = parallelizable", fillcolor="#399de599"] ;
0 -> 48 [labeldistance=2.5, labelangle=-45, headlabel="False"] ;
49 [label="iterator-payload-non-cf-cohesion <= 0.083\ngini = 0.379\nsamples = 940\nvalue = [239, 701]\nclass = parallelizable", fillcolor="#399de5a8"] ;
48 -> 49 ;
50 [label="iterator-payload-non-cf-cohesion <= 0.035\ngini = 0.342\nsamples = 864\nvalue = [189, 675]\nclass = parallelizable", fillcolor="#399de5b8"] ;
49 -> 50 ;
51 [label="(...)", fillcolor="#C0C0C0"] ;
50 -> 51 ;
116 [label="(...)", fillcolor="#C0C0C0"] ;
50 -> 116 ;
237 [label="iterator-payload-total-cohesion <= 0.448\ngini = 0.45\nsamples = 76\nvalue = [50, 26]\nclass = non-parallelizable", fillcolor="#e581397a"] ;
49 -> 237 ;
238 [label="(...)", fillcolor="#C0C0C0"] ;
237 -> 238 ;
251 [label="(...)", fillcolor="#C0C0C0"] ;
237 -> 251 ;
264 [label="critical-payload-non-cf-cohesion <= 0.155\ngini = 0.293\nsamples = 56\nvalue = [46, 10]\nclass = non-parallelizable", fillcolor="#e58139c8"] ;
48 -> 264 ;
265 [label="iterator-payload-total-cohesion <= 0.486\ngini = 0.05\nsamples = 39\nvalue = [38, 1]\nclass = non-parallelizable", fillcolor="#e58139f8"] ;
264 -> 265 ;
266 [label="(...)", fillcolor="#C0C0C0"] ;
265 -> 266 ;
267 [label="(...)", fillcolor="#C0C0C0"] ;
265 -> 267 ;
270 [label="payload-mem-dependencies-number <= 68.0\ngini = 0.498\nsamples = 17\nvalue = [8, 9]\nclass = parallelizable", fillcolor="#399de51c"] ;
264 -> 270 ;
271 [label="(...)", fillcolor="#C0C0C0"] ;
270 -> 271 ;
278 [label="(...)", fillcolor="#C0C0C0"] ;
270 -> 278 ;
}