digraph Tree {
node [shape=box, style="filled, rounded", color="black", fontname=helvetica] ;
edge [fontname=helvetica] ;
0 [label="iterator-payload-non-cf-cohesion <= 0.025\ngini = 0.391\nsamples = 1066\nvalue = [284, 782]\nclass = parallelizable", fillcolor="#399de5a2"] ;
1 [label="payload-mem-write-count <= 1.5\ngini = 0.425\nsamples = 189\nvalue = [131, 58]\nclass = non-parallelizable", fillcolor="#e581398e"] ;
0 -> 1 [labeldistance=2.5, labelangle=45, headlabel="True"] ;
2 [label="loop-proper-sccs-number-diff <= 0.5\ngini = 0.463\nsamples = 77\nvalue = [28, 49]\nclass = parallelizable", fillcolor="#399de56d"] ;
1 -> 2 ;
3 [label="critical-payload-non-cf-cohesion <= 0.029\ngini = 0.133\nsamples = 42\nvalue = [3, 39]\nclass = parallelizable", fillcolor="#399de5eb"] ;
2 -> 3 ;
4 [label="(...)", fillcolor="#C0C0C0"] ;
3 -> 4 ;
5 [label="(...)", fillcolor="#C0C0C0"] ;
3 -> 5 ;
10 [label="iterator-payload-non-cf-cohesion <= 0.021\ngini = 0.408\nsamples = 35\nvalue = [25, 10]\nclass = non-parallelizable", fillcolor="#e5813999"] ;
2 -> 10 ;
11 [label="(...)", fillcolor="#C0C0C0"] ;
10 -> 11 ;
22 [label="(...)", fillcolor="#C0C0C0"] ;
10 -> 22 ;
23 [label="payload-mem-read-fraction <= 0.272\ngini = 0.148\nsamples = 112\nvalue = [103, 9]\nclass = non-parallelizable", fillcolor="#e58139e9"] ;
1 -> 23 ;
24 [label="critical-payload-anti-dependencies-number <= 2.5\ngini = 0.104\nsamples = 109\nvalue = [103, 6]\nclass = non-parallelizable", fillcolor="#e58139f0"] ;
23 -> 24 ;
25 [label="(...)", fillcolor="#C0C0C0"] ;
24 -> 25 ;
38 [label="(...)", fillcolor="#C0C0C0"] ;
24 -> 38 ;
39 [label="gini = 0.0\nsamples = 3\nvalue = [0, 3]\nclass = parallelizable", fillcolor="#399de5ff"] ;
23 -> 39 ;
40 [label="payload-mem-read-fraction <= 0.144\ngini = 0.288\nsamples = 877\nvalue = [153, 724]\nclass = parallelizable", fillcolor="#399de5c9"] ;
0 -> 40 [labeldistance=2.5, labelangle=-45, headlabel="False"] ;
41 [label="iterator-payload-non-cf-cohesion <= 0.031\ngini = 0.216\nsamples = 745\nvalue = [92, 653]\nclass = parallelizable", fillcolor="#399de5db"] ;
40 -> 41 ;
42 [label="payload-getelemptr-fraction <= 0.241\ngini = 0.458\nsamples = 107\nvalue = [38, 69]\nclass = parallelizable", fillcolor="#399de573"] ;
41 -> 42 ;
43 [label="(...)", fillcolor="#C0C0C0"] ;
42 -> 43 ;
50 [label="(...)", fillcolor="#C0C0C0"] ;
42 -> 50 ;
65 [label="payload-getelemptr-fraction <= 0.543\ngini = 0.155\nsamples = 638\nvalue = [54, 584]\nclass = parallelizable", fillcolor="#399de5e7"] ;
41 -> 65 ;
66 [label="(...)", fillcolor="#C0C0C0"] ;
65 -> 66 ;
151 [label="(...)", fillcolor="#C0C0C0"] ;
65 -> 151 ;
152 [label="payload-branch-count <= 3.0\ngini = 0.497\nsamples = 132\nvalue = [61, 71]\nclass = parallelizable", fillcolor="#399de524"] ;
40 -> 152 ;
153 [label="payload-mem-write-fraction <= 0.108\ngini = 0.366\nsamples = 87\nvalue = [21, 66]\nclass = parallelizable", fillcolor="#399de5ae"] ;
152 -> 153 ;
154 [label="(...)", fillcolor="#C0C0C0"] ;
153 -> 154 ;
181 [label="(...)", fillcolor="#C0C0C0"] ;
153 -> 181 ;
182 [label="payload-mem-write-fraction <= 0.045\ngini = 0.198\nsamples = 45\nvalue = [40, 5]\nclass = non-parallelizable", fillcolor="#e58139df"] ;
152 -> 182 ;
183 [label="(...)", fillcolor="#C0C0C0"] ;
182 -> 183 ;
186 [label="(...)", fillcolor="#C0C0C0"] ;
182 -> 186 ;
}