digraph Tree {
node [shape=box, style="filled, rounded", color="black", fontname=helvetica] ;
edge [fontname=helvetica] ;
0 [label="payload-call-fraction <= 0.031\ngini = 0.46\nsamples = 1349\nvalue = [484, 865]\nclass = parallelizable", fillcolor="#399de570"] ;
1 [label="iterator-payload-non-cf-cohesion <= 0.026\ngini = 0.393\nsamples = 1131\nvalue = [304, 827]\nclass = parallelizable", fillcolor="#399de5a1"] ;
0 -> 1 [labeldistance=2.5, labelangle=45, headlabel="True"] ;
2 [label="critical-payload-total-cohesion <= 0.289\ngini = 0.481\nsamples = 299\nvalue = [179, 120]\nclass = non-parallelizable", fillcolor="#e5813954"] ;
1 -> 2 ;
3 [label="payload-output-dependencies-number <= 1.5\ngini = 0.346\nsamples = 144\nvalue = [112, 32]\nclass = non-parallelizable", fillcolor="#e58139b6"] ;
2 -> 3 ;
4 [label="iterator-payload-total-cohesion <= 0.077\ngini = 0.224\nsamples = 109\nvalue = [95, 14]\nclass = non-parallelizable", fillcolor="#e58139d9"] ;
3 -> 4 ;
5 [label="loop-payload-fraction <= 0.131\ngini = 0.48\nsamples = 25\nvalue = [15, 10]\nclass = non-parallelizable", fillcolor="#e5813955"] ;
4 -> 5 ;
6 [label="(...)", fillcolor="#C0C0C0"] ;
5 -> 6 ;
13 [label="(...)", fillcolor="#C0C0C0"] ;
5 -> 13 ;
18 [label="iterator-payload-total-cohesion <= 0.155\ngini = 0.091\nsamples = 84\nvalue = [80, 4]\nclass = non-parallelizable", fillcolor="#e58139f2"] ;
4 -> 18 ;
19 [label="(...)", fillcolor="#C0C0C0"] ;
18 -> 19 ;
24 [label="(...)", fillcolor="#C0C0C0"] ;
18 -> 24 ;
29 [label="payload-mem-dependencies-number <= 13.5\ngini = 0.5\nsamples = 35\nvalue = [17, 18]\nclass = parallelizable", fillcolor="#399de50e"] ;
3 -> 29 ;
30 [label="critical-payload-non-cf-cohesion <= 0.1\ngini = 0.308\nsamples = 21\nvalue = [4, 17]\nclass = parallelizable", fillcolor="#399de5c3"] ;
29 -> 30 ;
31 [label="(...)", fillcolor="#C0C0C0"] ;
30 -> 31 ;
34 [label="(...)", fillcolor="#C0C0C0"] ;
30 -> 34 ;
37 [label="critical-payload-mem-write-count <= 72.0\ngini = 0.133\nsamples = 14\nvalue = [13, 1]\nclass = non-parallelizable", fillcolor="#e58139eb"] ;
29 -> 37 ;
38 [label="(...)", fillcolor="#C0C0C0"] ;
37 -> 38 ;
39 [label="(...)", fillcolor="#C0C0C0"] ;
37 -> 39 ;
40 [label="loop-depth <= 1.5\ngini = 0.491\nsamples = 155\nvalue = [67, 88]\nclass = parallelizable", fillcolor="#399de53d"] ;
2 -> 40 ;
41 [label="payload-mem-write-fraction <= 0.011\ngini = 0.032\nsamples = 62\nvalue = [1, 61]\nclass = parallelizable", fillcolor="#399de5fb"] ;
40 -> 41 ;
42 [label="payload-mem-write-fraction <= 0.01\ngini = 0.375\nsamples = 4\nvalue = [1, 3]\nclass = parallelizable", fillcolor="#399de5aa"] ;
41 -> 42 ;
43 [label="(...)", fillcolor="#C0C0C0"] ;
42 -> 43 ;
44 [label="(...)", fillcolor="#C0C0C0"] ;
42 -> 44 ;
45 [label="gini = 0.0\nsamples = 58\nvalue = [0, 58]\nclass = parallelizable", fillcolor="#399de5ff"] ;
41 -> 45 ;
46 [label="payload-mem-dependencies-number <= 3.5\ngini = 0.412\nsamples = 93\nvalue = [66, 27]\nclass = non-parallelizable", fillcolor="#e5813997"] ;
40 -> 46 ;
47 [label="critical-payload-total-cohesion <= 0.434\ngini = 0.498\nsamples = 49\nvalue = [23, 26]\nclass = parallelizable", fillcolor="#399de51d"] ;
46 -> 47 ;
48 [label="(...)", fillcolor="#C0C0C0"] ;
47 -> 48 ;
59 [label="(...)", fillcolor="#C0C0C0"] ;
47 -> 59 ;
62 [label="critical-payload-mem-write-count <= 0.5\ngini = 0.044\nsamples = 44\nvalue = [43, 1]\nclass = non-parallelizable", fillcolor="#e58139f9"] ;
46 -> 62 ;
63 [label="(...)", fillcolor="#C0C0C0"] ;
62 -> 63 ;
66 [label="(...)", fillcolor="#C0C0C0"] ;
62 -> 66 ;
67 [label="loop-critical-payload-fraction <= 0.222\ngini = 0.255\nsamples = 832\nvalue = [125, 707]\nclass = parallelizable", fillcolor="#399de5d2"] ;
1 -> 67 ;
68 [label="payload-call-fraction <= 0.008\ngini = 0.197\nsamples = 712\nvalue = [79, 633]\nclass = parallelizable", fillcolor="#399de5df"] ;
67 -> 68 ;
69 [label="iterator-payload-non-cf-cohesion <= 0.034\ngini = 0.169\nsamples = 678\nvalue = [63, 615]\nclass = parallelizable", fillcolor="#399de5e5"] ;
68 -> 69 ;
70 [label="iterator-payload-total-cohesion <= 0.446\ngini = 0.394\nsamples = 100\nvalue = [27, 73]\nclass = parallelizable", fillcolor="#399de5a1"] ;
69 -> 70 ;
71 [label="(...)", fillcolor="#C0C0C0"] ;
70 -> 71 ;
86 [label="(...)", fillcolor="#C0C0C0"] ;
70 -> 86 ;
99 [label="loop-payload-fraction <= 0.431\ngini = 0.117\nsamples = 578\nvalue = [36, 542]\nclass = parallelizable", fillcolor="#399de5ee"] ;
69 -> 99 ;
100 [label="(...)", fillcolor="#C0C0C0"] ;
99 -> 100 ;
103 [label="(...)", fillcolor="#C0C0C0"] ;
99 -> 103 ;
176 [label="iterator-payload-non-cf-cohesion <= 0.034\ngini = 0.498\nsamples = 34\nvalue = [16, 18]\nclass = parallelizable", fillcolor="#399de51c"] ;
68 -> 176 ;
177 [label="gini = 0.0\nsamples = 15\nvalue = [0, 15]\nclass = parallelizable", fillcolor="#399de5ff"] ;
176 -> 177 ;
178 [label="payload-reg-dependencies-number <= 29.5\ngini = 0.266\nsamples = 19\nvalue = [16, 3]\nclass = non-parallelizable", fillcolor="#e58139cf"] ;
176 -> 178 ;
179 [label="(...)", fillcolor="#C0C0C0"] ;
178 -> 179 ;
180 [label="(...)", fillcolor="#C0C0C0"] ;
178 -> 180 ;
183 [label="critical-payload-mem-dependencies-number <= 2.5\ngini = 0.473\nsamples = 120\nvalue = [46, 74]\nclass = parallelizable", fillcolor="#399de560"] ;
67 -> 183 ;
184 [label="critical-payload-mem-write-fraction <= 0.417\ngini = 0.278\nsamples = 60\nvalue = [10, 50]\nclass = parallelizable", fillcolor="#399de5cc"] ;
183 -> 184 ;
185 [label="critical-payload-true-dependencies-number <= 23.5\ngini = 0.215\nsamples = 57\nvalue = [7, 50]\nclass = parallelizable", fillcolor="#399de5db"] ;
184 -> 185 ;
186 [label="(...)", fillcolor="#C0C0C0"] ;
185 -> 186 ;
201 [label="(...)", fillcolor="#C0C0C0"] ;
185 -> 201 ;
202 [label="gini = 0.0\nsamples = 3\nvalue = [3, 0]\nclass = non-parallelizable", fillcolor="#e58139ff"] ;
184 -> 202 ;
203 [label="critical-payload-non-cf-cohesion <= 0.101\ngini = 0.48\nsamples = 60\nvalue = [36, 24]\nclass = non-parallelizable", fillcolor="#e5813955"] ;
183 -> 203 ;
204 [label="critical-payload-mem-dependencies-number <= 13.0\ngini = 0.105\nsamples = 18\nvalue = [17, 1]\nclass = non-parallelizable", fillcolor="#e58139f0"] ;
203 -> 204 ;
205 [label="(...)", fillcolor="#C0C0C0"] ;
204 -> 205 ;
206 [label="(...)", fillcolor="#C0C0C0"] ;
204 -> 206 ;
209 [label="payload-mem-write-fraction <= 0.087\ngini = 0.495\nsamples = 42\nvalue = [19, 23]\nclass = parallelizable", fillcolor="#399de52c"] ;
203 -> 209 ;
210 [label="(...)", fillcolor="#C0C0C0"] ;
209 -> 210 ;
225 [label="(...)", fillcolor="#C0C0C0"] ;
209 -> 225 ;
226 [label="critical-payload-reg-dependencies-number <= 21.0\ngini = 0.288\nsamples = 218\nvalue = [180, 38]\nclass = non-parallelizable", fillcolor="#e58139c9"] ;
0 -> 226 [labeldistance=2.5, labelangle=-45, headlabel="False"] ;
227 [label="iterator-payload-total-cohesion <= 0.522\ngini = 0.238\nsamples = 203\nvalue = [175, 28]\nclass = non-parallelizable", fillcolor="#e58139d6"] ;
226 -> 227 ;
228 [label="loop-critical-payload-fraction <= 0.356\ngini = 0.213\nsamples = 198\nvalue = [174, 24]\nclass = non-parallelizable", fillcolor="#e58139dc"] ;
227 -> 228 ;
229 [label="payload-mem-write-fraction <= 0.034\ngini = 0.186\nsamples = 193\nvalue = [173, 20]\nclass = non-parallelizable", fillcolor="#e58139e2"] ;
228 -> 229 ;
230 [label="gini = 0.0\nsamples = 2\nvalue = [0, 2]\nclass = parallelizable", fillcolor="#399de5ff"] ;
229 -> 230 ;
231 [label="critical-payload-total-cohesion <= 0.462\ngini = 0.171\nsamples = 191\nvalue = [173, 18]\nclass = non-parallelizable", fillcolor="#e58139e4"] ;
229 -> 231 ;
232 [label="(...)", fillcolor="#C0C0C0"] ;
231 -> 232 ;
269 [label="(...)", fillcolor="#C0C0C0"] ;
231 -> 269 ;
272 [label="critical-payload-mem-write-fraction <= 0.083\ngini = 0.32\nsamples = 5\nvalue = [1, 4]\nclass = parallelizable", fillcolor="#399de5bf"] ;
228 -> 272 ;
273 [label="gini = 0.0\nsamples = 1\nvalue = [1, 0]\nclass = non-parallelizable", fillcolor="#e58139ff"] ;
272 -> 273 ;
274 [label="gini = 0.0\nsamples = 4\nvalue = [0, 4]\nclass = parallelizable", fillcolor="#399de5ff"] ;
272 -> 274 ;
275 [label="payload-mem-write-fraction <= 0.138\ngini = 0.32\nsamples = 5\nvalue = [1, 4]\nclass = parallelizable", fillcolor="#399de5bf"] ;
227 -> 275 ;
276 [label="gini = 0.0\nsamples = 4\nvalue = [0, 4]\nclass = parallelizable", fillcolor="#399de5ff"] ;
275 -> 276 ;
277 [label="gini = 0.0\nsamples = 1\nvalue = [1, 0]\nclass = non-parallelizable", fillcolor="#e58139ff"] ;
275 -> 277 ;
278 [label="loop-depth <= 1.5\ngini = 0.444\nsamples = 15\nvalue = [5, 10]\nclass = parallelizable", fillcolor="#399de57f"] ;
226 -> 278 ;
279 [label="payload-call-count <= 22.0\ngini = 0.165\nsamples = 11\nvalue = [1, 10]\nclass = parallelizable", fillcolor="#399de5e6"] ;
278 -> 279 ;
280 [label="gini = 0.0\nsamples = 10\nvalue = [0, 10]\nclass = parallelizable", fillcolor="#399de5ff"] ;
279 -> 280 ;
281 [label="gini = 0.0\nsamples = 1\nvalue = [1, 0]\nclass = non-parallelizable", fillcolor="#e58139ff"] ;
279 -> 281 ;
282 [label="gini = 0.0\nsamples = 4\nvalue = [4, 0]\nclass = non-parallelizable", fillcolor="#e58139ff"] ;
278 -> 282 ;
}