digraph Tree {
node [shape=box, style="filled, rounded", color="black", fontname=helvetica] ;
edge [fontname=helvetica] ;
0 [label="payload-call-fraction <= 0.031\ngini = 0.457\nsamples = 1349\nvalue = [477, 872]\nclass = parallelizable", fillcolor="#399de574"] ;
1 [label="iterator-payload-non-cf-cohesion <= 0.027\ngini = 0.393\nsamples = 1143\nvalue = [307, 836]\nclass = parallelizable", fillcolor="#399de5a1"] ;
0 -> 1 [labeldistance=2.5, labelangle=45, headlabel="True"] ;
2 [label="critical-payload-total-cohesion <= 0.289\ngini = 0.483\nsamples = 304\nvalue = [180, 124]\nclass = non-parallelizable", fillcolor="#e581394f"] ;
1 -> 2 ;
3 [label="payload-output-dependencies-number <= 1.5\ngini = 0.341\nsamples = 147\nvalue = [115, 32]\nclass = non-parallelizable", fillcolor="#e58139b8"] ;
2 -> 3 ;
4 [label="iterator-payload-total-cohesion <= 0.077\ngini = 0.217\nsamples = 113\nvalue = [99, 14]\nclass = non-parallelizable", fillcolor="#e58139db"] ;
3 -> 4 ;
5 [label="loop-payload-fraction <= 0.131\ngini = 0.473\nsamples = 26\nvalue = [16, 10]\nclass = non-parallelizable", fillcolor="#e5813960"] ;
4 -> 5 ;
6 [label="(...)", fillcolor="#C0C0C0"] ;
5 -> 6 ;
13 [label="(...)", fillcolor="#C0C0C0"] ;
5 -> 13 ;
18 [label="iterator-payload-total-cohesion <= 0.155\ngini = 0.088\nsamples = 87\nvalue = [83, 4]\nclass = non-parallelizable", fillcolor="#e58139f3"] ;
4 -> 18 ;
19 [label="(...)", fillcolor="#C0C0C0"] ;
18 -> 19 ;
24 [label="(...)", fillcolor="#C0C0C0"] ;
18 -> 24 ;
29 [label="critical-payload-total-cohesion <= 0.116\ngini = 0.498\nsamples = 34\nvalue = [16, 18]\nclass = parallelizable", fillcolor="#399de51c"] ;
3 -> 29 ;
30 [label="payload-mem-write-fraction <= 0.119\ngini = 0.208\nsamples = 17\nvalue = [2, 15]\nclass = parallelizable", fillcolor="#399de5dd"] ;
29 -> 30 ;
31 [label="(...)", fillcolor="#C0C0C0"] ;
30 -> 31 ;
32 [label="(...)", fillcolor="#C0C0C0"] ;
30 -> 32 ;
35 [label="critical-payload-total-cohesion <= 0.28\ngini = 0.291\nsamples = 17\nvalue = [14, 3]\nclass = non-parallelizable", fillcolor="#e58139c8"] ;
29 -> 35 ;
36 [label="(...)", fillcolor="#C0C0C0"] ;
35 -> 36 ;
39 [label="(...)", fillcolor="#C0C0C0"] ;
35 -> 39 ;
42 [label="loop-depth <= 1.5\ngini = 0.485\nsamples = 157\nvalue = [65, 92]\nclass = parallelizable", fillcolor="#399de54b"] ;
2 -> 42 ;
43 [label="payload-mem-write-fraction <= 0.011\ngini = 0.032\nsamples = 61\nvalue = [1, 60]\nclass = parallelizable", fillcolor="#399de5fb"] ;
42 -> 43 ;
44 [label="iterator-payload-total-cohesion <= 0.056\ngini = 0.375\nsamples = 4\nvalue = [1, 3]\nclass = parallelizable", fillcolor="#399de5aa"] ;
43 -> 44 ;
45 [label="(...)", fillcolor="#C0C0C0"] ;
44 -> 45 ;
46 [label="(...)", fillcolor="#C0C0C0"] ;
44 -> 46 ;
47 [label="gini = 0.0\nsamples = 57\nvalue = [0, 57]\nclass = parallelizable", fillcolor="#399de5ff"] ;
43 -> 47 ;
48 [label="payload-mem-dependencies-number <= 3.5\ngini = 0.444\nsamples = 96\nvalue = [64, 32]\nclass = non-parallelizable", fillcolor="#e581397f"] ;
42 -> 48 ;
49 [label="iterator-payload-non-cf-cohesion <= 0.02\ngini = 0.488\nsamples = 52\nvalue = [22, 30]\nclass = parallelizable", fillcolor="#399de544"] ;
48 -> 49 ;
50 [label="(...)", fillcolor="#C0C0C0"] ;
49 -> 50 ;
59 [label="(...)", fillcolor="#C0C0C0"] ;
49 -> 59 ;
70 [label="iterator-payload-non-cf-cohesion <= 0.026\ngini = 0.087\nsamples = 44\nvalue = [42, 2]\nclass = non-parallelizable", fillcolor="#e58139f3"] ;
48 -> 70 ;
71 [label="(...)", fillcolor="#C0C0C0"] ;
70 -> 71 ;
76 [label="(...)", fillcolor="#C0C0C0"] ;
70 -> 76 ;
77 [label="loop-critical-payload-fraction <= 0.222\ngini = 0.257\nsamples = 839\nvalue = [127, 712]\nclass = parallelizable", fillcolor="#399de5d2"] ;
1 -> 77 ;
78 [label="payload-call-fraction <= 0.008\ngini = 0.196\nsamples = 717\nvalue = [79, 638]\nclass = parallelizable", fillcolor="#399de5df"] ;
77 -> 78 ;
79 [label="iterator-payload-non-cf-cohesion <= 0.034\ngini = 0.167\nsamples = 686\nvalue = [63, 623]\nclass = parallelizable", fillcolor="#399de5e5"] ;
78 -> 79 ;
80 [label="critical-payload-mem-dependencies-number <= 4.5\ngini = 0.378\nsamples = 95\nvalue = [24, 71]\nclass = parallelizable", fillcolor="#399de5a9"] ;
79 -> 80 ;
81 [label="(...)", fillcolor="#C0C0C0"] ;
80 -> 81 ;
100 [label="(...)", fillcolor="#C0C0C0"] ;
80 -> 100 ;
103 [label="loop-payload-fraction <= 0.279\ngini = 0.123\nsamples = 591\nvalue = [39, 552]\nclass = parallelizable", fillcolor="#399de5ed"] ;
79 -> 103 ;
104 [label="(...)", fillcolor="#C0C0C0"] ;
103 -> 104 ;
105 [label="(...)", fillcolor="#C0C0C0"] ;
103 -> 105 ;
182 [label="payload-reg-dependencies-number <= 148.0\ngini = 0.499\nsamples = 31\nvalue = [16, 15]\nclass = non-parallelizable", fillcolor="#e5813910"] ;
78 -> 182 ;
183 [label="loop-absolute-size <= 49.0\ngini = 0.266\nsamples = 19\nvalue = [16, 3]\nclass = non-parallelizable", fillcolor="#e58139cf"] ;
182 -> 183 ;
184 [label="(...)", fillcolor="#C0C0C0"] ;
183 -> 184 ;
187 [label="(...)", fillcolor="#C0C0C0"] ;
183 -> 187 ;
188 [label="gini = 0.0\nsamples = 12\nvalue = [0, 12]\nclass = parallelizable", fillcolor="#399de5ff"] ;
182 -> 188 ;
189 [label="critical-payload-mem-dependencies-number <= 2.5\ngini = 0.477\nsamples = 122\nvalue = [48, 74]\nclass = parallelizable", fillcolor="#399de55a"] ;
77 -> 189 ;
190 [label="critical-payload-reg-dependencies-number <= 1.5\ngini = 0.278\nsamples = 60\nvalue = [10, 50]\nclass = parallelizable", fillcolor="#399de5cc"] ;
189 -> 190 ;
191 [label="gini = 0.0\nsamples = 3\nvalue = [3, 0]\nclass = non-parallelizable", fillcolor="#e58139ff"] ;
190 -> 191 ;
192 [label="critical-payload-true-dependencies-number <= 23.5\ngini = 0.215\nsamples = 57\nvalue = [7, 50]\nclass = parallelizable", fillcolor="#399de5db"] ;
190 -> 192 ;
193 [label="(...)", fillcolor="#C0C0C0"] ;
192 -> 193 ;
208 [label="(...)", fillcolor="#C0C0C0"] ;
192 -> 208 ;
209 [label="critical-payload-mem-write-fraction <= 0.148\ngini = 0.475\nsamples = 62\nvalue = [38, 24]\nclass = non-parallelizable", fillcolor="#e581395e"] ;
189 -> 209 ;
210 [label="iterator-payload-non-cf-cohesion <= 0.046\ngini = 0.278\nsamples = 30\nvalue = [25, 5]\nclass = non-parallelizable", fillcolor="#e58139cc"] ;
209 -> 210 ;
211 [label="(...)", fillcolor="#C0C0C0"] ;
210 -> 211 ;
212 [label="(...)", fillcolor="#C0C0C0"] ;
210 -> 212 ;
219 [label="payload-mem-write-fraction <= 0.087\ngini = 0.482\nsamples = 32\nvalue = [13, 19]\nclass = parallelizable", fillcolor="#399de551"] ;
209 -> 219 ;
220 [label="(...)", fillcolor="#C0C0C0"] ;
219 -> 220 ;
231 [label="(...)", fillcolor="#C0C0C0"] ;
219 -> 231 ;
232 [label="loop-depth <= 1.5\ngini = 0.288\nsamples = 206\nvalue = [170, 36]\nclass = non-parallelizable", fillcolor="#e58139c9"] ;
0 -> 232 [labeldistance=2.5, labelangle=-45, headlabel="False"] ;
233 [label="payload-call-fraction <= 0.066\ngini = 0.425\nsamples = 101\nvalue = [70, 31]\nclass = non-parallelizable", fillcolor="#e581398e"] ;
232 -> 233 ;
234 [label="payload-mem-write-fraction <= 0.141\ngini = 0.391\nsamples = 30\nvalue = [8, 22]\nclass = parallelizable", fillcolor="#399de5a2"] ;
233 -> 234 ;
235 [label="critical-payload-non-cf-cohesion <= 0.079\ngini = 0.302\nsamples = 27\nvalue = [5, 22]\nclass = parallelizable", fillcolor="#399de5c5"] ;
234 -> 235 ;
236 [label="loop-absolute-size <= 89.0\ngini = 0.444\nsamples = 15\nvalue = [5, 10]\nclass = parallelizable", fillcolor="#399de57f"] ;
235 -> 236 ;
237 [label="(...)", fillcolor="#C0C0C0"] ;
236 -> 237 ;
242 [label="(...)", fillcolor="#C0C0C0"] ;
236 -> 242 ;
243 [label="gini = 0.0\nsamples = 12\nvalue = [0, 12]\nclass = parallelizable", fillcolor="#399de5ff"] ;
235 -> 243 ;
244 [label="gini = 0.0\nsamples = 3\nvalue = [3, 0]\nclass = non-parallelizable", fillcolor="#e58139ff"] ;
234 -> 244 ;
245 [label="payload-reg-dependencies-number <= 65.0\ngini = 0.221\nsamples = 71\nvalue = [62, 9]\nclass = non-parallelizable", fillcolor="#e58139da"] ;
233 -> 245 ;
246 [label="critical-payload-total-cohesion <= 0.288\ngini = 0.116\nsamples = 65\nvalue = [61, 4]\nclass = non-parallelizable", fillcolor="#e58139ee"] ;
245 -> 246 ;
247 [label="payload-mem-write-fraction <= 0.082\ngini = 0.067\nsamples = 58\nvalue = [56, 2]\nclass = non-parallelizable", fillcolor="#e58139f6"] ;
246 -> 247 ;
248 [label="(...)", fillcolor="#C0C0C0"] ;
247 -> 248 ;
251 [label="(...)", fillcolor="#C0C0C0"] ;
247 -> 251 ;
256 [label="critical-payload-true-dependencies-number <= 5.5\ngini = 0.408\nsamples = 7\nvalue = [5, 2]\nclass = non-parallelizable", fillcolor="#e5813999"] ;
246 -> 256 ;
257 [label="(...)", fillcolor="#C0C0C0"] ;
256 -> 257 ;
258 [label="(...)", fillcolor="#C0C0C0"] ;
256 -> 258 ;
259 [label="loop-proper-sccs-number <= 10.5\ngini = 0.278\nsamples = 6\nvalue = [1, 5]\nclass = parallelizable", fillcolor="#399de5cc"] ;
245 -> 259 ;
260 [label="gini = 0.0\nsamples = 5\nvalue = [0, 5]\nclass = parallelizable", fillcolor="#399de5ff"] ;
259 -> 260 ;
261 [label="gini = 0.0\nsamples = 1\nvalue = [1, 0]\nclass = non-parallelizable", fillcolor="#e58139ff"] ;
259 -> 261 ;
262 [label="payload-mem-write-fraction <= 0.034\ngini = 0.091\nsamples = 105\nvalue = [100, 5]\nclass = non-parallelizable", fillcolor="#e58139f2"] ;
232 -> 262 ;
263 [label="gini = 0.0\nsamples = 2\nvalue = [0, 2]\nclass = parallelizable", fillcolor="#399de5ff"] ;
262 -> 263 ;
264 [label="iterator-payload-non-cf-cohesion <= 0.088\ngini = 0.057\nsamples = 103\nvalue = [100, 3]\nclass = non-parallelizable", fillcolor="#e58139f7"] ;
262 -> 264 ;
265 [label="payload-mem-write-fraction <= 0.048\ngini = 0.02\nsamples = 100\nvalue = [99, 1]\nclass = non-parallelizable", fillcolor="#e58139fc"] ;
264 -> 265 ;
266 [label="loop-absolute-size <= 28.5\ngini = 0.142\nsamples = 13\nvalue = [12, 1]\nclass = non-parallelizable", fillcolor="#e58139ea"] ;
265 -> 266 ;
267 [label="(...)", fillcolor="#C0C0C0"] ;
266 -> 267 ;
268 [label="(...)", fillcolor="#C0C0C0"] ;
266 -> 268 ;
269 [label="gini = 0.0\nsamples = 87\nvalue = [87, 0]\nclass = non-parallelizable", fillcolor="#e58139ff"] ;
265 -> 269 ;
270 [label="payload-reg-dependencies-number <= 5.0\ngini = 0.444\nsamples = 3\nvalue = [1, 2]\nclass = parallelizable", fillcolor="#399de57f"] ;
264 -> 270 ;
271 [label="gini = 0.0\nsamples = 1\nvalue = [1, 0]\nclass = non-parallelizable", fillcolor="#e58139ff"] ;
270 -> 271 ;
272 [label="gini = 0.0\nsamples = 2\nvalue = [0, 2]\nclass = parallelizable", fillcolor="#399de5ff"] ;
270 -> 272 ;
}