digraph Tree {
node [shape=box, style="filled, rounded", color="black", fontname=helvetica] ;
edge [fontname=helvetica] ;
0 [label="payload-call-fraction <= 0.031\ngini = 0.46\nsamples = 1349\nvalue = [484, 865]\nclass = parallelizable", fillcolor="#399de570"] ;
1 [label="iterator-payload-non-cf-cohesion <= 0.027\ngini = 0.394\nsamples = 1138\nvalue = [307, 831]\nclass = parallelizable", fillcolor="#399de5a1"] ;
0 -> 1 [labeldistance=2.5, labelangle=45, headlabel="True"] ;
2 [label="critical-payload-total-cohesion <= 0.289\ngini = 0.482\nsamples = 308\nvalue = [183, 125]\nclass = non-parallelizable", fillcolor="#e5813951"] ;
1 -> 2 ;
3 [label="payload-output-dependencies-number <= 1.5\ngini = 0.333\nsamples = 147\nvalue = [116, 31]\nclass = non-parallelizable", fillcolor="#e58139bb"] ;
2 -> 3 ;
4 [label="iterator-payload-total-cohesion <= 0.077\ngini = 0.204\nsamples = 113\nvalue = [100, 13]\nclass = non-parallelizable", fillcolor="#e58139de"] ;
3 -> 4 ;
5 [label="loop-payload-fraction <= 0.131\ngini = 0.453\nsamples = 26\nvalue = [17, 9]\nclass = non-parallelizable", fillcolor="#e5813978"] ;
4 -> 5 ;
6 [label="(...)", fillcolor="#C0C0C0"] ;
5 -> 6 ;
13 [label="(...)", fillcolor="#C0C0C0"] ;
5 -> 13 ;
18 [label="iterator-payload-total-cohesion <= 0.155\ngini = 0.088\nsamples = 87\nvalue = [83, 4]\nclass = non-parallelizable", fillcolor="#e58139f3"] ;
4 -> 18 ;
19 [label="(...)", fillcolor="#C0C0C0"] ;
18 -> 19 ;
24 [label="(...)", fillcolor="#C0C0C0"] ;
18 -> 24 ;
29 [label="payload-mem-dependencies-number <= 13.5\ngini = 0.498\nsamples = 34\nvalue = [16, 18]\nclass = parallelizable", fillcolor="#399de51c"] ;
3 -> 29 ;
30 [label="loop-critical-payload-fraction <= 0.222\ngini = 0.255\nsamples = 20\nvalue = [3, 17]\nclass = parallelizable", fillcolor="#399de5d2"] ;
29 -> 30 ;
31 [label="(...)", fillcolor="#C0C0C0"] ;
30 -> 31 ;
32 [label="(...)", fillcolor="#C0C0C0"] ;
30 -> 32 ;
37 [label="loop-critical-payload-fraction <= 0.753\ngini = 0.133\nsamples = 14\nvalue = [13, 1]\nclass = non-parallelizable", fillcolor="#e58139eb"] ;
29 -> 37 ;
38 [label="(...)", fillcolor="#C0C0C0"] ;
37 -> 38 ;
39 [label="(...)", fillcolor="#C0C0C0"] ;
37 -> 39 ;
40 [label="loop-depth <= 1.5\ngini = 0.486\nsamples = 161\nvalue = [67, 94]\nclass = parallelizable", fillcolor="#399de549"] ;
2 -> 40 ;
41 [label="payload-mem-write-fraction <= 0.011\ngini = 0.031\nsamples = 64\nvalue = [1, 63]\nclass = parallelizable", fillcolor="#399de5fb"] ;
40 -> 41 ;
42 [label="payload-mem-write-fraction <= 0.01\ngini = 0.32\nsamples = 5\nvalue = [1, 4]\nclass = parallelizable", fillcolor="#399de5bf"] ;
41 -> 42 ;
43 [label="(...)", fillcolor="#C0C0C0"] ;
42 -> 43 ;
44 [label="(...)", fillcolor="#C0C0C0"] ;
42 -> 44 ;
45 [label="gini = 0.0\nsamples = 59\nvalue = [0, 59]\nclass = parallelizable", fillcolor="#399de5ff"] ;
41 -> 45 ;
46 [label="payload-mem-dependencies-number <= 3.5\ngini = 0.435\nsamples = 97\nvalue = [66, 31]\nclass = non-parallelizable", fillcolor="#e5813987"] ;
40 -> 46 ;
47 [label="iterator-payload-non-cf-cohesion <= 0.02\ngini = 0.491\nsamples = 51\nvalue = [22, 29]\nclass = parallelizable", fillcolor="#399de53e"] ;
46 -> 47 ;
48 [label="(...)", fillcolor="#C0C0C0"] ;
47 -> 48 ;
57 [label="(...)", fillcolor="#C0C0C0"] ;
47 -> 57 ;
68 [label="iterator-payload-non-cf-cohesion <= 0.026\ngini = 0.083\nsamples = 46\nvalue = [44, 2]\nclass = non-parallelizable", fillcolor="#e58139f3"] ;
46 -> 68 ;
69 [label="(...)", fillcolor="#C0C0C0"] ;
68 -> 69 ;
74 [label="(...)", fillcolor="#C0C0C0"] ;
68 -> 74 ;
75 [label="critical-payload-mem-dependencies-number <= 2.5\ngini = 0.254\nsamples = 830\nvalue = [124, 706]\nclass = parallelizable", fillcolor="#399de5d2"] ;
1 -> 75 ;
76 [label="payload-call-fraction <= 0.008\ngini = 0.177\nsamples = 652\nvalue = [64, 588]\nclass = parallelizable", fillcolor="#399de5e3"] ;
75 -> 76 ;
77 [label="loop-payload-fraction <= 0.279\ngini = 0.148\nsamples = 622\nvalue = [50, 572]\nclass = parallelizable", fillcolor="#399de5e9"] ;
76 -> 77 ;
78 [label="gini = 0.0\nsamples = 3\nvalue = [3, 0]\nclass = non-parallelizable", fillcolor="#e58139ff"] ;
77 -> 78 ;
79 [label="critical-payload-reg-dependencies-number <= 23.5\ngini = 0.14\nsamples = 619\nvalue = [47, 572]\nclass = parallelizable", fillcolor="#399de5ea"] ;
77 -> 79 ;
80 [label="(...)", fillcolor="#C0C0C0"] ;
79 -> 80 ;
177 [label="(...)", fillcolor="#C0C0C0"] ;
79 -> 177 ;
178 [label="iterator-payload-non-cf-cohesion <= 0.034\ngini = 0.498\nsamples = 30\nvalue = [14, 16]\nclass = parallelizable", fillcolor="#399de520"] ;
76 -> 178 ;
179 [label="gini = 0.0\nsamples = 13\nvalue = [0, 13]\nclass = parallelizable", fillcolor="#399de5ff"] ;
178 -> 179 ;
180 [label="critical-payload-total-cohesion <= 0.182\ngini = 0.291\nsamples = 17\nvalue = [14, 3]\nclass = non-parallelizable", fillcolor="#e58139c8"] ;
178 -> 180 ;
181 [label="(...)", fillcolor="#C0C0C0"] ;
180 -> 181 ;
182 [label="(...)", fillcolor="#C0C0C0"] ;
180 -> 182 ;
185 [label="loop-critical-payload-fraction <= 0.239\ngini = 0.447\nsamples = 178\nvalue = [60, 118]\nclass = parallelizable", fillcolor="#399de57d"] ;
75 -> 185 ;
186 [label="critical-payload-mem-write-fraction <= 0.102\ngini = 0.346\nsamples = 135\nvalue = [30, 105]\nclass = parallelizable", fillcolor="#399de5b6"] ;
185 -> 186 ;
187 [label="loop-critical-payload-fraction <= 0.099\ngini = 0.463\nsamples = 22\nvalue = [14, 8]\nclass = non-parallelizable", fillcolor="#e581396d"] ;
186 -> 187 ;
188 [label="(...)", fillcolor="#C0C0C0"] ;
187 -> 188 ;
189 [label="(...)", fillcolor="#C0C0C0"] ;
187 -> 189 ;
196 [label="iterator-payload-non-cf-cohesion <= 0.034\ngini = 0.243\nsamples = 113\nvalue = [16, 97]\nclass = parallelizable", fillcolor="#399de5d5"] ;
186 -> 196 ;
197 [label="(...)", fillcolor="#C0C0C0"] ;
196 -> 197 ;
206 [label="(...)", fillcolor="#C0C0C0"] ;
196 -> 206 ;
217 [label="iterator-payload-non-cf-cohesion <= 0.028\ngini = 0.422\nsamples = 43\nvalue = [30, 13]\nclass = non-parallelizable", fillcolor="#e5813991"] ;
185 -> 217 ;
218 [label="gini = 0.0\nsamples = 4\nvalue = [0, 4]\nclass = parallelizable", fillcolor="#399de5ff"] ;
217 -> 218 ;
219 [label="loop-proper-sccs-number <= 3.5\ngini = 0.355\nsamples = 39\nvalue = [30, 9]\nclass = non-parallelizable", fillcolor="#e58139b3"] ;
217 -> 219 ;
220 [label="(...)", fillcolor="#C0C0C0"] ;
219 -> 220 ;
233 [label="(...)", fillcolor="#C0C0C0"] ;
219 -> 233 ;
236 [label="loop-depth <= 1.5\ngini = 0.27\nsamples = 211\nvalue = [177, 34]\nclass = non-parallelizable", fillcolor="#e58139ce"] ;
0 -> 236 [labeldistance=2.5, labelangle=-45, headlabel="False"] ;
237 [label="payload-call-fraction <= 0.066\ngini = 0.421\nsamples = 103\nvalue = [72, 31]\nclass = non-parallelizable", fillcolor="#e5813991"] ;
236 -> 237 ;
238 [label="payload-call-fraction <= 0.034\ngini = 0.404\nsamples = 32\nvalue = [9, 23]\nclass = parallelizable", fillcolor="#399de59b"] ;
237 -> 238 ;
239 [label="gini = 0.0\nsamples = 3\nvalue = [3, 0]\nclass = non-parallelizable", fillcolor="#e58139ff"] ;
238 -> 239 ;
240 [label="iterator-mem-write-count <= 0.5\ngini = 0.328\nsamples = 29\nvalue = [6, 23]\nclass = parallelizable", fillcolor="#399de5bc"] ;
238 -> 240 ;
241 [label="iterator-payload-total-cohesion <= 0.528\ngini = 0.252\nsamples = 27\nvalue = [4, 23]\nclass = parallelizable", fillcolor="#399de5d3"] ;
240 -> 241 ;
242 [label="(...)", fillcolor="#C0C0C0"] ;
241 -> 242 ;
249 [label="(...)", fillcolor="#C0C0C0"] ;
241 -> 249 ;
250 [label="gini = 0.0\nsamples = 2\nvalue = [2, 0]\nclass = non-parallelizable", fillcolor="#e58139ff"] ;
240 -> 250 ;
251 [label="payload-true-dependencies-number <= 60.0\ngini = 0.2\nsamples = 71\nvalue = [63, 8]\nclass = non-parallelizable", fillcolor="#e58139df"] ;
237 -> 251 ;
252 [label="payload-call-fraction <= 0.082\ngini = 0.088\nsamples = 65\nvalue = [62, 3]\nclass = non-parallelizable", fillcolor="#e58139f3"] ;
251 -> 252 ;
253 [label="loop-absolute-size <= 43.0\ngini = 0.32\nsamples = 10\nvalue = [8, 2]\nclass = non-parallelizable", fillcolor="#e58139bf"] ;
252 -> 253 ;
254 [label="(...)", fillcolor="#C0C0C0"] ;
253 -> 254 ;
255 [label="(...)", fillcolor="#C0C0C0"] ;
253 -> 255 ;
256 [label="iterator-payload-total-cohesion <= 0.374\ngini = 0.036\nsamples = 55\nvalue = [54, 1]\nclass = non-parallelizable", fillcolor="#e58139fa"] ;
252 -> 256 ;
257 [label="(...)", fillcolor="#C0C0C0"] ;
256 -> 257 ;
258 [label="(...)", fillcolor="#C0C0C0"] ;
256 -> 258 ;
261 [label="payload-total-dependencies-number <= 427.5\ngini = 0.278\nsamples = 6\nvalue = [1, 5]\nclass = parallelizable", fillcolor="#399de5cc"] ;
251 -> 261 ;
262 [label="gini = 0.0\nsamples = 5\nvalue = [0, 5]\nclass = parallelizable", fillcolor="#399de5ff"] ;
261 -> 262 ;
263 [label="gini = 0.0\nsamples = 1\nvalue = [1, 0]\nclass = non-parallelizable", fillcolor="#e58139ff"] ;
261 -> 263 ;
264 [label="payload-mem-write-fraction <= 0.034\ngini = 0.054\nsamples = 108\nvalue = [105, 3]\nclass = non-parallelizable", fillcolor="#e58139f8"] ;
236 -> 264 ;
265 [label="gini = 0.0\nsamples = 1\nvalue = [0, 1]\nclass = parallelizable", fillcolor="#399de5ff"] ;
264 -> 265 ;
266 [label="payload-mem-write-fraction <= 0.048\ngini = 0.037\nsamples = 107\nvalue = [105, 2]\nclass = non-parallelizable", fillcolor="#e58139fa"] ;
264 -> 266 ;
267 [label="payload-call-fraction <= 0.046\ngini = 0.245\nsamples = 14\nvalue = [12, 2]\nclass = non-parallelizable", fillcolor="#e58139d4"] ;
266 -> 267 ;
268 [label="gini = 0.0\nsamples = 12\nvalue = [12, 0]\nclass = non-parallelizable", fillcolor="#e58139ff"] ;
267 -> 268 ;
269 [label="gini = 0.0\nsamples = 2\nvalue = [0, 2]\nclass = parallelizable", fillcolor="#399de5ff"] ;
267 -> 269 ;
270 [label="gini = 0.0\nsamples = 93\nvalue = [93, 0]\nclass = non-parallelizable", fillcolor="#e58139ff"] ;
266 -> 270 ;
}