digraph Tree {
node [shape=box, style="filled, rounded", color="black", fontname=helvetica] ;
edge [fontname=helvetica] ;
0 [label="payload-call-fraction <= 0.031\ngini = 0.458\nsamples = 1349\nvalue = [478, 871]\nclass = parallelizable", fillcolor="#399de573"] ;
1 [label="iterator-payload-non-cf-cohesion <= 0.026\ngini = 0.39\nsamples = 1136\nvalue = [302, 834]\nclass = parallelizable", fillcolor="#399de5a3"] ;
0 -> 1 [labeldistance=2.5, labelangle=45, headlabel="True"] ;
2 [label="critical-payload-total-cohesion <= 0.289\ngini = 0.486\nsamples = 297\nvalue = [173, 124]\nclass = non-parallelizable", fillcolor="#e5813948"] ;
1 -> 2 ;
3 [label="payload-output-dependencies-number <= 1.5\ngini = 0.357\nsamples = 142\nvalue = [109, 33]\nclass = non-parallelizable", fillcolor="#e58139b2"] ;
2 -> 3 ;
4 [label="iterator-payload-total-cohesion <= 0.077\ngini = 0.227\nsamples = 107\nvalue = [93, 14]\nclass = non-parallelizable", fillcolor="#e58139d9"] ;
3 -> 4 ;
5 [label="loop-payload-fraction <= 0.131\ngini = 0.473\nsamples = 26\nvalue = [16, 10]\nclass = non-parallelizable", fillcolor="#e5813960"] ;
4 -> 5 ;
6 [label="(...)", fillcolor="#C0C0C0"] ;
5 -> 6 ;
11 [label="(...)", fillcolor="#C0C0C0"] ;
5 -> 11 ;
16 [label="iterator-payload-total-cohesion <= 0.155\ngini = 0.094\nsamples = 81\nvalue = [77, 4]\nclass = non-parallelizable", fillcolor="#e58139f2"] ;
4 -> 16 ;
17 [label="(...)", fillcolor="#C0C0C0"] ;
16 -> 17 ;
22 [label="(...)", fillcolor="#C0C0C0"] ;
16 -> 22 ;
27 [label="critical-payload-total-cohesion <= 0.116\ngini = 0.496\nsamples = 35\nvalue = [16, 19]\nclass = parallelizable", fillcolor="#399de528"] ;
3 -> 27 ;
28 [label="iterator-payload-non-cf-cohesion <= 0.002\ngini = 0.117\nsamples = 16\nvalue = [1, 15]\nclass = parallelizable", fillcolor="#399de5ee"] ;
27 -> 28 ;
29 [label="(...)", fillcolor="#C0C0C0"] ;
28 -> 29 ;
30 [label="(...)", fillcolor="#C0C0C0"] ;
28 -> 30 ;
31 [label="payload-mem-dependencies-number <= 4.0\ngini = 0.332\nsamples = 19\nvalue = [15, 4]\nclass = non-parallelizable", fillcolor="#e58139bb"] ;
27 -> 31 ;
32 [label="(...)", fillcolor="#C0C0C0"] ;
31 -> 32 ;
33 [label="(...)", fillcolor="#C0C0C0"] ;
31 -> 33 ;
38 [label="loop-depth <= 1.5\ngini = 0.485\nsamples = 155\nvalue = [64, 91]\nclass = parallelizable", fillcolor="#399de54c"] ;
2 -> 38 ;
39 [label="payload-mem-write-fraction <= 0.011\ngini = 0.031\nsamples = 64\nvalue = [1, 63]\nclass = parallelizable", fillcolor="#399de5fb"] ;
38 -> 39 ;
40 [label="payload-mem-write-fraction <= 0.01\ngini = 0.375\nsamples = 4\nvalue = [1, 3]\nclass = parallelizable", fillcolor="#399de5aa"] ;
39 -> 40 ;
41 [label="(...)", fillcolor="#C0C0C0"] ;
40 -> 41 ;
42 [label="(...)", fillcolor="#C0C0C0"] ;
40 -> 42 ;
43 [label="gini = 0.0\nsamples = 60\nvalue = [0, 60]\nclass = parallelizable", fillcolor="#399de5ff"] ;
39 -> 43 ;
44 [label="payload-mem-dependencies-number <= 3.5\ngini = 0.426\nsamples = 91\nvalue = [63, 28]\nclass = non-parallelizable", fillcolor="#e581398e"] ;
38 -> 44 ;
45 [label="critical-payload-total-cohesion <= 0.434\ngini = 0.489\nsamples = 47\nvalue = [20, 27]\nclass = parallelizable", fillcolor="#399de542"] ;
44 -> 45 ;
46 [label="(...)", fillcolor="#C0C0C0"] ;
45 -> 46 ;
57 [label="(...)", fillcolor="#C0C0C0"] ;
45 -> 57 ;
60 [label="critical-payload-mem-dependencies-number <= 1.0\ngini = 0.044\nsamples = 44\nvalue = [43, 1]\nclass = non-parallelizable", fillcolor="#e58139f9"] ;
44 -> 60 ;
61 [label="(...)", fillcolor="#C0C0C0"] ;
60 -> 61 ;
64 [label="(...)", fillcolor="#C0C0C0"] ;
60 -> 64 ;
65 [label="loop-critical-payload-fraction <= 0.222\ngini = 0.26\nsamples = 839\nvalue = [129, 710]\nclass = parallelizable", fillcolor="#399de5d1"] ;
1 -> 65 ;
66 [label="payload-call-fraction <= 0.008\ngini = 0.198\nsamples = 719\nvalue = [80, 639]\nclass = parallelizable", fillcolor="#399de5df"] ;
65 -> 66 ;
67 [label="iterator-payload-non-cf-cohesion <= 0.034\ngini = 0.172\nsamples = 686\nvalue = [65, 621]\nclass = parallelizable", fillcolor="#399de5e4"] ;
66 -> 67 ;
68 [label="iterator-payload-total-cohesion <= 0.446\ngini = 0.399\nsamples = 98\nvalue = [27, 71]\nclass = parallelizable", fillcolor="#399de59e"] ;
67 -> 68 ;
69 [label="(...)", fillcolor="#C0C0C0"] ;
68 -> 69 ;
88 [label="(...)", fillcolor="#C0C0C0"] ;
68 -> 88 ;
101 [label="iterator-mem-write-count <= 4.5\ngini = 0.121\nsamples = 588\nvalue = [38, 550]\nclass = parallelizable", fillcolor="#399de5ed"] ;
67 -> 101 ;
102 [label="(...)", fillcolor="#C0C0C0"] ;
101 -> 102 ;
177 [label="(...)", fillcolor="#C0C0C0"] ;
101 -> 177 ;
178 [label="iterator-payload-non-cf-cohesion <= 0.034\ngini = 0.496\nsamples = 33\nvalue = [15, 18]\nclass = parallelizable", fillcolor="#399de52a"] ;
66 -> 178 ;
179 [label="gini = 0.0\nsamples = 15\nvalue = [0, 15]\nclass = parallelizable", fillcolor="#399de5ff"] ;
178 -> 179 ;
180 [label="payload-reg-dependencies-number <= 29.5\ngini = 0.278\nsamples = 18\nvalue = [15, 3]\nclass = non-parallelizable", fillcolor="#e58139cc"] ;
178 -> 180 ;
181 [label="(...)", fillcolor="#C0C0C0"] ;
180 -> 181 ;
182 [label="(...)", fillcolor="#C0C0C0"] ;
180 -> 182 ;
185 [label="critical-payload-mem-dependencies-number <= 2.5\ngini = 0.483\nsamples = 120\nvalue = [49, 71]\nclass = parallelizable", fillcolor="#399de54f"] ;
65 -> 185 ;
186 [label="critical-payload-true-dependencies-number <= 1.5\ngini = 0.289\nsamples = 57\nvalue = [10, 47]\nclass = parallelizable", fillcolor="#399de5c9"] ;
185 -> 186 ;
187 [label="gini = 0.0\nsamples = 3\nvalue = [3, 0]\nclass = non-parallelizable", fillcolor="#e58139ff"] ;
186 -> 187 ;
188 [label="critical-payload-true-dependencies-number <= 23.5\ngini = 0.226\nsamples = 54\nvalue = [7, 47]\nclass = parallelizable", fillcolor="#399de5d9"] ;
186 -> 188 ;
189 [label="(...)", fillcolor="#C0C0C0"] ;
188 -> 189 ;
204 [label="(...)", fillcolor="#C0C0C0"] ;
188 -> 204 ;
205 [label="critical-payload-non-cf-cohesion <= 0.101\ngini = 0.472\nsamples = 63\nvalue = [39, 24]\nclass = non-parallelizable", fillcolor="#e5813962"] ;
185 -> 205 ;
206 [label="critical-payload-mem-dependencies-number <= 13.0\ngini = 0.188\nsamples = 19\nvalue = [17, 2]\nclass = non-parallelizable", fillcolor="#e58139e1"] ;
205 -> 206 ;
207 [label="(...)", fillcolor="#C0C0C0"] ;
206 -> 207 ;
208 [label="(...)", fillcolor="#C0C0C0"] ;
206 -> 208 ;
211 [label="payload-mem-write-fraction <= 0.087\ngini = 0.5\nsamples = 44\nvalue = [22, 22]\nclass = non-parallelizable", fillcolor="#e5813900"] ;
205 -> 211 ;
212 [label="(...)", fillcolor="#C0C0C0"] ;
211 -> 212 ;
235 [label="(...)", fillcolor="#C0C0C0"] ;
211 -> 235 ;
236 [label="loop-depth <= 1.5\ngini = 0.287\nsamples = 213\nvalue = [176, 37]\nclass = non-parallelizable", fillcolor="#e58139c9"] ;
0 -> 236 [labeldistance=2.5, labelangle=-45, headlabel="False"] ;
237 [label="payload-call-fraction <= 0.066\ngini = 0.425\nsamples = 101\nvalue = [70, 31]\nclass = non-parallelizable", fillcolor="#e581398e"] ;
236 -> 237 ;
238 [label="payload-call-fraction <= 0.034\ngini = 0.4\nsamples = 29\nvalue = [8, 21]\nclass = parallelizable", fillcolor="#399de59e"] ;
237 -> 238 ;
239 [label="gini = 0.0\nsamples = 3\nvalue = [3, 0]\nclass = non-parallelizable", fillcolor="#e58139ff"] ;
238 -> 239 ;
240 [label="critical-payload-call-count <= 0.5\ngini = 0.311\nsamples = 26\nvalue = [5, 21]\nclass = parallelizable", fillcolor="#399de5c2"] ;
238 -> 240 ;
241 [label="iterator-payload-total-cohesion <= 0.528\ngini = 0.227\nsamples = 23\nvalue = [3, 20]\nclass = parallelizable", fillcolor="#399de5d9"] ;
240 -> 241 ;
242 [label="(...)", fillcolor="#C0C0C0"] ;
241 -> 242 ;
247 [label="(...)", fillcolor="#C0C0C0"] ;
241 -> 247 ;
248 [label="payload-mem-write-count <= 2.5\ngini = 0.444\nsamples = 3\nvalue = [2, 1]\nclass = non-parallelizable", fillcolor="#e581397f"] ;
240 -> 248 ;
249 [label="(...)", fillcolor="#C0C0C0"] ;
248 -> 249 ;
250 [label="(...)", fillcolor="#C0C0C0"] ;
248 -> 250 ;
251 [label="payload-true-dependencies-number <= 60.0\ngini = 0.239\nsamples = 72\nvalue = [62, 10]\nclass = non-parallelizable", fillcolor="#e58139d6"] ;
237 -> 251 ;
252 [label="payload-mem-write-fraction <= 0.082\ngini = 0.114\nsamples = 66\nvalue = [62, 4]\nclass = non-parallelizable", fillcolor="#e58139ef"] ;
251 -> 252 ;
253 [label="critical-payload-total-dependencies-number <= 9.0\ngini = 0.5\nsamples = 2\nvalue = [1, 1]\nclass = non-parallelizable", fillcolor="#e5813900"] ;
252 -> 253 ;
254 [label="(...)", fillcolor="#C0C0C0"] ;
253 -> 254 ;
255 [label="(...)", fillcolor="#C0C0C0"] ;
253 -> 255 ;
256 [label="critical-payload-total-cohesion <= 0.288\ngini = 0.089\nsamples = 64\nvalue = [61, 3]\nclass = non-parallelizable", fillcolor="#e58139f2"] ;
252 -> 256 ;
257 [label="(...)", fillcolor="#C0C0C0"] ;
256 -> 257 ;
262 [label="(...)", fillcolor="#C0C0C0"] ;
256 -> 262 ;
265 [label="gini = 0.0\nsamples = 6\nvalue = [0, 6]\nclass = parallelizable", fillcolor="#399de5ff"] ;
251 -> 265 ;
266 [label="payload-mem-write-fraction <= 0.034\ngini = 0.101\nsamples = 112\nvalue = [106, 6]\nclass = non-parallelizable", fillcolor="#e58139f1"] ;
236 -> 266 ;
267 [label="gini = 0.0\nsamples = 2\nvalue = [0, 2]\nclass = parallelizable", fillcolor="#399de5ff"] ;
266 -> 267 ;
268 [label="iterator-payload-non-cf-cohesion <= 0.088\ngini = 0.07\nsamples = 110\nvalue = [106, 4]\nclass = non-parallelizable", fillcolor="#e58139f5"] ;
266 -> 268 ;
269 [label="payload-mem-write-fraction <= 0.048\ngini = 0.037\nsamples = 107\nvalue = [105, 2]\nclass = non-parallelizable", fillcolor="#e58139fa"] ;
268 -> 269 ;
270 [label="loop-absolute-size <= 28.5\ngini = 0.26\nsamples = 13\nvalue = [11, 2]\nclass = non-parallelizable", fillcolor="#e58139d1"] ;
269 -> 270 ;
271 [label="(...)", fillcolor="#C0C0C0"] ;
270 -> 271 ;
272 [label="(...)", fillcolor="#C0C0C0"] ;
270 -> 272 ;
273 [label="gini = 0.0\nsamples = 94\nvalue = [94, 0]\nclass = non-parallelizable", fillcolor="#e58139ff"] ;
269 -> 273 ;
274 [label="payload-total-dependencies-number <= 6.0\ngini = 0.444\nsamples = 3\nvalue = [1, 2]\nclass = parallelizable", fillcolor="#399de57f"] ;
268 -> 274 ;
275 [label="gini = 0.0\nsamples = 1\nvalue = [1, 0]\nclass = non-parallelizable", fillcolor="#e58139ff"] ;
274 -> 275 ;
276 [label="gini = 0.0\nsamples = 2\nvalue = [0, 2]\nclass = parallelizable", fillcolor="#399de5ff"] ;
274 -> 276 ;
}