digraph Tree {
node [shape=box, style="filled, rounded", color="black", fontname=helvetica] ;
edge [fontname=helvetica] ;
0 [label="payload-call-fraction <= 0.028\ngini = 0.457\nsamples = 1349\nvalue = [476, 873]\nclass = parallelizable", fillcolor="#399de574"] ;
1 [label="iterator-payload-non-cf-cohesion <= 0.027\ngini = 0.386\nsamples = 1121\nvalue = [293, 828]\nclass = parallelizable", fillcolor="#399de5a5"] ;
0 -> 1 [labeldistance=2.5, labelangle=45, headlabel="True"] ;
2 [label="critical-payload-total-cohesion <= 0.289\ngini = 0.487\nsamples = 302\nvalue = [175, 127]\nclass = non-parallelizable", fillcolor="#e5813946"] ;
1 -> 2 ;
3 [label="payload-output-dependencies-number <= 1.5\ngini = 0.341\nsamples = 147\nvalue = [115, 32]\nclass = non-parallelizable", fillcolor="#e58139b8"] ;
2 -> 3 ;
4 [label="(...)", fillcolor="#C0C0C0"] ;
3 -> 4 ;
23 [label="(...)", fillcolor="#C0C0C0"] ;
3 -> 23 ;
34 [label="loop-depth <= 1.5\ngini = 0.475\nsamples = 155\nvalue = [60, 95]\nclass = parallelizable", fillcolor="#399de55e"] ;
2 -> 34 ;
35 [label="(...)", fillcolor="#C0C0C0"] ;
34 -> 35 ;
40 [label="(...)", fillcolor="#C0C0C0"] ;
34 -> 40 ;
67 [label="loop-critical-payload-fraction <= 0.222\ngini = 0.247\nsamples = 819\nvalue = [118, 701]\nclass = parallelizable", fillcolor="#399de5d4"] ;
1 -> 67 ;
68 [label="payload-call-fraction <= 0.008\ngini = 0.185\nsamples = 699\nvalue = [72, 627]\nclass = parallelizable", fillcolor="#399de5e2"] ;
67 -> 68 ;
69 [label="(...)", fillcolor="#C0C0C0"] ;
68 -> 69 ;
174 [label="(...)", fillcolor="#C0C0C0"] ;
68 -> 174 ;
181 [label="critical-payload-mem-dependencies-number <= 2.5\ngini = 0.473\nsamples = 120\nvalue = [46, 74]\nclass = parallelizable", fillcolor="#399de560"] ;
67 -> 181 ;
182 [label="(...)", fillcolor="#C0C0C0"] ;
181 -> 182 ;
199 [label="(...)", fillcolor="#C0C0C0"] ;
181 -> 199 ;
226 [label="loop-inner-loop-num <= 1.5\ngini = 0.317\nsamples = 228\nvalue = [183, 45]\nclass = non-parallelizable", fillcolor="#e58139c0"] ;
0 -> 226 [labeldistance=2.5, labelangle=-45, headlabel="False"] ;
227 [label="loop-critical-payload-fraction <= 0.356\ngini = 0.218\nsamples = 185\nvalue = [162, 23]\nclass = non-parallelizable", fillcolor="#e58139db"] ;
226 -> 227 ;
228 [label="iterator-payload-total-cohesion <= 0.522\ngini = 0.189\nsamples = 180\nvalue = [161, 19]\nclass = non-parallelizable", fillcolor="#e58139e1"] ;
227 -> 228 ;
229 [label="(...)", fillcolor="#C0C0C0"] ;
228 -> 229 ;
256 [label="(...)", fillcolor="#C0C0C0"] ;
228 -> 256 ;
259 [label="iterator-mem-write-count <= 1.0\ngini = 0.32\nsamples = 5\nvalue = [1, 4]\nclass = parallelizable", fillcolor="#399de5bf"] ;
227 -> 259 ;
260 [label="(...)", fillcolor="#C0C0C0"] ;
259 -> 260 ;
261 [label="(...)", fillcolor="#C0C0C0"] ;
259 -> 261 ;
262 [label="loop-depth <= 1.5\ngini = 0.5\nsamples = 43\nvalue = [21, 22]\nclass = parallelizable", fillcolor="#399de50c"] ;
226 -> 262 ;
263 [label="payload-mem-write-fraction <= 0.087\ngini = 0.403\nsamples = 25\nvalue = [7, 18]\nclass = parallelizable", fillcolor="#399de59c"] ;
262 -> 263 ;
264 [label="(...)", fillcolor="#C0C0C0"] ;
263 -> 264 ;
265 [label="(...)", fillcolor="#C0C0C0"] ;
263 -> 265 ;
272 [label="payload-call-fraction <= 0.031\ngini = 0.346\nsamples = 18\nvalue = [14, 4]\nclass = non-parallelizable", fillcolor="#e58139b6"] ;
262 -> 272 ;
273 [label="(...)", fillcolor="#C0C0C0"] ;
272 -> 273 ;
274 [label="(...)", fillcolor="#C0C0C0"] ;
272 -> 274 ;
}