digraph Tree {
node [shape=box, style="filled, rounded", color="black", fontname=helvetica] ;
edge [fontname=helvetica] ;
0 [label="payload-call-fraction <= 0.031\ngini = 0.459\nsamples = 1349\nvalue = [481, 868]\nclass = parallelizable", fillcolor="#399de572"] ;
1 [label="iterator-payload-non-cf-cohesion <= 0.027\ngini = 0.392\nsamples = 1135\nvalue = [304, 831]\nclass = parallelizable", fillcolor="#399de5a2"] ;
0 -> 1 [labeldistance=2.5, labelangle=45, headlabel="True"] ;
2 [label="critical-payload-total-cohesion <= 0.289\ngini = 0.487\nsamples = 306\nvalue = [178, 128]\nclass = non-parallelizable", fillcolor="#e5813948"] ;
1 -> 2 ;
3 [label="payload-output-dependencies-number <= 1.5\ngini = 0.344\nsamples = 145\nvalue = [113, 32]\nclass = non-parallelizable", fillcolor="#e58139b7"] ;
2 -> 3 ;
4 [label="iterator-payload-total-cohesion <= 0.077\ngini = 0.222\nsamples = 110\nvalue = [96, 14]\nclass = non-parallelizable", fillcolor="#e58139da"] ;
3 -> 4 ;
5 [label="loop-payload-fraction <= 0.131\ngini = 0.473\nsamples = 26\nvalue = [16, 10]\nclass = non-parallelizable", fillcolor="#e5813960"] ;
4 -> 5 ;
6 [label="(...)", fillcolor="#C0C0C0"] ;
5 -> 6 ;
11 [label="(...)", fillcolor="#C0C0C0"] ;
5 -> 11 ;
16 [label="iterator-payload-total-cohesion <= 0.155\ngini = 0.091\nsamples = 84\nvalue = [80, 4]\nclass = non-parallelizable", fillcolor="#e58139f2"] ;
4 -> 16 ;
17 [label="(...)", fillcolor="#C0C0C0"] ;
16 -> 17 ;
22 [label="(...)", fillcolor="#C0C0C0"] ;
16 -> 22 ;
27 [label="critical-payload-total-cohesion <= 0.116\ngini = 0.5\nsamples = 35\nvalue = [17, 18]\nclass = parallelizable", fillcolor="#399de50e"] ;
3 -> 27 ;
28 [label="payload-mem-write-fraction <= 0.119\ngini = 0.219\nsamples = 16\nvalue = [2, 14]\nclass = parallelizable", fillcolor="#399de5db"] ;
27 -> 28 ;
29 [label="(...)", fillcolor="#C0C0C0"] ;
28 -> 29 ;
30 [label="(...)", fillcolor="#C0C0C0"] ;
28 -> 30 ;
33 [label="payload-mem-dependencies-number <= 4.0\ngini = 0.332\nsamples = 19\nvalue = [15, 4]\nclass = non-parallelizable", fillcolor="#e58139bb"] ;
27 -> 33 ;
34 [label="(...)", fillcolor="#C0C0C0"] ;
33 -> 34 ;
35 [label="(...)", fillcolor="#C0C0C0"] ;
33 -> 35 ;
40 [label="loop-depth <= 1.5\ngini = 0.481\nsamples = 161\nvalue = [65, 96]\nclass = parallelizable", fillcolor="#399de552"] ;
2 -> 40 ;
41 [label="payload-mem-write-fraction <= 0.011\ngini = 0.03\nsamples = 65\nvalue = [1, 64]\nclass = parallelizable", fillcolor="#399de5fb"] ;
40 -> 41 ;
42 [label="payload-mem-write-fraction <= 0.01\ngini = 0.32\nsamples = 5\nvalue = [1, 4]\nclass = parallelizable", fillcolor="#399de5bf"] ;
41 -> 42 ;
43 [label="(...)", fillcolor="#C0C0C0"] ;
42 -> 43 ;
44 [label="(...)", fillcolor="#C0C0C0"] ;
42 -> 44 ;
45 [label="gini = 0.0\nsamples = 60\nvalue = [0, 60]\nclass = parallelizable", fillcolor="#399de5ff"] ;
41 -> 45 ;
46 [label="payload-mem-dependencies-number <= 3.5\ngini = 0.444\nsamples = 96\nvalue = [64, 32]\nclass = non-parallelizable", fillcolor="#e581397f"] ;
40 -> 46 ;
47 [label="iterator-payload-non-cf-cohesion <= 0.02\ngini = 0.484\nsamples = 51\nvalue = [21, 30]\nclass = parallelizable", fillcolor="#399de54d"] ;
46 -> 47 ;
48 [label="(...)", fillcolor="#C0C0C0"] ;
47 -> 48 ;
57 [label="(...)", fillcolor="#C0C0C0"] ;
47 -> 57 ;
68 [label="iterator-payload-non-cf-cohesion <= 0.026\ngini = 0.085\nsamples = 45\nvalue = [43, 2]\nclass = non-parallelizable", fillcolor="#e58139f3"] ;
46 -> 68 ;
69 [label="(...)", fillcolor="#C0C0C0"] ;
68 -> 69 ;
74 [label="(...)", fillcolor="#C0C0C0"] ;
68 -> 74 ;
75 [label="critical-payload-mem-dependencies-number <= 2.5\ngini = 0.258\nsamples = 829\nvalue = [126, 703]\nclass = parallelizable", fillcolor="#399de5d1"] ;
1 -> 75 ;
76 [label="payload-call-fraction <= 0.008\ngini = 0.177\nsamples = 643\nvalue = [63, 580]\nclass = parallelizable", fillcolor="#399de5e3"] ;
75 -> 76 ;
77 [label="loop-payload-fraction <= 0.279\ngini = 0.15\nsamples = 614\nvalue = [50, 564]\nclass = parallelizable", fillcolor="#399de5e8"] ;
76 -> 77 ;
78 [label="gini = 0.0\nsamples = 3\nvalue = [3, 0]\nclass = non-parallelizable", fillcolor="#e58139ff"] ;
77 -> 78 ;
79 [label="critical-payload-reg-dependencies-number <= 23.5\ngini = 0.142\nsamples = 611\nvalue = [47, 564]\nclass = parallelizable", fillcolor="#399de5ea"] ;
77 -> 79 ;
80 [label="(...)", fillcolor="#C0C0C0"] ;
79 -> 80 ;
163 [label="(...)", fillcolor="#C0C0C0"] ;
79 -> 163 ;
164 [label="iterator-payload-non-cf-cohesion <= 0.034\ngini = 0.495\nsamples = 29\nvalue = [13, 16]\nclass = parallelizable", fillcolor="#399de530"] ;
76 -> 164 ;
165 [label="gini = 0.0\nsamples = 13\nvalue = [0, 13]\nclass = parallelizable", fillcolor="#399de5ff"] ;
164 -> 165 ;
166 [label="payload-mem-write-fraction <= 0.085\ngini = 0.305\nsamples = 16\nvalue = [13, 3]\nclass = non-parallelizable", fillcolor="#e58139c4"] ;
164 -> 166 ;
167 [label="(...)", fillcolor="#C0C0C0"] ;
166 -> 167 ;
168 [label="(...)", fillcolor="#C0C0C0"] ;
166 -> 168 ;
173 [label="loop-critical-payload-fraction <= 0.239\ngini = 0.448\nsamples = 186\nvalue = [63, 123]\nclass = parallelizable", fillcolor="#399de57c"] ;
75 -> 173 ;
174 [label="iterator-payload-non-cf-cohesion <= 0.034\ngini = 0.351\nsamples = 141\nvalue = [32, 109]\nclass = parallelizable", fillcolor="#399de5b4"] ;
173 -> 174 ;
175 [label="payload-reg-dependencies-number <= 1136.0\ngini = 0.493\nsamples = 34\nvalue = [19, 15]\nclass = non-parallelizable", fillcolor="#e5813936"] ;
174 -> 175 ;
176 [label="(...)", fillcolor="#C0C0C0"] ;
175 -> 176 ;
185 [label="(...)", fillcolor="#C0C0C0"] ;
175 -> 185 ;
186 [label="critical-payload-mem-write-fraction <= 0.08\ngini = 0.213\nsamples = 107\nvalue = [13, 94]\nclass = parallelizable", fillcolor="#399de5dc"] ;
174 -> 186 ;
187 [label="(...)", fillcolor="#C0C0C0"] ;
186 -> 187 ;
192 [label="(...)", fillcolor="#C0C0C0"] ;
186 -> 192 ;
207 [label="critical-payload-non-cf-cohesion <= 0.117\ngini = 0.429\nsamples = 45\nvalue = [31, 14]\nclass = non-parallelizable", fillcolor="#e581398c"] ;
173 -> 207 ;
208 [label="critical-payload-mem-dependencies-number <= 13.0\ngini = 0.1\nsamples = 19\nvalue = [18, 1]\nclass = non-parallelizable", fillcolor="#e58139f1"] ;
207 -> 208 ;
209 [label="(...)", fillcolor="#C0C0C0"] ;
208 -> 209 ;
210 [label="(...)", fillcolor="#C0C0C0"] ;
208 -> 210 ;
213 [label="payload-mem-write-fraction <= 0.087\ngini = 0.5\nsamples = 26\nvalue = [13, 13]\nclass = non-parallelizable", fillcolor="#e5813900"] ;
207 -> 213 ;
214 [label="(...)", fillcolor="#C0C0C0"] ;
213 -> 214 ;
227 [label="(...)", fillcolor="#C0C0C0"] ;
213 -> 227 ;
228 [label="loop-depth <= 1.5\ngini = 0.286\nsamples = 214\nvalue = [177, 37]\nclass = non-parallelizable", fillcolor="#e58139ca"] ;
0 -> 228 [labeldistance=2.5, labelangle=-45, headlabel="False"] ;
229 [label="payload-call-fraction <= 0.066\ngini = 0.428\nsamples = 100\nvalue = [69, 31]\nclass = non-parallelizable", fillcolor="#e581398c"] ;
228 -> 229 ;
230 [label="payload-mem-write-fraction <= 0.141\ngini = 0.42\nsamples = 30\nvalue = [9, 21]\nclass = parallelizable", fillcolor="#399de592"] ;
229 -> 230 ;
231 [label="loop-absolute-size <= 89.0\ngini = 0.346\nsamples = 27\nvalue = [6, 21]\nclass = parallelizable", fillcolor="#399de5b6"] ;
230 -> 231 ;
232 [label="loop-absolute-size <= 28.0\ngini = 0.18\nsamples = 20\nvalue = [2, 18]\nclass = parallelizable", fillcolor="#399de5e3"] ;
231 -> 232 ;
233 [label="(...)", fillcolor="#C0C0C0"] ;
232 -> 233 ;
236 [label="(...)", fillcolor="#C0C0C0"] ;
232 -> 236 ;
237 [label="critical-payload-non-cf-cohesion <= 0.079\ngini = 0.49\nsamples = 7\nvalue = [4, 3]\nclass = non-parallelizable", fillcolor="#e5813940"] ;
231 -> 237 ;
238 [label="(...)", fillcolor="#C0C0C0"] ;
237 -> 238 ;
239 [label="(...)", fillcolor="#C0C0C0"] ;
237 -> 239 ;
240 [label="gini = 0.0\nsamples = 3\nvalue = [3, 0]\nclass = non-parallelizable", fillcolor="#e58139ff"] ;
230 -> 240 ;
241 [label="payload-true-dependencies-number <= 60.0\ngini = 0.245\nsamples = 70\nvalue = [60, 10]\nclass = non-parallelizable", fillcolor="#e58139d4"] ;
229 -> 241 ;
242 [label="critical-payload-total-cohesion <= 0.288\ngini = 0.119\nsamples = 63\nvalue = [59, 4]\nclass = non-parallelizable", fillcolor="#e58139ee"] ;
241 -> 242 ;
243 [label="payload-mem-write-fraction <= 0.082\ngini = 0.07\nsamples = 55\nvalue = [53, 2]\nclass = non-parallelizable", fillcolor="#e58139f5"] ;
242 -> 243 ;
244 [label="(...)", fillcolor="#C0C0C0"] ;
243 -> 244 ;
247 [label="(...)", fillcolor="#C0C0C0"] ;
243 -> 247 ;
252 [label="payload-total-dependencies-number <= 43.0\ngini = 0.375\nsamples = 8\nvalue = [6, 2]\nclass = non-parallelizable", fillcolor="#e58139aa"] ;
242 -> 252 ;
253 [label="(...)", fillcolor="#C0C0C0"] ;
252 -> 253 ;
254 [label="(...)", fillcolor="#C0C0C0"] ;
252 -> 254 ;
255 [label="payload-output-dependencies-number <= 10.5\ngini = 0.245\nsamples = 7\nvalue = [1, 6]\nclass = parallelizable", fillcolor="#399de5d4"] ;
241 -> 255 ;
256 [label="gini = 0.0\nsamples = 6\nvalue = [0, 6]\nclass = parallelizable", fillcolor="#399de5ff"] ;
255 -> 256 ;
257 [label="gini = 0.0\nsamples = 1\nvalue = [1, 0]\nclass = non-parallelizable", fillcolor="#e58139ff"] ;
255 -> 257 ;
258 [label="payload-mem-write-fraction <= 0.034\ngini = 0.1\nsamples = 114\nvalue = [108, 6]\nclass = non-parallelizable", fillcolor="#e58139f1"] ;
228 -> 258 ;
259 [label="gini = 0.0\nsamples = 2\nvalue = [0, 2]\nclass = parallelizable", fillcolor="#399de5ff"] ;
258 -> 259 ;
260 [label="iterator-payload-non-cf-cohesion <= 0.088\ngini = 0.069\nsamples = 112\nvalue = [108, 4]\nclass = non-parallelizable", fillcolor="#e58139f6"] ;
258 -> 260 ;
261 [label="payload-mem-write-fraction <= 0.048\ngini = 0.036\nsamples = 109\nvalue = [107, 2]\nclass = non-parallelizable", fillcolor="#e58139fa"] ;
260 -> 261 ;
262 [label="iterator-payload-non-cf-cohesion <= 0.035\ngini = 0.245\nsamples = 14\nvalue = [12, 2]\nclass = non-parallelizable", fillcolor="#e58139d4"] ;
261 -> 262 ;
263 [label="(...)", fillcolor="#C0C0C0"] ;
262 -> 263 ;
264 [label="(...)", fillcolor="#C0C0C0"] ;
262 -> 264 ;
265 [label="gini = 0.0\nsamples = 95\nvalue = [95, 0]\nclass = non-parallelizable", fillcolor="#e58139ff"] ;
261 -> 265 ;
266 [label="payload-mem-write-fraction <= 0.125\ngini = 0.444\nsamples = 3\nvalue = [1, 2]\nclass = parallelizable", fillcolor="#399de57f"] ;
260 -> 266 ;
267 [label="gini = 0.0\nsamples = 2\nvalue = [0, 2]\nclass = parallelizable", fillcolor="#399de5ff"] ;
266 -> 267 ;
268 [label="gini = 0.0\nsamples = 1\nvalue = [1, 0]\nclass = non-parallelizable", fillcolor="#e58139ff"] ;
266 -> 268 ;
}