digraph Tree {
node [shape=box, style="filled, rounded", color="black", fontname=helvetica] ;
edge [fontname=helvetica] ;
0 [label="payload-call-fraction <= 0.031\ngini = 0.458\nsamples = 1349\nvalue = [478, 871]\nclass = parallelizable", fillcolor="#399de573"] ;
1 [label="iterator-payload-non-cf-cohesion <= 0.027\ngini = 0.391\nsamples = 1135\nvalue = [303, 832]\nclass = parallelizable", fillcolor="#399de5a2"] ;
0 -> 1 [labeldistance=2.5, labelangle=45, headlabel="True"] ;
2 [label="loop-inner-loop-num <= 1.5\ngini = 0.483\nsamples = 307\nvalue = [182, 125]\nclass = non-parallelizable", fillcolor="#e5813950"] ;
1 -> 2 ;
3 [label="payload-output-dependencies-number <= 1.5\ngini = 0.344\nsamples = 154\nvalue = [120, 34]\nclass = non-parallelizable", fillcolor="#e58139b7"] ;
2 -> 3 ;
4 [label="critical-payload-total-cohesion <= 0.407\ngini = 0.251\nsamples = 129\nvalue = [110, 19]\nclass = non-parallelizable", fillcolor="#e58139d3"] ;
3 -> 4 ;
5 [label="iterator-payload-total-cohesion <= 0.077\ngini = 0.173\nsamples = 115\nvalue = [104, 11]\nclass = non-parallelizable", fillcolor="#e58139e4"] ;
4 -> 5 ;
6 [label="(...)", fillcolor="#C0C0C0"] ;
5 -> 6 ;
15 [label="(...)", fillcolor="#C0C0C0"] ;
5 -> 15 ;
26 [label="critical-payload-total-dependencies-number <= 11.5\ngini = 0.49\nsamples = 14\nvalue = [6, 8]\nclass = parallelizable", fillcolor="#399de540"] ;
4 -> 26 ;
27 [label="(...)", fillcolor="#C0C0C0"] ;
26 -> 27 ;
30 [label="(...)", fillcolor="#C0C0C0"] ;
26 -> 30 ;
31 [label="critical-payload-total-cohesion <= 0.114\ngini = 0.48\nsamples = 25\nvalue = [10, 15]\nclass = parallelizable", fillcolor="#399de555"] ;
3 -> 31 ;
32 [label="payload-mem-dependencies-number <= 14.0\ngini = 0.142\nsamples = 13\nvalue = [1, 12]\nclass = parallelizable", fillcolor="#399de5ea"] ;
31 -> 32 ;
33 [label="(...)", fillcolor="#C0C0C0"] ;
32 -> 33 ;
34 [label="(...)", fillcolor="#C0C0C0"] ;
32 -> 34 ;
35 [label="payload-mem-dependencies-number <= 3.5\ngini = 0.375\nsamples = 12\nvalue = [9, 3]\nclass = non-parallelizable", fillcolor="#e58139aa"] ;
31 -> 35 ;
36 [label="(...)", fillcolor="#C0C0C0"] ;
35 -> 36 ;
37 [label="(...)", fillcolor="#C0C0C0"] ;
35 -> 37 ;
38 [label="loop-depth <= 1.5\ngini = 0.482\nsamples = 153\nvalue = [62, 91]\nclass = parallelizable", fillcolor="#399de551"] ;
2 -> 38 ;
39 [label="iterator-payload-total-cohesion <= 0.156\ngini = 0.123\nsamples = 76\nvalue = [5, 71]\nclass = parallelizable", fillcolor="#399de5ed"] ;
38 -> 39 ;
40 [label="loop-critical-payload-fraction <= 0.454\ngini = 0.078\nsamples = 74\nvalue = [3, 71]\nclass = parallelizable", fillcolor="#399de5f4"] ;
39 -> 40 ;
41 [label="(...)", fillcolor="#C0C0C0"] ;
40 -> 41 ;
46 [label="(...)", fillcolor="#C0C0C0"] ;
40 -> 46 ;
49 [label="gini = 0.0\nsamples = 2\nvalue = [2, 0]\nclass = non-parallelizable", fillcolor="#e58139ff"] ;
39 -> 49 ;
50 [label="loop-payload-fraction <= 0.886\ngini = 0.385\nsamples = 77\nvalue = [57, 20]\nclass = non-parallelizable", fillcolor="#e58139a6"] ;
38 -> 50 ;
51 [label="iterator-payload-non-cf-cohesion <= 0.013\ngini = 0.32\nsamples = 15\nvalue = [3, 12]\nclass = parallelizable", fillcolor="#399de5bf"] ;
50 -> 51 ;
52 [label="(...)", fillcolor="#C0C0C0"] ;
51 -> 52 ;
53 [label="(...)", fillcolor="#C0C0C0"] ;
51 -> 53 ;
58 [label="iterator-payload-non-cf-cohesion <= 0.025\ngini = 0.225\nsamples = 62\nvalue = [54, 8]\nclass = non-parallelizable", fillcolor="#e58139d9"] ;
50 -> 58 ;
59 [label="(...)", fillcolor="#C0C0C0"] ;
58 -> 59 ;
72 [label="(...)", fillcolor="#C0C0C0"] ;
58 -> 72 ;
75 [label="critical-payload-mem-dependencies-number <= 2.5\ngini = 0.25\nsamples = 828\nvalue = [121, 707]\nclass = parallelizable", fillcolor="#399de5d3"] ;
1 -> 75 ;
76 [label="payload-call-fraction <= 0.008\ngini = 0.175\nsamples = 651\nvalue = [63, 588]\nclass = parallelizable", fillcolor="#399de5e4"] ;
75 -> 76 ;
77 [label="iterator-mem-write-count <= 4.5\ngini = 0.143\nsamples = 620\nvalue = [48, 572]\nclass = parallelizable", fillcolor="#399de5ea"] ;
76 -> 77 ;
78 [label="critical-payload-reg-dependencies-number <= 23.5\ngini = 0.135\nsamples = 617\nvalue = [45, 572]\nclass = parallelizable", fillcolor="#399de5eb"] ;
77 -> 78 ;
79 [label="(...)", fillcolor="#C0C0C0"] ;
78 -> 79 ;
166 [label="(...)", fillcolor="#C0C0C0"] ;
78 -> 166 ;
167 [label="gini = 0.0\nsamples = 3\nvalue = [3, 0]\nclass = non-parallelizable", fillcolor="#e58139ff"] ;
77 -> 167 ;
168 [label="iterator-payload-non-cf-cohesion <= 0.034\ngini = 0.499\nsamples = 31\nvalue = [15, 16]\nclass = parallelizable", fillcolor="#399de510"] ;
76 -> 168 ;
169 [label="gini = 0.0\nsamples = 13\nvalue = [0, 13]\nclass = parallelizable", fillcolor="#399de5ff"] ;
168 -> 169 ;
170 [label="critical-payload-total-cohesion <= 0.182\ngini = 0.278\nsamples = 18\nvalue = [15, 3]\nclass = non-parallelizable", fillcolor="#e58139cc"] ;
168 -> 170 ;
171 [label="(...)", fillcolor="#C0C0C0"] ;
170 -> 171 ;
172 [label="(...)", fillcolor="#C0C0C0"] ;
170 -> 172 ;
175 [label="loop-critical-payload-fraction <= 0.224\ngini = 0.441\nsamples = 177\nvalue = [58, 119]\nclass = parallelizable", fillcolor="#399de583"] ;
75 -> 175 ;
176 [label="iterator-payload-non-cf-cohesion <= 0.034\ngini = 0.308\nsamples = 121\nvalue = [23, 98]\nclass = parallelizable", fillcolor="#399de5c3"] ;
175 -> 176 ;
177 [label="loop-depth <= 1.5\ngini = 0.499\nsamples = 27\nvalue = [14, 13]\nclass = non-parallelizable", fillcolor="#e5813912"] ;
176 -> 177 ;
178 [label="(...)", fillcolor="#C0C0C0"] ;
177 -> 178 ;
181 [label="(...)", fillcolor="#C0C0C0"] ;
177 -> 181 ;
186 [label="critical-payload-cross-dependencies-number <= 0.5\ngini = 0.173\nsamples = 94\nvalue = [9, 85]\nclass = parallelizable", fillcolor="#399de5e4"] ;
176 -> 186 ;
187 [label="(...)", fillcolor="#C0C0C0"] ;
186 -> 187 ;
200 [label="(...)", fillcolor="#C0C0C0"] ;
186 -> 200 ;
203 [label="loop-proper-sccs-number <= 3.5\ngini = 0.469\nsamples = 56\nvalue = [35, 21]\nclass = non-parallelizable", fillcolor="#e5813966"] ;
175 -> 203 ;
204 [label="iterator-payload-non-cf-cohesion <= 0.028\ngini = 0.425\nsamples = 49\nvalue = [34, 15]\nclass = non-parallelizable", fillcolor="#e581398e"] ;
203 -> 204 ;
205 [label="(...)", fillcolor="#C0C0C0"] ;
204 -> 205 ;
206 [label="(...)", fillcolor="#C0C0C0"] ;
204 -> 206 ;
227 [label="payload-cross-dependencies-number <= 7.5\ngini = 0.245\nsamples = 7\nvalue = [1, 6]\nclass = parallelizable", fillcolor="#399de5d4"] ;
203 -> 227 ;
228 [label="(...)", fillcolor="#C0C0C0"] ;
227 -> 228 ;
229 [label="(...)", fillcolor="#C0C0C0"] ;
227 -> 229 ;
230 [label="loop-depth <= 1.5\ngini = 0.298\nsamples = 214\nvalue = [175, 39]\nclass = non-parallelizable", fillcolor="#e58139c6"] ;
0 -> 230 [labeldistance=2.5, labelangle=-45, headlabel="False"] ;
231 [label="payload-call-fraction <= 0.066\ngini = 0.438\nsamples = 102\nvalue = [69, 33]\nclass = non-parallelizable", fillcolor="#e5813985"] ;
230 -> 231 ;
232 [label="payload-mem-write-fraction <= 0.141\ngini = 0.404\nsamples = 32\nvalue = [9, 23]\nclass = parallelizable", fillcolor="#399de59b"] ;
231 -> 232 ;
233 [label="critical-payload-non-cf-cohesion <= 0.052\ngini = 0.328\nsamples = 29\nvalue = [6, 23]\nclass = parallelizable", fillcolor="#399de5bc"] ;
232 -> 233 ;
234 [label="payload-call-fraction <= 0.049\ngini = 0.496\nsamples = 11\nvalue = [5, 6]\nclass = parallelizable", fillcolor="#399de52a"] ;
233 -> 234 ;
235 [label="(...)", fillcolor="#C0C0C0"] ;
234 -> 235 ;
240 [label="(...)", fillcolor="#C0C0C0"] ;
234 -> 240 ;
241 [label="payload-call-fraction <= 0.055\ngini = 0.105\nsamples = 18\nvalue = [1, 17]\nclass = parallelizable", fillcolor="#399de5f0"] ;
233 -> 241 ;
242 [label="(...)", fillcolor="#C0C0C0"] ;
241 -> 242 ;
243 [label="(...)", fillcolor="#C0C0C0"] ;
241 -> 243 ;
246 [label="gini = 0.0\nsamples = 3\nvalue = [3, 0]\nclass = non-parallelizable", fillcolor="#e58139ff"] ;
232 -> 246 ;
247 [label="payload-reg-dependencies-number <= 60.0\ngini = 0.245\nsamples = 70\nvalue = [60, 10]\nclass = non-parallelizable", fillcolor="#e58139d4"] ;
231 -> 247 ;
248 [label="critical-payload-total-cohesion <= 0.288\ngini = 0.119\nsamples = 63\nvalue = [59, 4]\nclass = non-parallelizable", fillcolor="#e58139ee"] ;
247 -> 248 ;
249 [label="payload-mem-write-fraction <= 0.082\ngini = 0.07\nsamples = 55\nvalue = [53, 2]\nclass = non-parallelizable", fillcolor="#e58139f5"] ;
248 -> 249 ;
250 [label="(...)", fillcolor="#C0C0C0"] ;
249 -> 250 ;
253 [label="(...)", fillcolor="#C0C0C0"] ;
249 -> 253 ;
258 [label="payload-call-count <= 2.5\ngini = 0.375\nsamples = 8\nvalue = [6, 2]\nclass = non-parallelizable", fillcolor="#e58139aa"] ;
248 -> 258 ;
259 [label="(...)", fillcolor="#C0C0C0"] ;
258 -> 259 ;
260 [label="(...)", fillcolor="#C0C0C0"] ;
258 -> 260 ;
261 [label="payload-mem-dependencies-number <= 23.5\ngini = 0.245\nsamples = 7\nvalue = [1, 6]\nclass = parallelizable", fillcolor="#399de5d4"] ;
247 -> 261 ;
262 [label="gini = 0.0\nsamples = 6\nvalue = [0, 6]\nclass = parallelizable", fillcolor="#399de5ff"] ;
261 -> 262 ;
263 [label="gini = 0.0\nsamples = 1\nvalue = [1, 0]\nclass = non-parallelizable", fillcolor="#e58139ff"] ;
261 -> 263 ;
264 [label="payload-mem-write-fraction <= 0.034\ngini = 0.101\nsamples = 112\nvalue = [106, 6]\nclass = non-parallelizable", fillcolor="#e58139f1"] ;
230 -> 264 ;
265 [label="gini = 0.0\nsamples = 2\nvalue = [0, 2]\nclass = parallelizable", fillcolor="#399de5ff"] ;
264 -> 265 ;
266 [label="iterator-payload-non-cf-cohesion <= 0.088\ngini = 0.07\nsamples = 110\nvalue = [106, 4]\nclass = non-parallelizable", fillcolor="#e58139f5"] ;
264 -> 266 ;
267 [label="payload-mem-write-fraction <= 0.048\ngini = 0.037\nsamples = 107\nvalue = [105, 2]\nclass = non-parallelizable", fillcolor="#e58139fa"] ;
266 -> 267 ;
268 [label="loop-absolute-size <= 28.5\ngini = 0.245\nsamples = 14\nvalue = [12, 2]\nclass = non-parallelizable", fillcolor="#e58139d4"] ;
267 -> 268 ;
269 [label="(...)", fillcolor="#C0C0C0"] ;
268 -> 269 ;
270 [label="(...)", fillcolor="#C0C0C0"] ;
268 -> 270 ;
271 [label="gini = 0.0\nsamples = 93\nvalue = [93, 0]\nclass = non-parallelizable", fillcolor="#e58139ff"] ;
267 -> 271 ;
272 [label="loop-payload-fraction <= 0.653\ngini = 0.444\nsamples = 3\nvalue = [1, 2]\nclass = parallelizable", fillcolor="#399de57f"] ;
266 -> 272 ;
273 [label="gini = 0.0\nsamples = 1\nvalue = [1, 0]\nclass = non-parallelizable", fillcolor="#e58139ff"] ;
272 -> 273 ;
274 [label="gini = 0.0\nsamples = 2\nvalue = [0, 2]\nclass = parallelizable", fillcolor="#399de5ff"] ;
272 -> 274 ;
}