digraph Tree {
node [shape=box, style="filled, rounded", color="black", fontname=helvetica] ;
edge [fontname=helvetica] ;
0 [label="payload-call-fraction <= 0.031\ngini = 0.458\nsamples = 1349\nvalue = [479, 870]\nclass = parallelizable", fillcolor="#399de573"] ;
1 [label="iterator-payload-non-cf-cohesion <= 0.027\ngini = 0.391\nsamples = 1138\nvalue = [303, 835]\nclass = parallelizable", fillcolor="#399de5a2"] ;
0 -> 1 [labeldistance=2.5, labelangle=45, headlabel="True"] ;
2 [label="critical-payload-total-cohesion <= 0.289\ngini = 0.483\nsamples = 307\nvalue = [182, 125]\nclass = non-parallelizable", fillcolor="#e5813950"] ;
1 -> 2 ;
3 [label="payload-output-dependencies-number <= 1.5\ngini = 0.341\nsamples = 147\nvalue = [115, 32]\nclass = non-parallelizable", fillcolor="#e58139b8"] ;
2 -> 3 ;
4 [label="iterator-payload-total-cohesion <= 0.077\ngini = 0.207\nsamples = 111\nvalue = [98, 13]\nclass = non-parallelizable", fillcolor="#e58139dd"] ;
3 -> 4 ;
5 [label="loop-payload-fraction <= 0.131\ngini = 0.461\nsamples = 25\nvalue = [16, 9]\nclass = non-parallelizable", fillcolor="#e5813970"] ;
4 -> 5 ;
6 [label="(...)", fillcolor="#C0C0C0"] ;
5 -> 6 ;
11 [label="(...)", fillcolor="#C0C0C0"] ;
5 -> 11 ;
16 [label="iterator-payload-total-cohesion <= 0.155\ngini = 0.089\nsamples = 86\nvalue = [82, 4]\nclass = non-parallelizable", fillcolor="#e58139f3"] ;
4 -> 16 ;
17 [label="(...)", fillcolor="#C0C0C0"] ;
16 -> 17 ;
22 [label="(...)", fillcolor="#C0C0C0"] ;
16 -> 22 ;
27 [label="critical-payload-total-cohesion <= 0.116\ngini = 0.498\nsamples = 36\nvalue = [17, 19]\nclass = parallelizable", fillcolor="#399de51b"] ;
3 -> 27 ;
28 [label="payload-mem-write-fraction <= 0.119\ngini = 0.208\nsamples = 17\nvalue = [2, 15]\nclass = parallelizable", fillcolor="#399de5dd"] ;
27 -> 28 ;
29 [label="(...)", fillcolor="#C0C0C0"] ;
28 -> 29 ;
30 [label="(...)", fillcolor="#C0C0C0"] ;
28 -> 30 ;
33 [label="payload-mem-dependencies-number <= 4.0\ngini = 0.332\nsamples = 19\nvalue = [15, 4]\nclass = non-parallelizable", fillcolor="#e58139bb"] ;
27 -> 33 ;
34 [label="(...)", fillcolor="#C0C0C0"] ;
33 -> 34 ;
35 [label="(...)", fillcolor="#C0C0C0"] ;
33 -> 35 ;
40 [label="loop-depth <= 1.5\ngini = 0.487\nsamples = 160\nvalue = [67, 93]\nclass = parallelizable", fillcolor="#399de547"] ;
2 -> 40 ;
41 [label="payload-mem-write-fraction <= 0.011\ngini = 0.032\nsamples = 62\nvalue = [1, 61]\nclass = parallelizable", fillcolor="#399de5fb"] ;
40 -> 41 ;
42 [label="payload-mem-write-fraction <= 0.01\ngini = 0.32\nsamples = 5\nvalue = [1, 4]\nclass = parallelizable", fillcolor="#399de5bf"] ;
41 -> 42 ;
43 [label="(...)", fillcolor="#C0C0C0"] ;
42 -> 43 ;
44 [label="(...)", fillcolor="#C0C0C0"] ;
42 -> 44 ;
45 [label="gini = 0.0\nsamples = 57\nvalue = [0, 57]\nclass = parallelizable", fillcolor="#399de5ff"] ;
41 -> 45 ;
46 [label="payload-mem-dependencies-number <= 3.5\ngini = 0.44\nsamples = 98\nvalue = [66, 32]\nclass = non-parallelizable", fillcolor="#e5813983"] ;
40 -> 46 ;
47 [label="iterator-payload-non-cf-cohesion <= 0.02\ngini = 0.488\nsamples = 52\nvalue = [22, 30]\nclass = parallelizable", fillcolor="#399de544"] ;
46 -> 47 ;
48 [label="(...)", fillcolor="#C0C0C0"] ;
47 -> 48 ;
57 [label="(...)", fillcolor="#C0C0C0"] ;
47 -> 57 ;
66 [label="iterator-payload-non-cf-cohesion <= 0.026\ngini = 0.083\nsamples = 46\nvalue = [44, 2]\nclass = non-parallelizable", fillcolor="#e58139f3"] ;
46 -> 66 ;
67 [label="(...)", fillcolor="#C0C0C0"] ;
66 -> 67 ;
72 [label="(...)", fillcolor="#C0C0C0"] ;
66 -> 72 ;
73 [label="critical-payload-mem-dependencies-number <= 2.5\ngini = 0.249\nsamples = 831\nvalue = [121, 710]\nclass = parallelizable", fillcolor="#399de5d4"] ;
1 -> 73 ;
74 [label="payload-call-fraction <= 0.008\ngini = 0.168\nsamples = 647\nvalue = [60, 587]\nclass = parallelizable", fillcolor="#399de5e5"] ;
73 -> 74 ;
75 [label="loop-payload-fraction <= 0.279\ngini = 0.138\nsamples = 617\nvalue = [46, 571]\nclass = parallelizable", fillcolor="#399de5ea"] ;
74 -> 75 ;
76 [label="gini = 0.0\nsamples = 3\nvalue = [3, 0]\nclass = non-parallelizable", fillcolor="#e58139ff"] ;
75 -> 76 ;
77 [label="critical-payload-reg-dependencies-number <= 23.5\ngini = 0.13\nsamples = 614\nvalue = [43, 571]\nclass = parallelizable", fillcolor="#399de5ec"] ;
75 -> 77 ;
78 [label="(...)", fillcolor="#C0C0C0"] ;
77 -> 78 ;
159 [label="(...)", fillcolor="#C0C0C0"] ;
77 -> 159 ;
160 [label="iterator-payload-non-cf-cohesion <= 0.034\ngini = 0.498\nsamples = 30\nvalue = [14, 16]\nclass = parallelizable", fillcolor="#399de520"] ;
74 -> 160 ;
161 [label="gini = 0.0\nsamples = 13\nvalue = [0, 13]\nclass = parallelizable", fillcolor="#399de5ff"] ;
160 -> 161 ;
162 [label="critical-payload-total-cohesion <= 0.182\ngini = 0.291\nsamples = 17\nvalue = [14, 3]\nclass = non-parallelizable", fillcolor="#e58139c8"] ;
160 -> 162 ;
163 [label="(...)", fillcolor="#C0C0C0"] ;
162 -> 163 ;
164 [label="(...)", fillcolor="#C0C0C0"] ;
162 -> 164 ;
167 [label="iterator-payload-non-cf-cohesion <= 0.034\ngini = 0.443\nsamples = 184\nvalue = [61, 123]\nclass = parallelizable", fillcolor="#399de581"] ;
73 -> 167 ;
168 [label="loop-inner-loop-num <= 9.5\ngini = 0.464\nsamples = 52\nvalue = [33, 19]\nclass = non-parallelizable", fillcolor="#e581396c"] ;
167 -> 168 ;
169 [label="iterator-payload-non-cf-cohesion <= 0.028\ngini = 0.405\nsamples = 46\nvalue = [33, 13]\nclass = non-parallelizable", fillcolor="#e581399b"] ;
168 -> 169 ;
170 [label="(...)", fillcolor="#C0C0C0"] ;
169 -> 170 ;
173 [label="(...)", fillcolor="#C0C0C0"] ;
169 -> 173 ;
184 [label="gini = 0.0\nsamples = 6\nvalue = [0, 6]\nclass = parallelizable", fillcolor="#399de5ff"] ;
168 -> 184 ;
185 [label="loop-payload-fraction <= 0.896\ngini = 0.334\nsamples = 132\nvalue = [28, 104]\nclass = parallelizable", fillcolor="#399de5ba"] ;
167 -> 185 ;
186 [label="critical-payload-non-cf-cohesion <= 0.177\ngini = 0.26\nsamples = 13\nvalue = [11, 2]\nclass = non-parallelizable", fillcolor="#e58139d1"] ;
185 -> 186 ;
187 [label="(...)", fillcolor="#C0C0C0"] ;
186 -> 187 ;
188 [label="(...)", fillcolor="#C0C0C0"] ;
186 -> 188 ;
191 [label="critical-payload-mem-write-fraction <= 0.06\ngini = 0.245\nsamples = 119\nvalue = [17, 102]\nclass = parallelizable", fillcolor="#399de5d4"] ;
185 -> 191 ;
192 [label="(...)", fillcolor="#C0C0C0"] ;
191 -> 192 ;
197 [label="(...)", fillcolor="#C0C0C0"] ;
191 -> 197 ;
214 [label="critical-payload-reg-dependencies-number <= 21.0\ngini = 0.277\nsamples = 211\nvalue = [176, 35]\nclass = non-parallelizable", fillcolor="#e58139cc"] ;
0 -> 214 [labeldistance=2.5, labelangle=-45, headlabel="False"] ;
215 [label="iterator-payload-total-cohesion <= 0.522\ngini = 0.23\nsamples = 196\nvalue = [170, 26]\nclass = non-parallelizable", fillcolor="#e58139d8"] ;
214 -> 215 ;
216 [label="loop-critical-payload-fraction <= 0.356\ngini = 0.205\nsamples = 190\nvalue = [168, 22]\nclass = non-parallelizable", fillcolor="#e58139de"] ;
215 -> 216 ;
217 [label="payload-mem-write-fraction <= 0.034\ngini = 0.183\nsamples = 186\nvalue = [167, 19]\nclass = non-parallelizable", fillcolor="#e58139e2"] ;
216 -> 217 ;
218 [label="gini = 0.0\nsamples = 2\nvalue = [0, 2]\nclass = parallelizable", fillcolor="#399de5ff"] ;
217 -> 218 ;
219 [label="critical-payload-total-cohesion <= 0.462\ngini = 0.168\nsamples = 184\nvalue = [167, 17]\nclass = non-parallelizable", fillcolor="#e58139e5"] ;
217 -> 219 ;
220 [label="(...)", fillcolor="#C0C0C0"] ;
219 -> 220 ;
251 [label="(...)", fillcolor="#C0C0C0"] ;
219 -> 251 ;
254 [label="loop-payload-fraction <= 0.684\ngini = 0.375\nsamples = 4\nvalue = [1, 3]\nclass = parallelizable", fillcolor="#399de5aa"] ;
216 -> 254 ;
255 [label="gini = 0.0\nsamples = 1\nvalue = [1, 0]\nclass = non-parallelizable", fillcolor="#e58139ff"] ;
254 -> 255 ;
256 [label="gini = 0.0\nsamples = 3\nvalue = [0, 3]\nclass = parallelizable", fillcolor="#399de5ff"] ;
254 -> 256 ;
257 [label="iterator-payload-non-cf-cohesion <= 0.102\ngini = 0.444\nsamples = 6\nvalue = [2, 4]\nclass = parallelizable", fillcolor="#399de57f"] ;
215 -> 257 ;
258 [label="gini = 0.0\nsamples = 2\nvalue = [2, 0]\nclass = non-parallelizable", fillcolor="#e58139ff"] ;
257 -> 258 ;
259 [label="gini = 0.0\nsamples = 4\nvalue = [0, 4]\nclass = parallelizable", fillcolor="#399de5ff"] ;
257 -> 259 ;
260 [label="loop-depth <= 1.5\ngini = 0.48\nsamples = 15\nvalue = [6, 9]\nclass = parallelizable", fillcolor="#399de555"] ;
214 -> 260 ;
261 [label="payload-call-count <= 22.0\ngini = 0.18\nsamples = 10\nvalue = [1, 9]\nclass = parallelizable", fillcolor="#399de5e3"] ;
260 -> 261 ;
262 [label="gini = 0.0\nsamples = 9\nvalue = [0, 9]\nclass = parallelizable", fillcolor="#399de5ff"] ;
261 -> 262 ;
263 [label="gini = 0.0\nsamples = 1\nvalue = [1, 0]\nclass = non-parallelizable", fillcolor="#e58139ff"] ;
261 -> 263 ;
264 [label="gini = 0.0\nsamples = 5\nvalue = [5, 0]\nclass = non-parallelizable", fillcolor="#e58139ff"] ;
260 -> 264 ;
}