digraph Tree {
node [shape=box, style="filled, rounded", color="black", fontname=helvetica] ;
edge [fontname=helvetica] ;
0 [label="payload-call-fraction <= 0.031\ngini = 0.455\nsamples = 1349\nvalue = [473, 876]\nclass = parallelizable", fillcolor="#399de575"] ;
1 [label="iterator-payload-non-cf-cohesion <= 0.026\ngini = 0.385\nsamples = 1136\nvalue = [296, 840]\nclass = parallelizable", fillcolor="#399de5a5"] ;
0 -> 1 [labeldistance=2.5, labelangle=45, headlabel="True"] ;
2 [label="critical-payload-total-cohesion <= 0.289\ngini = 0.484\nsamples = 298\nvalue = [176, 122]\nclass = non-parallelizable", fillcolor="#e581394e"] ;
1 -> 2 ;
3 [label="payload-output-dependencies-number <= 1.5\ngini = 0.341\nsamples = 142\nvalue = [111, 31]\nclass = non-parallelizable", fillcolor="#e58139b8"] ;
2 -> 3 ;
4 [label="iterator-payload-total-cohesion <= 0.077\ngini = 0.213\nsamples = 107\nvalue = [94, 13]\nclass = non-parallelizable", fillcolor="#e58139dc"] ;
3 -> 4 ;
5 [label="loop-payload-fraction <= 0.131\ngini = 0.466\nsamples = 27\nvalue = [17, 10]\nclass = non-parallelizable", fillcolor="#e5813969"] ;
4 -> 5 ;
6 [label="(...)", fillcolor="#C0C0C0"] ;
5 -> 6 ;
13 [label="(...)", fillcolor="#C0C0C0"] ;
5 -> 13 ;
18 [label="iterator-payload-total-cohesion <= 0.155\ngini = 0.072\nsamples = 80\nvalue = [77, 3]\nclass = non-parallelizable", fillcolor="#e58139f5"] ;
4 -> 18 ;
19 [label="(...)", fillcolor="#C0C0C0"] ;
18 -> 19 ;
24 [label="(...)", fillcolor="#C0C0C0"] ;
18 -> 24 ;
29 [label="critical-payload-total-cohesion <= 0.116\ngini = 0.5\nsamples = 35\nvalue = [17, 18]\nclass = parallelizable", fillcolor="#399de50e"] ;
3 -> 29 ;
30 [label="payload-mem-write-fraction <= 0.119\ngini = 0.219\nsamples = 16\nvalue = [2, 14]\nclass = parallelizable", fillcolor="#399de5db"] ;
29 -> 30 ;
31 [label="(...)", fillcolor="#C0C0C0"] ;
30 -> 31 ;
32 [label="(...)", fillcolor="#C0C0C0"] ;
30 -> 32 ;
35 [label="payload-mem-dependencies-number <= 4.0\ngini = 0.332\nsamples = 19\nvalue = [15, 4]\nclass = non-parallelizable", fillcolor="#e58139bb"] ;
29 -> 35 ;
36 [label="(...)", fillcolor="#C0C0C0"] ;
35 -> 36 ;
37 [label="(...)", fillcolor="#C0C0C0"] ;
35 -> 37 ;
42 [label="loop-depth <= 1.5\ngini = 0.486\nsamples = 156\nvalue = [65, 91]\nclass = parallelizable", fillcolor="#399de549"] ;
2 -> 42 ;
43 [label="payload-mem-write-fraction <= 0.011\ngini = 0.03\nsamples = 65\nvalue = [1, 64]\nclass = parallelizable", fillcolor="#399de5fb"] ;
42 -> 43 ;
44 [label="payload-mem-write-fraction <= 0.01\ngini = 0.32\nsamples = 5\nvalue = [1, 4]\nclass = parallelizable", fillcolor="#399de5bf"] ;
43 -> 44 ;
45 [label="(...)", fillcolor="#C0C0C0"] ;
44 -> 45 ;
46 [label="(...)", fillcolor="#C0C0C0"] ;
44 -> 46 ;
47 [label="gini = 0.0\nsamples = 60\nvalue = [0, 60]\nclass = parallelizable", fillcolor="#399de5ff"] ;
43 -> 47 ;
48 [label="payload-mem-dependencies-number <= 3.5\ngini = 0.417\nsamples = 91\nvalue = [64, 27]\nclass = non-parallelizable", fillcolor="#e5813993"] ;
42 -> 48 ;
49 [label="critical-payload-total-cohesion <= 0.434\ngini = 0.494\nsamples = 47\nvalue = [21, 26]\nclass = parallelizable", fillcolor="#399de531"] ;
48 -> 49 ;
50 [label="(...)", fillcolor="#C0C0C0"] ;
49 -> 50 ;
61 [label="(...)", fillcolor="#C0C0C0"] ;
49 -> 61 ;
64 [label="critical-payload-mem-dependencies-number <= 1.0\ngini = 0.044\nsamples = 44\nvalue = [43, 1]\nclass = non-parallelizable", fillcolor="#e58139f9"] ;
48 -> 64 ;
65 [label="(...)", fillcolor="#C0C0C0"] ;
64 -> 65 ;
68 [label="(...)", fillcolor="#C0C0C0"] ;
64 -> 68 ;
69 [label="loop-critical-payload-fraction <= 0.222\ngini = 0.245\nsamples = 838\nvalue = [120, 718]\nclass = parallelizable", fillcolor="#399de5d4"] ;
1 -> 69 ;
70 [label="payload-call-fraction <= 0.008\ngini = 0.189\nsamples = 721\nvalue = [76, 645]\nclass = parallelizable", fillcolor="#399de5e1"] ;
69 -> 70 ;
71 [label="iterator-payload-non-cf-cohesion <= 0.034\ngini = 0.16\nsamples = 686\nvalue = [60, 626]\nclass = parallelizable", fillcolor="#399de5e7"] ;
70 -> 71 ;
72 [label="iterator-payload-total-cohesion <= 0.446\ngini = 0.394\nsamples = 100\nvalue = [27, 73]\nclass = parallelizable", fillcolor="#399de5a1"] ;
71 -> 72 ;
73 [label="(...)", fillcolor="#C0C0C0"] ;
72 -> 73 ;
92 [label="(...)", fillcolor="#C0C0C0"] ;
72 -> 92 ;
105 [label="loop-payload-fraction <= 0.279\ngini = 0.106\nsamples = 586\nvalue = [33, 553]\nclass = parallelizable", fillcolor="#399de5f0"] ;
71 -> 105 ;
106 [label="(...)", fillcolor="#C0C0C0"] ;
105 -> 106 ;
107 [label="(...)", fillcolor="#C0C0C0"] ;
105 -> 107 ;
182 [label="iterator-payload-non-cf-cohesion <= 0.034\ngini = 0.496\nsamples = 35\nvalue = [16, 19]\nclass = parallelizable", fillcolor="#399de528"] ;
70 -> 182 ;
183 [label="gini = 0.0\nsamples = 16\nvalue = [0, 16]\nclass = parallelizable", fillcolor="#399de5ff"] ;
182 -> 183 ;
184 [label="payload-true-dependencies-number <= 31.0\ngini = 0.266\nsamples = 19\nvalue = [16, 3]\nclass = non-parallelizable", fillcolor="#e58139cf"] ;
182 -> 184 ;
185 [label="(...)", fillcolor="#C0C0C0"] ;
184 -> 185 ;
186 [label="(...)", fillcolor="#C0C0C0"] ;
184 -> 186 ;
189 [label="critical-payload-mem-dependencies-number <= 2.5\ngini = 0.469\nsamples = 117\nvalue = [44, 73]\nclass = parallelizable", fillcolor="#399de565"] ;
69 -> 189 ;
190 [label="critical-payload-total-cohesion <= 0.161\ngini = 0.266\nsamples = 57\nvalue = [9, 48]\nclass = parallelizable", fillcolor="#399de5cf"] ;
189 -> 190 ;
191 [label="gini = 0.0\nsamples = 3\nvalue = [3, 0]\nclass = non-parallelizable", fillcolor="#e58139ff"] ;
190 -> 191 ;
192 [label="critical-payload-true-dependencies-number <= 1.5\ngini = 0.198\nsamples = 54\nvalue = [6, 48]\nclass = parallelizable", fillcolor="#399de5df"] ;
190 -> 192 ;
193 [label="(...)", fillcolor="#C0C0C0"] ;
192 -> 193 ;
194 [label="(...)", fillcolor="#C0C0C0"] ;
192 -> 194 ;
207 [label="critical-payload-mem-write-fraction <= 0.121\ngini = 0.486\nsamples = 60\nvalue = [35, 25]\nclass = non-parallelizable", fillcolor="#e5813949"] ;
189 -> 207 ;
208 [label="iterator-payload-total-cohesion <= 0.215\ngini = 0.255\nsamples = 20\nvalue = [17, 3]\nclass = non-parallelizable", fillcolor="#e58139d2"] ;
207 -> 208 ;
209 [label="(...)", fillcolor="#C0C0C0"] ;
208 -> 209 ;
214 [label="(...)", fillcolor="#C0C0C0"] ;
208 -> 214 ;
217 [label="payload-mem-write-fraction <= 0.087\ngini = 0.495\nsamples = 40\nvalue = [18, 22]\nclass = parallelizable", fillcolor="#399de52e"] ;
207 -> 217 ;
218 [label="(...)", fillcolor="#C0C0C0"] ;
217 -> 218 ;
229 [label="(...)", fillcolor="#C0C0C0"] ;
217 -> 229 ;
230 [label="critical-payload-reg-dependencies-number <= 21.0\ngini = 0.281\nsamples = 213\nvalue = [177, 36]\nclass = non-parallelizable", fillcolor="#e58139cb"] ;
0 -> 230 [labeldistance=2.5, labelangle=-45, headlabel="False"] ;
231 [label="iterator-payload-total-cohesion <= 0.522\ngini = 0.228\nsamples = 198\nvalue = [172, 26]\nclass = non-parallelizable", fillcolor="#e58139d8"] ;
230 -> 231 ;
232 [label="loop-critical-payload-fraction <= 0.356\ngini = 0.202\nsamples = 193\nvalue = [171, 22]\nclass = non-parallelizable", fillcolor="#e58139de"] ;
231 -> 232 ;
233 [label="payload-mem-write-fraction <= 0.034\ngini = 0.173\nsamples = 188\nvalue = [170, 18]\nclass = non-parallelizable", fillcolor="#e58139e4"] ;
232 -> 233 ;
234 [label="gini = 0.0\nsamples = 2\nvalue = [0, 2]\nclass = parallelizable", fillcolor="#399de5ff"] ;
233 -> 234 ;
235 [label="critical-payload-total-cohesion <= 0.462\ngini = 0.157\nsamples = 186\nvalue = [170, 16]\nclass = non-parallelizable", fillcolor="#e58139e7"] ;
233 -> 235 ;
236 [label="(...)", fillcolor="#C0C0C0"] ;
235 -> 236 ;
259 [label="(...)", fillcolor="#C0C0C0"] ;
235 -> 259 ;
262 [label="critical-payload-mem-write-fraction <= 0.083\ngini = 0.32\nsamples = 5\nvalue = [1, 4]\nclass = parallelizable", fillcolor="#399de5bf"] ;
232 -> 262 ;
263 [label="gini = 0.0\nsamples = 1\nvalue = [1, 0]\nclass = non-parallelizable", fillcolor="#e58139ff"] ;
262 -> 263 ;
264 [label="gini = 0.0\nsamples = 4\nvalue = [0, 4]\nclass = parallelizable", fillcolor="#399de5ff"] ;
262 -> 264 ;
265 [label="iterator-payload-non-cf-cohesion <= 0.102\ngini = 0.32\nsamples = 5\nvalue = [1, 4]\nclass = parallelizable", fillcolor="#399de5bf"] ;
231 -> 265 ;
266 [label="gini = 0.0\nsamples = 1\nvalue = [1, 0]\nclass = non-parallelizable", fillcolor="#e58139ff"] ;
265 -> 266 ;
267 [label="gini = 0.0\nsamples = 4\nvalue = [0, 4]\nclass = parallelizable", fillcolor="#399de5ff"] ;
265 -> 267 ;
268 [label="loop-depth <= 1.5\ngini = 0.444\nsamples = 15\nvalue = [5, 10]\nclass = parallelizable", fillcolor="#399de57f"] ;
230 -> 268 ;
269 [label="payload-call-count <= 22.0\ngini = 0.165\nsamples = 11\nvalue = [1, 10]\nclass = parallelizable", fillcolor="#399de5e6"] ;
268 -> 269 ;
270 [label="gini = 0.0\nsamples = 10\nvalue = [0, 10]\nclass = parallelizable", fillcolor="#399de5ff"] ;
269 -> 270 ;
271 [label="gini = 0.0\nsamples = 1\nvalue = [1, 0]\nclass = non-parallelizable", fillcolor="#e58139ff"] ;
269 -> 271 ;
272 [label="gini = 0.0\nsamples = 4\nvalue = [4, 0]\nclass = non-parallelizable", fillcolor="#e58139ff"] ;
268 -> 272 ;
}