digraph Tree {
node [shape=box, style="filled, rounded", color="black", fontname=helvetica] ;
edge [fontname=helvetica] ;
0 [label="payload-call-fraction <= 0.031\ngini = 0.46\nsamples = 1349\nvalue = [483, 866]\nclass = parallelizable", fillcolor="#399de571"] ;
1 [label="iterator-payload-non-cf-cohesion <= 0.027\ngini = 0.391\nsamples = 1132\nvalue = [302, 830]\nclass = parallelizable", fillcolor="#399de5a2"] ;
0 -> 1 [labeldistance=2.5, labelangle=45, headlabel="True"] ;
2 [label="critical-payload-total-cohesion <= 0.28\ngini = 0.483\nsamples = 305\nvalue = [181, 124]\nclass = non-parallelizable", fillcolor="#e5813950"] ;
1 -> 2 ;
3 [label="payload-output-dependencies-number <= 1.5\ngini = 0.337\nsamples = 140\nvalue = [110, 30]\nclass = non-parallelizable", fillcolor="#e58139b9"] ;
2 -> 3 ;
4 [label="iterator-payload-total-cohesion <= 0.077\ngini = 0.213\nsamples = 107\nvalue = [94, 13]\nclass = non-parallelizable", fillcolor="#e58139dc"] ;
3 -> 4 ;
5 [label="loop-payload-fraction <= 0.132\ngini = 0.469\nsamples = 24\nvalue = [15, 9]\nclass = non-parallelizable", fillcolor="#e5813966"] ;
4 -> 5 ;
6 [label="(...)", fillcolor="#C0C0C0"] ;
5 -> 6 ;
13 [label="(...)", fillcolor="#C0C0C0"] ;
5 -> 13 ;
18 [label="iterator-payload-total-cohesion <= 0.155\ngini = 0.092\nsamples = 83\nvalue = [79, 4]\nclass = non-parallelizable", fillcolor="#e58139f2"] ;
4 -> 18 ;
19 [label="(...)", fillcolor="#C0C0C0"] ;
18 -> 19 ;
24 [label="(...)", fillcolor="#C0C0C0"] ;
18 -> 24 ;
29 [label="critical-payload-total-cohesion <= 0.116\ngini = 0.5\nsamples = 33\nvalue = [16, 17]\nclass = parallelizable", fillcolor="#399de50f"] ;
3 -> 29 ;
30 [label="payload-mem-write-fraction <= 0.119\ngini = 0.208\nsamples = 17\nvalue = [2, 15]\nclass = parallelizable", fillcolor="#399de5dd"] ;
29 -> 30 ;
31 [label="(...)", fillcolor="#C0C0C0"] ;
30 -> 31 ;
32 [label="(...)", fillcolor="#C0C0C0"] ;
30 -> 32 ;
35 [label="payload-mem-dependencies-number <= 4.0\ngini = 0.219\nsamples = 16\nvalue = [14, 2]\nclass = non-parallelizable", fillcolor="#e58139db"] ;
29 -> 35 ;
36 [label="(...)", fillcolor="#C0C0C0"] ;
35 -> 36 ;
37 [label="(...)", fillcolor="#C0C0C0"] ;
35 -> 37 ;
38 [label="loop-depth <= 1.5\ngini = 0.49\nsamples = 165\nvalue = [71, 94]\nclass = parallelizable", fillcolor="#399de53e"] ;
2 -> 38 ;
39 [label="iterator-payload-total-cohesion <= 0.156\ngini = 0.03\nsamples = 66\nvalue = [1, 65]\nclass = parallelizable", fillcolor="#399de5fb"] ;
38 -> 39 ;
40 [label="gini = 0.0\nsamples = 65\nvalue = [0, 65]\nclass = parallelizable", fillcolor="#399de5ff"] ;
39 -> 40 ;
41 [label="gini = 0.0\nsamples = 1\nvalue = [1, 0]\nclass = non-parallelizable", fillcolor="#e58139ff"] ;
39 -> 41 ;
42 [label="payload-mem-dependencies-number <= 3.5\ngini = 0.414\nsamples = 99\nvalue = [70, 29]\nclass = non-parallelizable", fillcolor="#e5813995"] ;
38 -> 42 ;
43 [label="iterator-payload-non-cf-cohesion <= 0.02\ngini = 0.497\nsamples = 50\nvalue = [23, 27]\nclass = parallelizable", fillcolor="#399de526"] ;
42 -> 43 ;
44 [label="(...)", fillcolor="#C0C0C0"] ;
43 -> 44 ;
53 [label="(...)", fillcolor="#C0C0C0"] ;
43 -> 53 ;
64 [label="iterator-payload-non-cf-cohesion <= 0.026\ngini = 0.078\nsamples = 49\nvalue = [47, 2]\nclass = non-parallelizable", fillcolor="#e58139f4"] ;
42 -> 64 ;
65 [label="(...)", fillcolor="#C0C0C0"] ;
64 -> 65 ;
70 [label="(...)", fillcolor="#C0C0C0"] ;
64 -> 70 ;
71 [label="critical-payload-mem-dependencies-number <= 2.5\ngini = 0.25\nsamples = 827\nvalue = [121, 706]\nclass = parallelizable", fillcolor="#399de5d3"] ;
1 -> 71 ;
72 [label="payload-call-fraction <= 0.008\ngini = 0.176\nsamples = 646\nvalue = [63, 583]\nclass = parallelizable", fillcolor="#399de5e3"] ;
71 -> 72 ;
73 [label="loop-payload-fraction <= 0.279\ngini = 0.146\nsamples = 617\nvalue = [49, 568]\nclass = parallelizable", fillcolor="#399de5e9"] ;
72 -> 73 ;
74 [label="gini = 0.0\nsamples = 3\nvalue = [3, 0]\nclass = non-parallelizable", fillcolor="#e58139ff"] ;
73 -> 74 ;
75 [label="critical-payload-reg-dependencies-number <= 23.5\ngini = 0.139\nsamples = 614\nvalue = [46, 568]\nclass = parallelizable", fillcolor="#399de5ea"] ;
73 -> 75 ;
76 [label="(...)", fillcolor="#C0C0C0"] ;
75 -> 76 ;
173 [label="(...)", fillcolor="#C0C0C0"] ;
75 -> 173 ;
174 [label="iterator-payload-non-cf-cohesion <= 0.034\ngini = 0.499\nsamples = 29\nvalue = [14, 15]\nclass = parallelizable", fillcolor="#399de511"] ;
72 -> 174 ;
175 [label="gini = 0.0\nsamples = 12\nvalue = [0, 12]\nclass = parallelizable", fillcolor="#399de5ff"] ;
174 -> 175 ;
176 [label="loop-depth <= 1.5\ngini = 0.291\nsamples = 17\nvalue = [14, 3]\nclass = non-parallelizable", fillcolor="#e58139c8"] ;
174 -> 176 ;
177 [label="(...)", fillcolor="#C0C0C0"] ;
176 -> 177 ;
180 [label="(...)", fillcolor="#C0C0C0"] ;
176 -> 180 ;
181 [label="critical-payload-mem-write-fraction <= 0.102\ngini = 0.436\nsamples = 181\nvalue = [58, 123]\nclass = parallelizable", fillcolor="#399de587"] ;
71 -> 181 ;
182 [label="loop-critical-payload-fraction <= 0.094\ngini = 0.418\nsamples = 37\nvalue = [26, 11]\nclass = non-parallelizable", fillcolor="#e5813993"] ;
181 -> 182 ;
183 [label="gini = 0.0\nsamples = 5\nvalue = [0, 5]\nclass = parallelizable", fillcolor="#399de5ff"] ;
182 -> 183 ;
184 [label="loop-depth <= 1.5\ngini = 0.305\nsamples = 32\nvalue = [26, 6]\nclass = non-parallelizable", fillcolor="#e58139c4"] ;
182 -> 184 ;
185 [label="(...)", fillcolor="#C0C0C0"] ;
184 -> 185 ;
194 [label="(...)", fillcolor="#C0C0C0"] ;
184 -> 194 ;
195 [label="payload-reg-dependencies-number <= 31.5\ngini = 0.346\nsamples = 144\nvalue = [32, 112]\nclass = parallelizable", fillcolor="#399de5b6"] ;
181 -> 195 ;
196 [label="iterator-payload-non-cf-cohesion <= 0.029\ngini = 0.466\nsamples = 27\nvalue = [17, 10]\nclass = non-parallelizable", fillcolor="#e5813969"] ;
195 -> 196 ;
197 [label="(...)", fillcolor="#C0C0C0"] ;
196 -> 197 ;
198 [label="(...)", fillcolor="#C0C0C0"] ;
196 -> 198 ;
209 [label="critical-payload-cross-dependencies-number <= 0.5\ngini = 0.224\nsamples = 117\nvalue = [15, 102]\nclass = parallelizable", fillcolor="#399de5da"] ;
195 -> 209 ;
210 [label="(...)", fillcolor="#C0C0C0"] ;
209 -> 210 ;
219 [label="(...)", fillcolor="#C0C0C0"] ;
209 -> 219 ;
224 [label="loop-depth <= 1.5\ngini = 0.277\nsamples = 217\nvalue = [181, 36]\nclass = non-parallelizable", fillcolor="#e58139cc"] ;
0 -> 224 [labeldistance=2.5, labelangle=-45, headlabel="False"] ;
225 [label="payload-call-fraction <= 0.066\ngini = 0.415\nsamples = 102\nvalue = [72, 30]\nclass = non-parallelizable", fillcolor="#e5813995"] ;
224 -> 225 ;
226 [label="payload-call-fraction <= 0.034\ngini = 0.42\nsamples = 30\nvalue = [9, 21]\nclass = parallelizable", fillcolor="#399de592"] ;
225 -> 226 ;
227 [label="gini = 0.0\nsamples = 3\nvalue = [3, 0]\nclass = non-parallelizable", fillcolor="#e58139ff"] ;
226 -> 227 ;
228 [label="iterator-mem-write-fraction <= 0.042\ngini = 0.346\nsamples = 27\nvalue = [6, 21]\nclass = parallelizable", fillcolor="#399de5b6"] ;
226 -> 228 ;
229 [label="iterator-payload-total-cohesion <= 0.528\ngini = 0.269\nsamples = 25\nvalue = [4, 21]\nclass = parallelizable", fillcolor="#399de5ce"] ;
228 -> 229 ;
230 [label="(...)", fillcolor="#C0C0C0"] ;
229 -> 230 ;
237 [label="(...)", fillcolor="#C0C0C0"] ;
229 -> 237 ;
238 [label="gini = 0.0\nsamples = 2\nvalue = [2, 0]\nclass = non-parallelizable", fillcolor="#e58139ff"] ;
228 -> 238 ;
239 [label="payload-reg-dependencies-number <= 60.0\ngini = 0.219\nsamples = 72\nvalue = [63, 9]\nclass = non-parallelizable", fillcolor="#e58139db"] ;
225 -> 239 ;
240 [label="critical-payload-total-cohesion <= 0.288\ngini = 0.088\nsamples = 65\nvalue = [62, 3]\nclass = non-parallelizable", fillcolor="#e58139f3"] ;
239 -> 240 ;
241 [label="iterator-payload-total-cohesion <= 0.374\ngini = 0.034\nsamples = 58\nvalue = [57, 1]\nclass = non-parallelizable", fillcolor="#e58139fb"] ;
240 -> 241 ;
242 [label="(...)", fillcolor="#C0C0C0"] ;
241 -> 242 ;
243 [label="(...)", fillcolor="#C0C0C0"] ;
241 -> 243 ;
246 [label="payload-total-dependencies-number <= 46.0\ngini = 0.408\nsamples = 7\nvalue = [5, 2]\nclass = non-parallelizable", fillcolor="#e5813999"] ;
240 -> 246 ;
247 [label="(...)", fillcolor="#C0C0C0"] ;
246 -> 247 ;
248 [label="(...)", fillcolor="#C0C0C0"] ;
246 -> 248 ;
249 [label="critical-payload-true-dependencies-number <= 47.0\ngini = 0.245\nsamples = 7\nvalue = [1, 6]\nclass = parallelizable", fillcolor="#399de5d4"] ;
239 -> 249 ;
250 [label="gini = 0.0\nsamples = 6\nvalue = [0, 6]\nclass = parallelizable", fillcolor="#399de5ff"] ;
249 -> 250 ;
251 [label="gini = 0.0\nsamples = 1\nvalue = [1, 0]\nclass = non-parallelizable", fillcolor="#e58139ff"] ;
249 -> 251 ;
252 [label="payload-mem-write-fraction <= 0.034\ngini = 0.099\nsamples = 115\nvalue = [109, 6]\nclass = non-parallelizable", fillcolor="#e58139f1"] ;
224 -> 252 ;
253 [label="gini = 0.0\nsamples = 2\nvalue = [0, 2]\nclass = parallelizable", fillcolor="#399de5ff"] ;
252 -> 253 ;
254 [label="iterator-payload-non-cf-cohesion <= 0.088\ngini = 0.068\nsamples = 113\nvalue = [109, 4]\nclass = non-parallelizable", fillcolor="#e58139f6"] ;
252 -> 254 ;
255 [label="payload-mem-write-fraction <= 0.048\ngini = 0.036\nsamples = 110\nvalue = [108, 2]\nclass = non-parallelizable", fillcolor="#e58139fa"] ;
254 -> 255 ;
256 [label="iterator-payload-total-cohesion <= 0.149\ngini = 0.245\nsamples = 14\nvalue = [12, 2]\nclass = non-parallelizable", fillcolor="#e58139d4"] ;
255 -> 256 ;
257 [label="(...)", fillcolor="#C0C0C0"] ;
256 -> 257 ;
258 [label="(...)", fillcolor="#C0C0C0"] ;
256 -> 258 ;
259 [label="gini = 0.0\nsamples = 96\nvalue = [96, 0]\nclass = non-parallelizable", fillcolor="#e58139ff"] ;
255 -> 259 ;
260 [label="loop-payload-fraction <= 0.653\ngini = 0.444\nsamples = 3\nvalue = [1, 2]\nclass = parallelizable", fillcolor="#399de57f"] ;
254 -> 260 ;
261 [label="gini = 0.0\nsamples = 1\nvalue = [1, 0]\nclass = non-parallelizable", fillcolor="#e58139ff"] ;
260 -> 261 ;
262 [label="gini = 0.0\nsamples = 2\nvalue = [0, 2]\nclass = parallelizable", fillcolor="#399de5ff"] ;
260 -> 262 ;
}