digraph Tree {
node [shape=box, style="filled, rounded", color="black", fontname=helvetica] ;
edge [fontname=helvetica] ;
0 [label="payload-call-fraction <= 0.031\ngini = 0.457\nsamples = 1349\nvalue = [476, 873]\nclass = parallelizable", fillcolor="#399de574"] ;
1 [label="iterator-payload-non-cf-cohesion <= 0.027\ngini = 0.386\nsamples = 1131\nvalue = [296, 835]\nclass = parallelizable", fillcolor="#399de5a5"] ;
0 -> 1 [labeldistance=2.5, labelangle=45, headlabel="True"] ;
2 [label="critical-payload-total-cohesion <= 0.289\ngini = 0.486\nsamples = 302\nvalue = [176, 126]\nclass = non-parallelizable", fillcolor="#e5813948"] ;
1 -> 2 ;
3 [label="payload-output-dependencies-number <= 1.5\ngini = 0.341\nsamples = 142\nvalue = [111, 31]\nclass = non-parallelizable", fillcolor="#e58139b8"] ;
2 -> 3 ;
4 [label="(...)", fillcolor="#C0C0C0"] ;
3 -> 4 ;
29 [label="(...)", fillcolor="#C0C0C0"] ;
3 -> 29 ;
40 [label="loop-depth <= 1.5\ngini = 0.482\nsamples = 160\nvalue = [65, 95]\nclass = parallelizable", fillcolor="#399de551"] ;
2 -> 40 ;
41 [label="(...)", fillcolor="#C0C0C0"] ;
40 -> 41 ;
46 [label="(...)", fillcolor="#C0C0C0"] ;
40 -> 46 ;
71 [label="loop-critical-payload-fraction <= 0.221\ngini = 0.248\nsamples = 829\nvalue = [120, 709]\nclass = parallelizable", fillcolor="#399de5d4"] ;
1 -> 71 ;
72 [label="payload-call-fraction <= 0.008\ngini = 0.189\nsamples = 711\nvalue = [75, 636]\nclass = parallelizable", fillcolor="#399de5e1"] ;
71 -> 72 ;
73 [label="(...)", fillcolor="#C0C0C0"] ;
72 -> 73 ;
182 [label="(...)", fillcolor="#C0C0C0"] ;
72 -> 182 ;
189 [label="critical-payload-mem-dependencies-number <= 2.5\ngini = 0.472\nsamples = 118\nvalue = [45, 73]\nclass = parallelizable", fillcolor="#399de562"] ;
71 -> 189 ;
190 [label="(...)", fillcolor="#C0C0C0"] ;
189 -> 190 ;
209 [label="(...)", fillcolor="#C0C0C0"] ;
189 -> 209 ;
234 [label="loop-depth <= 1.5\ngini = 0.288\nsamples = 218\nvalue = [180, 38]\nclass = non-parallelizable", fillcolor="#e58139c9"] ;
0 -> 234 [labeldistance=2.5, labelangle=-45, headlabel="False"] ;
235 [label="payload-call-fraction <= 0.066\ngini = 0.424\nsamples = 105\nvalue = [73, 32]\nclass = non-parallelizable", fillcolor="#e581398f"] ;
234 -> 235 ;
236 [label="payload-mem-write-fraction <= 0.141\ngini = 0.412\nsamples = 31\nvalue = [9, 22]\nclass = parallelizable", fillcolor="#399de597"] ;
235 -> 236 ;
237 [label="(...)", fillcolor="#C0C0C0"] ;
236 -> 237 ;
246 [label="(...)", fillcolor="#C0C0C0"] ;
236 -> 246 ;
247 [label="payload-reg-dependencies-number <= 58.5\ngini = 0.234\nsamples = 74\nvalue = [64, 10]\nclass = non-parallelizable", fillcolor="#e58139d7"] ;
235 -> 247 ;
248 [label="(...)", fillcolor="#C0C0C0"] ;
247 -> 248 ;
265 [label="(...)", fillcolor="#C0C0C0"] ;
247 -> 265 ;
268 [label="payload-mem-write-fraction <= 0.034\ngini = 0.101\nsamples = 113\nvalue = [107, 6]\nclass = non-parallelizable", fillcolor="#e58139f1"] ;
234 -> 268 ;
269 [label="gini = 0.0\nsamples = 2\nvalue = [0, 2]\nclass = parallelizable", fillcolor="#399de5ff"] ;
268 -> 269 ;
270 [label="iterator-payload-non-cf-cohesion <= 0.088\ngini = 0.069\nsamples = 111\nvalue = [107, 4]\nclass = non-parallelizable", fillcolor="#e58139f5"] ;
268 -> 270 ;
271 [label="(...)", fillcolor="#C0C0C0"] ;
270 -> 271 ;
276 [label="(...)", fillcolor="#C0C0C0"] ;
270 -> 276 ;
}