digraph Tree {
node [shape=box, style="filled, rounded", color="black", fontname=helvetica] ;
edge [fontname=helvetica] ;
0 [label="payload-call-fraction <= 0.028\ngini = 0.458\nsamples = 1349\nvalue = [480, 869]\nclass = parallelizable", fillcolor="#399de572"] ;
1 [label="iterator-payload-non-cf-cohesion <= 0.027\ngini = 0.387\nsamples = 1119\nvalue = [294, 825]\nclass = parallelizable", fillcolor="#399de5a4"] ;
0 -> 1 [labeldistance=2.5, labelangle=45, headlabel="True"] ;
2 [label="critical-payload-total-cohesion <= 0.289\ngini = 0.488\nsamples = 301\nvalue = [174, 127]\nclass = non-parallelizable", fillcolor="#e5813945"] ;
1 -> 2 ;
3 [label="payload-output-dependencies-number <= 1.5\ngini = 0.338\nsamples = 144\nvalue = [113, 31]\nclass = non-parallelizable", fillcolor="#e58139b9"] ;
2 -> 3 ;
4 [label="(...)", fillcolor="#C0C0C0"] ;
3 -> 4 ;
29 [label="(...)", fillcolor="#C0C0C0"] ;
3 -> 29 ;
40 [label="loop-depth <= 1.5\ngini = 0.475\nsamples = 157\nvalue = [61, 96]\nclass = parallelizable", fillcolor="#399de55d"] ;
2 -> 40 ;
41 [label="(...)", fillcolor="#C0C0C0"] ;
40 -> 41 ;
46 [label="(...)", fillcolor="#C0C0C0"] ;
40 -> 46 ;
69 [label="loop-critical-payload-fraction <= 0.222\ngini = 0.25\nsamples = 818\nvalue = [120, 698]\nclass = parallelizable", fillcolor="#399de5d3"] ;
1 -> 69 ;
70 [label="payload-call-fraction <= 0.008\ngini = 0.191\nsamples = 703\nvalue = [75, 628]\nclass = parallelizable", fillcolor="#399de5e1"] ;
69 -> 70 ;
71 [label="(...)", fillcolor="#C0C0C0"] ;
70 -> 71 ;
176 [label="(...)", fillcolor="#C0C0C0"] ;
70 -> 176 ;
181 [label="critical-payload-mem-dependencies-number <= 2.5\ngini = 0.476\nsamples = 115\nvalue = [45, 70]\nclass = parallelizable", fillcolor="#399de55b"] ;
69 -> 181 ;
182 [label="(...)", fillcolor="#C0C0C0"] ;
181 -> 182 ;
199 [label="(...)", fillcolor="#C0C0C0"] ;
181 -> 199 ;
224 [label="critical-payload-reg-dependencies-number <= 21.0\ngini = 0.309\nsamples = 230\nvalue = [186, 44]\nclass = non-parallelizable", fillcolor="#e58139c3"] ;
0 -> 224 [labeldistance=2.5, labelangle=-45, headlabel="False"] ;
225 [label="loop-critical-payload-fraction <= 0.356\ngini = 0.251\nsamples = 211\nvalue = [180, 31]\nclass = non-parallelizable", fillcolor="#e58139d3"] ;
224 -> 225 ;
226 [label="iterator-payload-total-cohesion <= 0.522\ngini = 0.228\nsamples = 206\nvalue = [179, 27]\nclass = non-parallelizable", fillcolor="#e58139d9"] ;
225 -> 226 ;
227 [label="(...)", fillcolor="#C0C0C0"] ;
226 -> 227 ;
276 [label="(...)", fillcolor="#C0C0C0"] ;
226 -> 276 ;
279 [label="iterator-payload-total-cohesion <= 0.214\ngini = 0.32\nsamples = 5\nvalue = [1, 4]\nclass = parallelizable", fillcolor="#399de5bf"] ;
225 -> 279 ;
280 [label="(...)", fillcolor="#C0C0C0"] ;
279 -> 280 ;
281 [label="(...)", fillcolor="#C0C0C0"] ;
279 -> 281 ;
282 [label="loop-depth <= 1.5\ngini = 0.432\nsamples = 19\nvalue = [6, 13]\nclass = parallelizable", fillcolor="#399de589"] ;
224 -> 282 ;
283 [label="payload-call-count <= 22.0\ngini = 0.153\nsamples = 12\nvalue = [1, 11]\nclass = parallelizable", fillcolor="#399de5e8"] ;
282 -> 283 ;
284 [label="(...)", fillcolor="#C0C0C0"] ;
283 -> 284 ;
285 [label="(...)", fillcolor="#C0C0C0"] ;
283 -> 285 ;
286 [label="critical-payload-mem-dependencies-number <= 2.5\ngini = 0.408\nsamples = 7\nvalue = [5, 2]\nclass = non-parallelizable", fillcolor="#e5813999"] ;
282 -> 286 ;
287 [label="(...)", fillcolor="#C0C0C0"] ;
286 -> 287 ;
288 [label="(...)", fillcolor="#C0C0C0"] ;
286 -> 288 ;
}