digraph Tree {
node [shape=box, style="filled, rounded", color="black", fontname=helvetica] ;
edge [fontname=helvetica] ;
0 [label="payload-call-fraction <= 0.031\ngini = 0.456\nsamples = 1349\nvalue = [475, 874]\nclass = parallelizable", fillcolor="#399de574"] ;
1 [label="iterator-payload-non-cf-cohesion <= 0.026\ngini = 0.389\nsamples = 1137\nvalue = [301, 836]\nclass = parallelizable", fillcolor="#399de5a3"] ;
0 -> 1 [labeldistance=2.5, labelangle=45, headlabel="True"] ;
2 [label="critical-payload-total-cohesion <= 0.28\ngini = 0.484\nsamples = 294\nvalue = [173, 121]\nclass = non-parallelizable", fillcolor="#e581394d"] ;
1 -> 2 ;
3 [label="payload-output-dependencies-number <= 1.5\ngini = 0.336\nsamples = 136\nvalue = [107, 29]\nclass = non-parallelizable", fillcolor="#e58139ba"] ;
2 -> 3 ;
4 [label="(...)", fillcolor="#C0C0C0"] ;
3 -> 4 ;
29 [label="(...)", fillcolor="#C0C0C0"] ;
3 -> 29 ;
38 [label="loop-depth <= 1.5\ngini = 0.486\nsamples = 158\nvalue = [66, 92]\nclass = parallelizable", fillcolor="#399de548"] ;
2 -> 38 ;
39 [label="(...)", fillcolor="#C0C0C0"] ;
38 -> 39 ;
46 [label="(...)", fillcolor="#C0C0C0"] ;
38 -> 46 ;
63 [label="critical-payload-mem-dependencies-number <= 2.5\ngini = 0.258\nsamples = 843\nvalue = [128, 715]\nclass = parallelizable", fillcolor="#399de5d1"] ;
1 -> 63 ;
64 [label="payload-call-fraction <= 0.008\ngini = 0.177\nsamples = 661\nvalue = [65, 596]\nclass = parallelizable", fillcolor="#399de5e3"] ;
63 -> 64 ;
65 [label="(...)", fillcolor="#C0C0C0"] ;
64 -> 65 ;
168 [label="(...)", fillcolor="#C0C0C0"] ;
64 -> 168 ;
175 [label="loop-critical-payload-fraction <= 0.239\ngini = 0.453\nsamples = 182\nvalue = [63, 119]\nclass = parallelizable", fillcolor="#399de578"] ;
63 -> 175 ;
176 [label="(...)", fillcolor="#C0C0C0"] ;
175 -> 176 ;
209 [label="(...)", fillcolor="#C0C0C0"] ;
175 -> 209 ;
230 [label="critical-payload-reg-dependencies-number <= 21.0\ngini = 0.294\nsamples = 212\nvalue = [174, 38]\nclass = non-parallelizable", fillcolor="#e58139c7"] ;
0 -> 230 [labeldistance=2.5, labelangle=-45, headlabel="False"] ;
231 [label="loop-critical-payload-fraction <= 0.336\ngini = 0.245\nsamples = 196\nvalue = [168, 28]\nclass = non-parallelizable", fillcolor="#e58139d4"] ;
230 -> 231 ;
232 [label="iterator-payload-total-cohesion <= 0.522\ngini = 0.22\nsamples = 191\nvalue = [167, 24]\nclass = non-parallelizable", fillcolor="#e58139da"] ;
231 -> 232 ;
233 [label="(...)", fillcolor="#C0C0C0"] ;
232 -> 233 ;
264 [label="(...)", fillcolor="#C0C0C0"] ;
232 -> 264 ;
267 [label="payload-reg-dependencies-number <= 25.5\ngini = 0.32\nsamples = 5\nvalue = [1, 4]\nclass = parallelizable", fillcolor="#399de5bf"] ;
231 -> 267 ;
268 [label="(...)", fillcolor="#C0C0C0"] ;
267 -> 268 ;
269 [label="(...)", fillcolor="#C0C0C0"] ;
267 -> 269 ;
270 [label="loop-depth <= 1.5\ngini = 0.469\nsamples = 16\nvalue = [6, 10]\nclass = parallelizable", fillcolor="#399de566"] ;
230 -> 270 ;
271 [label="payload-call-count <= 22.0\ngini = 0.165\nsamples = 11\nvalue = [1, 10]\nclass = parallelizable", fillcolor="#399de5e6"] ;
270 -> 271 ;
272 [label="(...)", fillcolor="#C0C0C0"] ;
271 -> 272 ;
273 [label="(...)", fillcolor="#C0C0C0"] ;
271 -> 273 ;
274 [label="gini = 0.0\nsamples = 5\nvalue = [5, 0]\nclass = non-parallelizable", fillcolor="#e58139ff"] ;
270 -> 274 ;
}