digraph Tree {
node [shape=box, style="filled, rounded", color="black", fontname=helvetica] ;
edge [fontname=helvetica] ;
0 [label="payload-call-count <= 0.5\ngini = 0.388\nsamples = 882\nvalue = [232, 650]\nclass = parallelizable", fillcolor="#399de5a4"] ;
1 [label="critical-payload-output-dependencies-number <= 0.5\ngini = 0.222\nsamples = 699\nvalue = [89, 610]\nclass = parallelizable", fillcolor="#399de5da"] ;
0 -> 1 [labeldistance=2.5, labelangle=45, headlabel="True"] ;
2 [label="payload-getelemptr-fraction <= 0.064\ngini = 0.14\nsamples = 622\nvalue = [47, 575]\nclass = parallelizable", fillcolor="#399de5ea"] ;
1 -> 2 ;
3 [label="gini = 0.0\nsamples = 4\nvalue = [4, 0]\nclass = non-parallelizable", fillcolor="#e58139ff"] ;
2 -> 3 ;
4 [label="payload-branch-count <= 21.5\ngini = 0.129\nsamples = 618\nvalue = [43, 575]\nclass = parallelizable", fillcolor="#399de5ec"] ;
2 -> 4 ;
5 [label="payload-output-dependencies-number <= 56.5\ngini = 0.122\nsamples = 615\nvalue = [40, 575]\nclass = parallelizable", fillcolor="#399de5ed"] ;
4 -> 5 ;
6 [label="loop-proper-sccs-ddg-number-diff <= 3.5\ngini = 0.114\nsamples = 609\nvalue = [37, 572]\nclass = parallelizable", fillcolor="#399de5ef"] ;
5 -> 6 ;
7 [label="(...)", fillcolor="#C0C0C0"] ;
6 -> 7 ;
82 [label="(...)", fillcolor="#C0C0C0"] ;
6 -> 82 ;
83 [label="iterator-reg-dependencies-number <= 5.5\ngini = 0.5\nsamples = 6\nvalue = [3, 3]\nclass = non-parallelizable", fillcolor="#e5813900"] ;
5 -> 83 ;
84 [label="(...)", fillcolor="#C0C0C0"] ;
83 -> 84 ;
85 [label="(...)", fillcolor="#C0C0C0"] ;
83 -> 85 ;
88 [label="gini = 0.0\nsamples = 3\nvalue = [3, 0]\nclass = non-parallelizable", fillcolor="#e58139ff"] ;
4 -> 88 ;
89 [label="payload-getelemptr-fraction <= 0.243\ngini = 0.496\nsamples = 77\nvalue = [42, 35]\nclass = non-parallelizable", fillcolor="#e581392a"] ;
1 -> 89 ;
90 [label="iterator-branch-fraction <= 0.183\ngini = 0.175\nsamples = 31\nvalue = [28, 3]\nclass = non-parallelizable", fillcolor="#e58139e4"] ;
89 -> 90 ;
91 [label="gini = 0.0\nsamples = 3\nvalue = [0, 3]\nclass = parallelizable", fillcolor="#399de5ff"] ;
90 -> 91 ;
92 [label="gini = 0.0\nsamples = 28\nvalue = [28, 0]\nclass = non-parallelizable", fillcolor="#e58139ff"] ;
90 -> 92 ;
93 [label="loop-critical-payload-fraction <= 0.326\ngini = 0.423\nsamples = 46\nvalue = [14, 32]\nclass = parallelizable", fillcolor="#399de58f"] ;
89 -> 93 ;
94 [label="critical-payload-conf-dependencies-number <= 0.5\ngini = 0.295\nsamples = 39\nvalue = [7, 32]\nclass = parallelizable", fillcolor="#399de5c7"] ;
93 -> 94 ;
95 [label="payload-mem-dependencies-number <= 3.0\ngini = 0.375\nsamples = 4\nvalue = [3, 1]\nclass = non-parallelizable", fillcolor="#e58139aa"] ;
94 -> 95 ;
96 [label="(...)", fillcolor="#C0C0C0"] ;
95 -> 96 ;
97 [label="(...)", fillcolor="#C0C0C0"] ;
95 -> 97 ;
98 [label="critical-payload-output-dependencies-number <= 8.0\ngini = 0.202\nsamples = 35\nvalue = [4, 31]\nclass = parallelizable", fillcolor="#399de5de"] ;
94 -> 98 ;
99 [label="(...)", fillcolor="#C0C0C0"] ;
98 -> 99 ;
106 [label="(...)", fillcolor="#C0C0C0"] ;
98 -> 106 ;
107 [label="gini = 0.0\nsamples = 7\nvalue = [7, 0]\nclass = non-parallelizable", fillcolor="#e58139ff"] ;
93 -> 107 ;
108 [label="payload-mem-read-fraction <= 0.074\ngini = 0.342\nsamples = 183\nvalue = [143, 40]\nclass = non-parallelizable", fillcolor="#e58139b8"] ;
0 -> 108 [labeldistance=2.5, labelangle=-45, headlabel="False"] ;
109 [label="payload-getelemptr-fraction <= 0.371\ngini = 0.227\nsamples = 23\nvalue = [3, 20]\nclass = parallelizable", fillcolor="#399de5d9"] ;
108 -> 109 ;
110 [label="gini = 0.0\nsamples = 20\nvalue = [0, 20]\nclass = parallelizable", fillcolor="#399de5ff"] ;
109 -> 110 ;
111 [label="gini = 0.0\nsamples = 3\nvalue = [3, 0]\nclass = non-parallelizable", fillcolor="#e58139ff"] ;
109 -> 111 ;
112 [label="loop-proper-sccs-ddg-number-diff <= 3.5\ngini = 0.219\nsamples = 160\nvalue = [140, 20]\nclass = non-parallelizable", fillcolor="#e58139db"] ;
108 -> 112 ;
113 [label="payload-branch-fraction <= 0.013\ngini = 0.115\nsamples = 147\nvalue = [138, 9]\nclass = non-parallelizable", fillcolor="#e58139ee"] ;
112 -> 113 ;
114 [label="gini = 0.0\nsamples = 1\nvalue = [0, 1]\nclass = parallelizable", fillcolor="#399de5ff"] ;
113 -> 114 ;
115 [label="loop-critical-payload-fraction <= 0.316\ngini = 0.104\nsamples = 146\nvalue = [138, 8]\nclass = non-parallelizable", fillcolor="#e58139f0"] ;
113 -> 115 ;
116 [label="payload-total-dependencies-number <= 30.0\ngini = 0.081\nsamples = 142\nvalue = [136, 6]\nclass = non-parallelizable", fillcolor="#e58139f4"] ;
115 -> 116 ;
117 [label="(...)", fillcolor="#C0C0C0"] ;
116 -> 117 ;
122 [label="(...)", fillcolor="#C0C0C0"] ;
116 -> 122 ;
127 [label="payload-mem-dependencies-number-diff <= 1.0\ngini = 0.5\nsamples = 4\nvalue = [2, 2]\nclass = non-parallelizable", fillcolor="#e5813900"] ;
115 -> 127 ;
128 [label="(...)", fillcolor="#C0C0C0"] ;
127 -> 128 ;
129 [label="(...)", fillcolor="#C0C0C0"] ;
127 -> 129 ;
130 [label="loop-proper-sccs-number <= 5.0\ngini = 0.26\nsamples = 13\nvalue = [2, 11]\nclass = parallelizable", fillcolor="#399de5d1"] ;
112 -> 130 ;
131 [label="gini = 0.0\nsamples = 2\nvalue = [2, 0]\nclass = non-parallelizable", fillcolor="#e58139ff"] ;
130 -> 131 ;
132 [label="gini = 0.0\nsamples = 11\nvalue = [0, 11]\nclass = parallelizable", fillcolor="#399de5ff"] ;
130 -> 132 ;
}