digraph Tree {
node [shape=box, style="filled, rounded", color="black", fontname=helvetica] ;
edge [fontname=helvetica] ;
0 [label="payload-call-count <= 0.5\ngini = 0.462\nsamples = 1077\nvalue = [391, 686]\nclass = parallelizable", fillcolor="#399de56e"] ;
1 [label="iterator-payload-non-cf-cohesion <= 0.034\ngini = 0.368\nsamples = 869\nvalue = [211, 658]\nclass = parallelizable", fillcolor="#399de5ad"] ;
0 -> 1 [labeldistance=2.5, labelangle=45, headlabel="True"] ;
2 [label="iterator-mem-read-fraction <= 0.16\ngini = 0.499\nsamples = 272\nvalue = [143, 129]\nclass = non-parallelizable", fillcolor="#e5813919"] ;
1 -> 2 ;
3 [label="critical-payload-mem-read-count <= 3.5\ngini = 0.413\nsamples = 175\nvalue = [124, 51]\nclass = non-parallelizable", fillcolor="#e5813996"] ;
2 -> 3 ;
4 [label="(...)", fillcolor="#C0C0C0"] ;
3 -> 4 ;
45 [label="(...)", fillcolor="#C0C0C0"] ;
3 -> 45 ;
46 [label="payload-mem-write-count <= 6.0\ngini = 0.315\nsamples = 97\nvalue = [19, 78]\nclass = parallelizable", fillcolor="#399de5c1"] ;
2 -> 46 ;
47 [label="(...)", fillcolor="#C0C0C0"] ;
46 -> 47 ;
68 [label="(...)", fillcolor="#C0C0C0"] ;
46 -> 68 ;
69 [label="loop-payload-fraction <= 0.515\ngini = 0.202\nsamples = 597\nvalue = [68, 529]\nclass = parallelizable", fillcolor="#399de5de"] ;
1 -> 69 ;
70 [label="critical-payload-branch-fraction <= 0.121\ngini = 0.375\nsamples = 12\nvalue = [9, 3]\nclass = non-parallelizable", fillcolor="#e58139aa"] ;
69 -> 70 ;
71 [label="(...)", fillcolor="#C0C0C0"] ;
70 -> 71 ;
72 [label="(...)", fillcolor="#C0C0C0"] ;
70 -> 72 ;
75 [label="loop-critical-payload-fraction <= 0.321\ngini = 0.181\nsamples = 585\nvalue = [59, 526]\nclass = parallelizable", fillcolor="#399de5e2"] ;
69 -> 75 ;
76 [label="(...)", fillcolor="#C0C0C0"] ;
75 -> 76 ;
153 [label="(...)", fillcolor="#C0C0C0"] ;
75 -> 153 ;
160 [label="loop-absolute-size <= 154.0\ngini = 0.233\nsamples = 208\nvalue = [180, 28]\nclass = non-parallelizable", fillcolor="#e58139d7"] ;
0 -> 160 [labeldistance=2.5, labelangle=-45, headlabel="False"] ;
161 [label="critical-payload-non-cf-cohesion <= 0.149\ngini = 0.124\nsamples = 180\nvalue = [168, 12]\nclass = non-parallelizable", fillcolor="#e58139ed"] ;
160 -> 161 ;
162 [label="iterator-payload-total-cohesion <= 0.522\ngini = 0.087\nsamples = 176\nvalue = [168, 8]\nclass = non-parallelizable", fillcolor="#e58139f3"] ;
161 -> 162 ;
163 [label="(...)", fillcolor="#C0C0C0"] ;
162 -> 163 ;
178 [label="(...)", fillcolor="#C0C0C0"] ;
162 -> 178 ;
181 [label="gini = 0.0\nsamples = 4\nvalue = [0, 4]\nclass = parallelizable", fillcolor="#399de5ff"] ;
161 -> 181 ;
182 [label="iterator-payload-non-cf-cohesion <= 0.025\ngini = 0.49\nsamples = 28\nvalue = [12, 16]\nclass = parallelizable", fillcolor="#399de540"] ;
160 -> 182 ;
183 [label="gini = 0.0\nsamples = 11\nvalue = [11, 0]\nclass = non-parallelizable", fillcolor="#e58139ff"] ;
182 -> 183 ;
184 [label="loop-absolute-size <= 230.0\ngini = 0.111\nsamples = 17\nvalue = [1, 16]\nclass = parallelizable", fillcolor="#399de5ef"] ;
182 -> 184 ;
185 [label="(...)", fillcolor="#C0C0C0"] ;
184 -> 185 ;
186 [label="(...)", fillcolor="#C0C0C0"] ;
184 -> 186 ;
}