digraph Tree {
node [shape=box, style="filled, rounded", color="black", fontname=helvetica] ;
edge [fontname=helvetica] ;
0 [label="payload-call-fraction <= 0.03\ngini = 0.407\nsamples = 1339\nvalue = [381, 958]\nclass = parallelizable", fillcolor="#399de59a"] ;
1 [label="iterator-payload-non-cf-cohesion <= 0.021\ngini = 0.313\nsamples = 1128\nvalue = [219, 909]\nclass = parallelizable", fillcolor="#399de5c2"] ;
0 -> 1 [labeldistance=2.5, labelangle=45, headlabel="True"] ;
2 [label="critical-payload-branch-fraction <= 0.211\ngini = 0.478\nsamples = 202\nvalue = [122, 80]\nclass = non-parallelizable", fillcolor="#e5813958"] ;
1 -> 2 ;
3 [label="iterator-getelemptr-fraction <= 0.137\ngini = 0.482\nsamples = 116\nvalue = [47, 69]\nclass = parallelizable", fillcolor="#399de551"] ;
2 -> 3 ;
4 [label="(...)", fillcolor="#C0C0C0"] ;
3 -> 4 ;
27 [label="(...)", fillcolor="#C0C0C0"] ;
3 -> 27 ;
40 [label="payload-getelemptr-count <= 294.5\ngini = 0.223\nsamples = 86\nvalue = [75, 11]\nclass = non-parallelizable", fillcolor="#e58139da"] ;
2 -> 40 ;
41 [label="(...)", fillcolor="#C0C0C0"] ;
40 -> 41 ;
54 [label="(...)", fillcolor="#C0C0C0"] ;
40 -> 54 ;
55 [label="critical-payload-getelemptr-count <= 1.5\ngini = 0.188\nsamples = 926\nvalue = [97, 829]\nclass = parallelizable", fillcolor="#399de5e1"] ;
1 -> 55 ;
56 [label="payload-mem-dependencies-number <= 5.5\ngini = 0.163\nsamples = 907\nvalue = [81, 826]\nclass = parallelizable", fillcolor="#399de5e6"] ;
55 -> 56 ;
57 [label="(...)", fillcolor="#C0C0C0"] ;
56 -> 57 ;
130 [label="(...)", fillcolor="#C0C0C0"] ;
56 -> 130 ;
169 [label="payload-true-dependencies-number <= 11.0\ngini = 0.266\nsamples = 19\nvalue = [16, 3]\nclass = non-parallelizable", fillcolor="#e58139cf"] ;
55 -> 169 ;
170 [label="(...)", fillcolor="#C0C0C0"] ;
169 -> 170 ;
171 [label="(...)", fillcolor="#C0C0C0"] ;
169 -> 171 ;
174 [label="payload-mem-read-fraction <= 0.096\ngini = 0.357\nsamples = 211\nvalue = [162, 49]\nclass = non-parallelizable", fillcolor="#e58139b2"] ;
0 -> 174 [labeldistance=2.5, labelangle=-45, headlabel="False"] ;
175 [label="iterator-payload-non-cf-cohesion <= 0.053\ngini = 0.412\nsamples = 31\nvalue = [9, 22]\nclass = parallelizable", fillcolor="#399de597"] ;
174 -> 175 ;
176 [label="iterator-true-dependencies-number <= 6.0\ngini = 0.26\nsamples = 26\nvalue = [4, 22]\nclass = parallelizable", fillcolor="#399de5d1"] ;
175 -> 176 ;
177 [label="(...)", fillcolor="#C0C0C0"] ;
176 -> 177 ;
180 [label="(...)", fillcolor="#C0C0C0"] ;
176 -> 180 ;
181 [label="gini = 0.0\nsamples = 5\nvalue = [5, 0]\nclass = non-parallelizable", fillcolor="#e58139ff"] ;
175 -> 181 ;
182 [label="iterator-payload-total-cohesion <= 0.518\ngini = 0.255\nsamples = 180\nvalue = [153, 27]\nclass = non-parallelizable", fillcolor="#e58139d2"] ;
174 -> 182 ;
183 [label="iterator-mem-read-fraction <= 0.185\ngini = 0.228\nsamples = 175\nvalue = [152, 23]\nclass = non-parallelizable", fillcolor="#e58139d8"] ;
182 -> 183 ;
184 [label="(...)", fillcolor="#C0C0C0"] ;
183 -> 184 ;
207 [label="(...)", fillcolor="#C0C0C0"] ;
183 -> 207 ;
218 [label="iterator-payload-non-cf-cohesion <= 0.089\ngini = 0.32\nsamples = 5\nvalue = [1, 4]\nclass = parallelizable", fillcolor="#399de5bf"] ;
182 -> 218 ;
219 [label="(...)", fillcolor="#C0C0C0"] ;
218 -> 219 ;
220 [label="(...)", fillcolor="#C0C0C0"] ;
218 -> 220 ;
}