digraph Tree {
node [shape=box, style="filled, rounded", color="black", fontname=helvetica] ;
edge [fontname=helvetica] ;
0 [label="payload-call-count <= 0.5\ngini = 0.489\nsamples = 1372\nvalue = [586, 786]\nclass = parallelizable", fillcolor="#399de541"] ;
1 [label="critical-payload-cntl-dependencies-number <= 1.5\ngini = 0.405\nsamples = 1053\nvalue = [297, 756]\nclass = parallelizable", fillcolor="#399de59b"] ;
0 -> 1 [labeldistance=2.5, labelangle=45, headlabel="True"] ;
2 [label="payload-getelemptr-count <= 0.5\ngini = 0.306\nsamples = 885\nvalue = [167, 718]\nclass = parallelizable", fillcolor="#399de5c4"] ;
1 -> 2 ;
3 [label="loop-iterator-size <= 18.5\ngini = 0.21\nsamples = 67\nvalue = [59, 8]\nclass = non-parallelizable", fillcolor="#e58139dc"] ;
2 -> 3 ;
4 [label="(...)", fillcolor="#C0C0C0"] ;
3 -> 4 ;
13 [label="(...)", fillcolor="#C0C0C0"] ;
3 -> 13 ;
28 [label="critical-payload-reg-dependencies-number <= 22.5\ngini = 0.229\nsamples = 818\nvalue = [108, 710]\nclass = parallelizable", fillcolor="#399de5d8"] ;
2 -> 28 ;
29 [label="(...)", fillcolor="#C0C0C0"] ;
28 -> 29 ;
158 [label="(...)", fillcolor="#C0C0C0"] ;
28 -> 158 ;
163 [label="loop-payload-fraction <= 0.811\ngini = 0.35\nsamples = 168\nvalue = [130, 38]\nclass = non-parallelizable", fillcolor="#e58139b4"] ;
1 -> 163 ;
164 [label="payload-true-dependencies-number <= 6.5\ngini = 0.391\nsamples = 15\nvalue = [4, 11]\nclass = parallelizable", fillcolor="#399de5a2"] ;
163 -> 164 ;
165 [label="(...)", fillcolor="#C0C0C0"] ;
164 -> 165 ;
166 [label="(...)", fillcolor="#C0C0C0"] ;
164 -> 166 ;
169 [label="payload-conf-dependencies-number <= 2.5\ngini = 0.291\nsamples = 153\nvalue = [126, 27]\nclass = non-parallelizable", fillcolor="#e58139c8"] ;
163 -> 169 ;
170 [label="(...)", fillcolor="#C0C0C0"] ;
169 -> 170 ;
195 [label="(...)", fillcolor="#C0C0C0"] ;
169 -> 195 ;
212 [label="loop-proper-sccs-ddg-number-diff <= 2.5\ngini = 0.17\nsamples = 319\nvalue = [289, 30]\nclass = non-parallelizable", fillcolor="#e58139e5"] ;
0 -> 212 [labeldistance=2.5, labelangle=-45, headlabel="False"] ;
213 [label="loop-payload-fraction <= 0.796\ngini = 0.099\nsamples = 288\nvalue = [273, 15]\nclass = non-parallelizable", fillcolor="#e58139f1"] ;
212 -> 213 ;
214 [label="gini = 0.0\nsamples = 78\nvalue = [78, 0]\nclass = non-parallelizable", fillcolor="#e58139ff"] ;
213 -> 214 ;
215 [label="payload-total-dependencies-number <= 29.0\ngini = 0.133\nsamples = 210\nvalue = [195, 15]\nclass = non-parallelizable", fillcolor="#e58139eb"] ;
213 -> 215 ;
216 [label="(...)", fillcolor="#C0C0C0"] ;
215 -> 216 ;
225 [label="(...)", fillcolor="#C0C0C0"] ;
215 -> 225 ;
236 [label="payload-call-count <= 5.5\ngini = 0.499\nsamples = 31\nvalue = [16, 15]\nclass = non-parallelizable", fillcolor="#e5813910"] ;
212 -> 236 ;
237 [label="payload-branch-count <= 8.5\ngini = 0.332\nsamples = 19\nvalue = [4, 15]\nclass = parallelizable", fillcolor="#399de5bb"] ;
236 -> 237 ;
238 [label="(...)", fillcolor="#C0C0C0"] ;
237 -> 238 ;
241 [label="(...)", fillcolor="#C0C0C0"] ;
237 -> 241 ;
244 [label="gini = 0.0\nsamples = 12\nvalue = [12, 0]\nclass = non-parallelizable", fillcolor="#e58139ff"] ;
236 -> 244 ;
}