digraph Tree {
node [shape=box, style="filled, rounded", color="black", fontname=helvetica] ;
edge [fontname=helvetica] ;
0 [label="iterator-payload-non-cf-cohesion <= 0.034\ngini = 0.489\nsamples = 1136\nvalue = [485, 651]\nclass = parallelizable", fillcolor="#399de541"] ;
1 [label="payload-mem-dependencies-number-diff <= 0.5\ngini = 0.42\nsamples = 470\nvalue = [329, 141]\nclass = non-parallelizable", fillcolor="#e5813992"] ;
0 -> 1 [labeldistance=2.5, labelangle=45, headlabel="True"] ;
2 [label="loop-payload-fraction <= 0.815\ngini = 0.492\nsamples = 294\nvalue = [166, 128]\nclass = non-parallelizable", fillcolor="#e581393a"] ;
1 -> 2 ;
3 [label="critical-payload-total-cohesion <= 0.407\ngini = 0.25\nsamples = 109\nvalue = [93, 16]\nclass = non-parallelizable", fillcolor="#e58139d3"] ;
2 -> 3 ;
4 [label="iterator-payload-non-cf-cohesion <= 0.032\ngini = 0.202\nsamples = 105\nvalue = [93, 12]\nclass = non-parallelizable", fillcolor="#e58139de"] ;
3 -> 4 ;
5 [label="iterator-conf-dependencies-number <= 0.5\ngini = 0.149\nsamples = 99\nvalue = [91, 8]\nclass = non-parallelizable", fillcolor="#e58139e9"] ;
4 -> 5 ;
6 [label="(...)", fillcolor="#C0C0C0"] ;
5 -> 6 ;
15 [label="(...)", fillcolor="#C0C0C0"] ;
5 -> 15 ;
26 [label="loop-absolute-size <= 16.5\ngini = 0.444\nsamples = 6\nvalue = [2, 4]\nclass = parallelizable", fillcolor="#399de57f"] ;
4 -> 26 ;
27 [label="(...)", fillcolor="#C0C0C0"] ;
26 -> 27 ;
28 [label="(...)", fillcolor="#C0C0C0"] ;
26 -> 28 ;
31 [label="gini = 0.0\nsamples = 4\nvalue = [0, 4]\nclass = parallelizable", fillcolor="#399de5ff"] ;
3 -> 31 ;
32 [label="critical-payload-total-dependencies-number <= 34.0\ngini = 0.478\nsamples = 185\nvalue = [73, 112]\nclass = parallelizable", fillcolor="#399de559"] ;
2 -> 32 ;
33 [label="critical-payload-non-cf-cohesion <= 0.061\ngini = 0.431\nsamples = 156\nvalue = [49, 107]\nclass = parallelizable", fillcolor="#399de58a"] ;
32 -> 33 ;
34 [label="payload-output-dependencies-number <= 0.5\ngini = 0.485\nsamples = 104\nvalue = [43, 61]\nclass = parallelizable", fillcolor="#399de54b"] ;
33 -> 34 ;
35 [label="(...)", fillcolor="#C0C0C0"] ;
34 -> 35 ;
38 [label="(...)", fillcolor="#C0C0C0"] ;
34 -> 38 ;
67 [label="iterator-payload-non-cf-cohesion <= 0.003\ngini = 0.204\nsamples = 52\nvalue = [6, 46]\nclass = parallelizable", fillcolor="#399de5de"] ;
33 -> 67 ;
68 [label="(...)", fillcolor="#C0C0C0"] ;
67 -> 68 ;
69 [label="(...)", fillcolor="#C0C0C0"] ;
67 -> 69 ;
82 [label="loop-proper-sccs-number-diff <= 2.5\ngini = 0.285\nsamples = 29\nvalue = [24, 5]\nclass = non-parallelizable", fillcolor="#e58139ca"] ;
32 -> 82 ;
83 [label="gini = 0.0\nsamples = 21\nvalue = [21, 0]\nclass = non-parallelizable", fillcolor="#e58139ff"] ;
82 -> 83 ;
84 [label="payload-reg-dependencies-number <= 176.0\ngini = 0.469\nsamples = 8\nvalue = [3, 5]\nclass = parallelizable", fillcolor="#399de566"] ;
82 -> 84 ;
85 [label="(...)", fillcolor="#C0C0C0"] ;
84 -> 85 ;
86 [label="(...)", fillcolor="#C0C0C0"] ;
84 -> 86 ;
87 [label="critical-payload-non-cf-cohesion <= 0.147\ngini = 0.137\nsamples = 176\nvalue = [163, 13]\nclass = non-parallelizable", fillcolor="#e58139eb"] ;
1 -> 87 ;
88 [label="critical-payload-total-cohesion <= 0.5\ngini = 0.038\nsamples = 154\nvalue = [151, 3]\nclass = non-parallelizable", fillcolor="#e58139fa"] ;
87 -> 88 ;
89 [label="payload-total-dependencies-number <= 20.5\ngini = 0.026\nsamples = 152\nvalue = [150, 2]\nclass = non-parallelizable", fillcolor="#e58139fc"] ;
88 -> 89 ;
90 [label="loop-depth <= 2.5\ngini = 0.375\nsamples = 4\nvalue = [3, 1]\nclass = non-parallelizable", fillcolor="#e58139aa"] ;
89 -> 90 ;
91 [label="(...)", fillcolor="#C0C0C0"] ;
90 -> 91 ;
92 [label="(...)", fillcolor="#C0C0C0"] ;
90 -> 92 ;
93 [label="payload-total-dependencies-number <= 33.0\ngini = 0.013\nsamples = 148\nvalue = [147, 1]\nclass = non-parallelizable", fillcolor="#e58139fd"] ;
89 -> 93 ;
94 [label="(...)", fillcolor="#C0C0C0"] ;
93 -> 94 ;
97 [label="(...)", fillcolor="#C0C0C0"] ;
93 -> 97 ;
98 [label="critical-payload-cntl-dependencies-number <= 4.0\ngini = 0.5\nsamples = 2\nvalue = [1, 1]\nclass = non-parallelizable", fillcolor="#e5813900"] ;
88 -> 98 ;
99 [label="gini = 0.0\nsamples = 1\nvalue = [1, 0]\nclass = non-parallelizable", fillcolor="#e58139ff"] ;
98 -> 99 ;
100 [label="gini = 0.0\nsamples = 1\nvalue = [0, 1]\nclass = parallelizable", fillcolor="#399de5ff"] ;
98 -> 100 ;
101 [label="loop-proper-sccs-number <= 1.5\ngini = 0.496\nsamples = 22\nvalue = [12, 10]\nclass = non-parallelizable", fillcolor="#e581392a"] ;
87 -> 101 ;
102 [label="loop-depth <= 4.0\ngini = 0.444\nsamples = 15\nvalue = [5, 10]\nclass = parallelizable", fillcolor="#399de57f"] ;
101 -> 102 ;
103 [label="loop-payload-fraction <= 0.82\ngini = 0.278\nsamples = 12\nvalue = [2, 10]\nclass = parallelizable", fillcolor="#399de5cc"] ;
102 -> 103 ;
104 [label="(...)", fillcolor="#C0C0C0"] ;
103 -> 104 ;
105 [label="(...)", fillcolor="#C0C0C0"] ;
103 -> 105 ;
108 [label="gini = 0.0\nsamples = 3\nvalue = [3, 0]\nclass = non-parallelizable", fillcolor="#e58139ff"] ;
102 -> 108 ;
109 [label="gini = 0.0\nsamples = 7\nvalue = [7, 0]\nclass = non-parallelizable", fillcolor="#e58139ff"] ;
101 -> 109 ;
110 [label="iterator-payload-non-cf-cohesion <= 0.083\ngini = 0.359\nsamples = 666\nvalue = [156, 510]\nclass = parallelizable", fillcolor="#399de5b1"] ;
0 -> 110 [labeldistance=2.5, labelangle=-45, headlabel="False"] ;
111 [label="critical-payload-mem-dependencies-number <= 2.5\ngini = 0.288\nsamples = 590\nvalue = [103, 487]\nclass = parallelizable", fillcolor="#399de5c9"] ;
110 -> 111 ;
112 [label="iterator-total-dependencies-number <= 47.5\ngini = 0.247\nsamples = 562\nvalue = [81, 481]\nclass = parallelizable", fillcolor="#399de5d4"] ;
111 -> 112 ;
113 [label="payload-cntl-dependencies-number <= 0.5\ngini = 0.231\nsamples = 555\nvalue = [74, 481]\nclass = parallelizable", fillcolor="#399de5d8"] ;
112 -> 113 ;
114 [label="iterator-payload-total-cohesion <= 0.517\ngini = 0.152\nsamples = 385\nvalue = [32, 353]\nclass = parallelizable", fillcolor="#399de5e8"] ;
113 -> 114 ;
115 [label="(...)", fillcolor="#C0C0C0"] ;
114 -> 115 ;
184 [label="(...)", fillcolor="#C0C0C0"] ;
114 -> 184 ;
187 [label="critical-payload-total-cohesion <= 0.209\ngini = 0.372\nsamples = 170\nvalue = [42, 128]\nclass = parallelizable", fillcolor="#399de5ab"] ;
113 -> 187 ;
188 [label="(...)", fillcolor="#C0C0C0"] ;
187 -> 188 ;
199 [label="(...)", fillcolor="#C0C0C0"] ;
187 -> 199 ;
230 [label="gini = 0.0\nsamples = 7\nvalue = [7, 0]\nclass = non-parallelizable", fillcolor="#e58139ff"] ;
112 -> 230 ;
231 [label="critical-payload-non-cf-cohesion <= 0.183\ngini = 0.337\nsamples = 28\nvalue = [22, 6]\nclass = non-parallelizable", fillcolor="#e58139b9"] ;
111 -> 231 ;
232 [label="critical-payload-cross-dependencies-number <= 8.5\ngini = 0.227\nsamples = 23\nvalue = [20, 3]\nclass = non-parallelizable", fillcolor="#e58139d9"] ;
231 -> 232 ;
233 [label="critical-payload-mem-dependencies-number <= 4.5\ngini = 0.165\nsamples = 22\nvalue = [20, 2]\nclass = non-parallelizable", fillcolor="#e58139e6"] ;
232 -> 233 ;
234 [label="(...)", fillcolor="#C0C0C0"] ;
233 -> 234 ;
239 [label="(...)", fillcolor="#C0C0C0"] ;
233 -> 239 ;
240 [label="gini = 0.0\nsamples = 1\nvalue = [0, 1]\nclass = parallelizable", fillcolor="#399de5ff"] ;
232 -> 240 ;
241 [label="iterator-total-dependencies-number <= 10.0\ngini = 0.48\nsamples = 5\nvalue = [2, 3]\nclass = parallelizable", fillcolor="#399de555"] ;
231 -> 241 ;
242 [label="gini = 0.0\nsamples = 3\nvalue = [0, 3]\nclass = parallelizable", fillcolor="#399de5ff"] ;
241 -> 242 ;
243 [label="gini = 0.0\nsamples = 2\nvalue = [2, 0]\nclass = non-parallelizable", fillcolor="#e58139ff"] ;
241 -> 243 ;
244 [label="iterator-payload-total-cohesion <= 0.448\ngini = 0.422\nsamples = 76\nvalue = [53, 23]\nclass = non-parallelizable", fillcolor="#e5813990"] ;
110 -> 244 ;
245 [label="loop-payload-fraction <= 0.221\ngini = 0.18\nsamples = 50\nvalue = [45, 5]\nclass = non-parallelizable", fillcolor="#e58139e3"] ;
244 -> 245 ;
246 [label="gini = 0.0\nsamples = 1\nvalue = [0, 1]\nclass = parallelizable", fillcolor="#399de5ff"] ;
245 -> 246 ;
247 [label="payload-cross-dependencies-number <= 0.5\ngini = 0.15\nsamples = 49\nvalue = [45, 4]\nclass = non-parallelizable", fillcolor="#e58139e8"] ;
245 -> 247 ;
248 [label="iterator-total-dependencies-number <= 9.0\ngini = 0.117\nsamples = 48\nvalue = [45, 3]\nclass = non-parallelizable", fillcolor="#e58139ee"] ;
247 -> 248 ;
249 [label="(...)", fillcolor="#C0C0C0"] ;
248 -> 249 ;
250 [label="(...)", fillcolor="#C0C0C0"] ;
248 -> 250 ;
257 [label="gini = 0.0\nsamples = 1\nvalue = [0, 1]\nclass = parallelizable", fillcolor="#399de5ff"] ;
247 -> 257 ;
258 [label="critical-payload-mem-dependencies-number <= 0.5\ngini = 0.426\nsamples = 26\nvalue = [8, 18]\nclass = parallelizable", fillcolor="#399de58e"] ;
244 -> 258 ;
259 [label="payload-reg-dependencies-number <= 44.5\ngini = 0.298\nsamples = 22\nvalue = [4, 18]\nclass = parallelizable", fillcolor="#399de5c6"] ;
258 -> 259 ;
260 [label="iterator-payload-non-cf-cohesion <= 0.084\ngini = 0.18\nsamples = 20\nvalue = [2, 18]\nclass = parallelizable", fillcolor="#399de5e3"] ;
259 -> 260 ;
261 [label="(...)", fillcolor="#C0C0C0"] ;
260 -> 261 ;
264 [label="(...)", fillcolor="#C0C0C0"] ;
260 -> 264 ;
269 [label="gini = 0.0\nsamples = 2\nvalue = [2, 0]\nclass = non-parallelizable", fillcolor="#e58139ff"] ;
259 -> 269 ;
270 [label="gini = 0.0\nsamples = 4\nvalue = [4, 0]\nclass = non-parallelizable", fillcolor="#e58139ff"] ;
258 -> 270 ;
}