digraph Tree {
node [shape=box, style="filled, rounded", color="black", fontname=helvetica] ;
edge [fontname=helvetica] ;
0 [label="iterator-payload-non-cf-cohesion <= 0.026\ngini = 0.489\nsamples = 1372\nvalue = [586, 786]\nclass = parallelizable", fillcolor="#399de541"] ;
1 [label="payload-mem-dependencies-number-diff <= 0.5\ngini = 0.319\nsamples = 376\nvalue = [301, 75]\nclass = non-parallelizable", fillcolor="#e58139bf"] ;
0 -> 1 [labeldistance=2.5, labelangle=45, headlabel="True"] ;
2 [label="iterator-payload-non-cf-cohesion <= 0.007\ngini = 0.452\nsamples = 214\nvalue = [140, 74]\nclass = non-parallelizable", fillcolor="#e5813978"] ;
1 -> 2 ;
3 [label="iterator-mem-dependencies-number <= 0.5\ngini = 0.164\nsamples = 89\nvalue = [81, 8]\nclass = non-parallelizable", fillcolor="#e58139e6"] ;
2 -> 3 ;
4 [label="(...)", fillcolor="#C0C0C0"] ;
3 -> 4 ;
7 [label="(...)", fillcolor="#C0C0C0"] ;
3 -> 7 ;
18 [label="payload-mem-write-fraction <= 0.032\ngini = 0.498\nsamples = 125\nvalue = [59, 66]\nclass = parallelizable", fillcolor="#399de51b"] ;
2 -> 18 ;
19 [label="(...)", fillcolor="#C0C0C0"] ;
18 -> 19 ;
28 [label="(...)", fillcolor="#C0C0C0"] ;
18 -> 28 ;
41 [label="payload-true-dependencies-number <= 15.5\ngini = 0.012\nsamples = 162\nvalue = [161, 1]\nclass = non-parallelizable", fillcolor="#e58139fd"] ;
1 -> 41 ;
42 [label="payload-reg-dependencies-number <= 8.5\ngini = 0.444\nsamples = 3\nvalue = [2, 1]\nclass = non-parallelizable", fillcolor="#e581397f"] ;
41 -> 42 ;
43 [label="(...)", fillcolor="#C0C0C0"] ;
42 -> 43 ;
44 [label="(...)", fillcolor="#C0C0C0"] ;
42 -> 44 ;
45 [label="gini = 0.0\nsamples = 159\nvalue = [159, 0]\nclass = non-parallelizable", fillcolor="#e58139ff"] ;
41 -> 45 ;
46 [label="payload-getelemptr-fraction <= 0.198\ngini = 0.409\nsamples = 996\nvalue = [285, 711]\nclass = parallelizable", fillcolor="#399de599"] ;
0 -> 46 [labeldistance=2.5, labelangle=-45, headlabel="False"] ;
47 [label="critical-payload-non-cf-cohesion <= 0.074\ngini = 0.385\nsamples = 123\nvalue = [91, 32]\nclass = non-parallelizable", fillcolor="#e58139a5"] ;
46 -> 47 ;
48 [label="iterator-payload-total-cohesion <= 0.436\ngini = 0.217\nsamples = 97\nvalue = [85, 12]\nclass = non-parallelizable", fillcolor="#e58139db"] ;
47 -> 48 ;
49 [label="(...)", fillcolor="#C0C0C0"] ;
48 -> 49 ;
66 [label="(...)", fillcolor="#C0C0C0"] ;
48 -> 66 ;
71 [label="loop-absolute-size <= 39.5\ngini = 0.355\nsamples = 26\nvalue = [6, 20]\nclass = parallelizable", fillcolor="#399de5b3"] ;
47 -> 71 ;
72 [label="(...)", fillcolor="#C0C0C0"] ;
71 -> 72 ;
75 [label="(...)", fillcolor="#C0C0C0"] ;
71 -> 75 ;
76 [label="critical-payload-mem-read-count <= 2.5\ngini = 0.346\nsamples = 873\nvalue = [194, 679]\nclass = parallelizable", fillcolor="#399de5b6"] ;
46 -> 76 ;
77 [label="payload-mem-read-fraction <= 0.144\ngini = 0.295\nsamples = 813\nvalue = [146, 667]\nclass = parallelizable", fillcolor="#399de5c7"] ;
76 -> 77 ;
78 [label="(...)", fillcolor="#C0C0C0"] ;
77 -> 78 ;
193 [label="(...)", fillcolor="#C0C0C0"] ;
77 -> 193 ;
228 [label="critical-payload-mem-write-fraction <= 0.16\ngini = 0.32\nsamples = 60\nvalue = [48, 12]\nclass = non-parallelizable", fillcolor="#e58139bf"] ;
76 -> 228 ;
229 [label="(...)", fillcolor="#C0C0C0"] ;
228 -> 229 ;
238 [label="(...)", fillcolor="#C0C0C0"] ;
228 -> 238 ;
}