digraph Tree {
node [shape=box, style="filled, rounded", color="black", fontname=helvetica] ;
edge [fontname=helvetica] ;
0 [label="iterator-payload-non-cf-cohesion <= 0.021\ngini = 0.429\nsamples = 1235\nvalue = [385, 850]\nclass = parallelizable", fillcolor="#399de58b"] ;
1 [label="critical-payload-branch-fraction <= 0.211\ngini = 0.42\nsamples = 243\nvalue = [170, 73]\nclass = non-parallelizable", fillcolor="#e5813992"] ;
0 -> 1 [labeldistance=2.5, labelangle=45, headlabel="True"] ;
2 [label="iterator-mem-read-fraction <= 0.216\ngini = 0.5\nsamples = 109\nvalue = [55, 54]\nclass = non-parallelizable", fillcolor="#e5813905"] ;
1 -> 2 ;
3 [label="loop-inner-loop-num <= 2.5\ngini = 0.49\nsamples = 93\nvalue = [40, 53]\nclass = parallelizable", fillcolor="#399de53f"] ;
2 -> 3 ;
4 [label="payload-mem-dependencies-number-diff <= 0.5\ngini = 0.49\nsamples = 56\nvalue = [32, 24]\nclass = non-parallelizable", fillcolor="#e5813940"] ;
3 -> 4 ;
5 [label="iterator-getelemptr-fraction <= 0.137\ngini = 0.498\nsamples = 43\nvalue = [20, 23]\nclass = parallelizable", fillcolor="#399de521"] ;
4 -> 5 ;
6 [label="(...)", fillcolor="#C0C0C0"] ;
5 -> 6 ;
11 [label="(...)", fillcolor="#C0C0C0"] ;
5 -> 11 ;
20 [label="critical-payload-branch-count <= 2.5\ngini = 0.142\nsamples = 13\nvalue = [12, 1]\nclass = non-parallelizable", fillcolor="#e58139ea"] ;
4 -> 20 ;
21 [label="(...)", fillcolor="#C0C0C0"] ;
20 -> 21 ;
22 [label="(...)", fillcolor="#C0C0C0"] ;
20 -> 22 ;
23 [label="loop-depth <= 1.5\ngini = 0.339\nsamples = 37\nvalue = [8, 29]\nclass = parallelizable", fillcolor="#399de5b9"] ;
3 -> 23 ;
24 [label="iterator-payload-total-cohesion <= 0.13\ngini = 0.124\nsamples = 30\nvalue = [2, 28]\nclass = parallelizable", fillcolor="#399de5ed"] ;
23 -> 24 ;
25 [label="(...)", fillcolor="#C0C0C0"] ;
24 -> 25 ;
28 [label="(...)", fillcolor="#C0C0C0"] ;
24 -> 28 ;
29 [label="iterator-payload-total-cohesion <= 0.089\ngini = 0.245\nsamples = 7\nvalue = [6, 1]\nclass = non-parallelizable", fillcolor="#e58139d4"] ;
23 -> 29 ;
30 [label="(...)", fillcolor="#C0C0C0"] ;
29 -> 30 ;
31 [label="(...)", fillcolor="#C0C0C0"] ;
29 -> 31 ;
32 [label="critical-payload-branch-fraction <= 0.036\ngini = 0.117\nsamples = 16\nvalue = [15, 1]\nclass = non-parallelizable", fillcolor="#e58139ee"] ;
2 -> 32 ;
33 [label="gini = 0.0\nsamples = 1\nvalue = [0, 1]\nclass = parallelizable", fillcolor="#399de5ff"] ;
32 -> 33 ;
34 [label="gini = 0.0\nsamples = 15\nvalue = [15, 0]\nclass = non-parallelizable", fillcolor="#e58139ff"] ;
32 -> 34 ;
35 [label="payload-anti-dependencies-number <= 28.0\ngini = 0.243\nsamples = 134\nvalue = [115, 19]\nclass = non-parallelizable", fillcolor="#e58139d5"] ;
1 -> 35 ;
36 [label="critical-payload-branch-count <= 1.5\ngini = 0.193\nsamples = 129\nvalue = [115, 14]\nclass = non-parallelizable", fillcolor="#e58139e0"] ;
35 -> 36 ;
37 [label="payload-branch-fraction <= 0.035\ngini = 0.068\nsamples = 85\nvalue = [82, 3]\nclass = non-parallelizable", fillcolor="#e58139f6"] ;
36 -> 37 ;
38 [label="payload-branch-fraction <= 0.017\ngini = 0.444\nsamples = 3\nvalue = [1, 2]\nclass = parallelizable", fillcolor="#399de57f"] ;
37 -> 38 ;
39 [label="(...)", fillcolor="#C0C0C0"] ;
38 -> 39 ;
40 [label="(...)", fillcolor="#C0C0C0"] ;
38 -> 40 ;
41 [label="critical-payload-total-cohesion <= 0.47\ngini = 0.024\nsamples = 82\nvalue = [81, 1]\nclass = non-parallelizable", fillcolor="#e58139fc"] ;
37 -> 41 ;
42 [label="(...)", fillcolor="#C0C0C0"] ;
41 -> 42 ;
43 [label="(...)", fillcolor="#C0C0C0"] ;
41 -> 43 ;
46 [label="payload-getelemptr-count <= 14.5\ngini = 0.375\nsamples = 44\nvalue = [33, 11]\nclass = non-parallelizable", fillcolor="#e58139aa"] ;
36 -> 46 ;
47 [label="payload-mem-read-fraction <= 0.183\ngini = 0.469\nsamples = 16\nvalue = [6, 10]\nclass = parallelizable", fillcolor="#399de566"] ;
46 -> 47 ;
48 [label="(...)", fillcolor="#C0C0C0"] ;
47 -> 48 ;
57 [label="(...)", fillcolor="#C0C0C0"] ;
47 -> 57 ;
58 [label="iterator-payload-non-cf-cohesion <= 0.021\ngini = 0.069\nsamples = 28\nvalue = [27, 1]\nclass = non-parallelizable", fillcolor="#e58139f6"] ;
46 -> 58 ;
59 [label="(...)", fillcolor="#C0C0C0"] ;
58 -> 59 ;
60 [label="(...)", fillcolor="#C0C0C0"] ;
58 -> 60 ;
63 [label="gini = 0.0\nsamples = 5\nvalue = [0, 5]\nclass = parallelizable", fillcolor="#399de5ff"] ;
35 -> 63 ;
64 [label="payload-mem-read-fraction <= 0.209\ngini = 0.34\nsamples = 992\nvalue = [215, 777]\nclass = parallelizable", fillcolor="#399de5b8"] ;
0 -> 64 [labeldistance=2.5, labelangle=-45, headlabel="False"] ;
65 [label="critical-payload-getelemptr-count <= 1.5\ngini = 0.284\nsamples = 928\nvalue = [159, 769]\nclass = parallelizable", fillcolor="#399de5ca"] ;
64 -> 65 ;
66 [label="payload-getelemptr-fraction <= 0.098\ngini = 0.253\nsamples = 900\nvalue = [134, 766]\nclass = parallelizable", fillcolor="#399de5d2"] ;
65 -> 66 ;
67 [label="gini = 0.0\nsamples = 10\nvalue = [10, 0]\nclass = non-parallelizable", fillcolor="#e58139ff"] ;
66 -> 67 ;
68 [label="payload-mem-dependencies-number <= 5.5\ngini = 0.24\nsamples = 890\nvalue = [124, 766]\nclass = parallelizable", fillcolor="#399de5d6"] ;
66 -> 68 ;
69 [label="payload-mem-read-fraction <= 0.141\ngini = 0.178\nsamples = 719\nvalue = [71, 648]\nclass = parallelizable", fillcolor="#399de5e3"] ;
68 -> 69 ;
70 [label="(...)", fillcolor="#C0C0C0"] ;
69 -> 70 ;
141 [label="(...)", fillcolor="#C0C0C0"] ;
69 -> 141 ;
184 [label="iterator-payload-non-cf-cohesion <= 0.028\ngini = 0.428\nsamples = 171\nvalue = [53, 118]\nclass = parallelizable", fillcolor="#399de58c"] ;
68 -> 184 ;
185 [label="(...)", fillcolor="#C0C0C0"] ;
184 -> 185 ;
194 [label="(...)", fillcolor="#C0C0C0"] ;
184 -> 194 ;
231 [label="critical-payload-non-cf-cohesion <= 0.15\ngini = 0.191\nsamples = 28\nvalue = [25, 3]\nclass = non-parallelizable", fillcolor="#e58139e0"] ;
65 -> 231 ;
232 [label="critical-payload-mem-dependencies-number <= 14.0\ngini = 0.074\nsamples = 26\nvalue = [25, 1]\nclass = non-parallelizable", fillcolor="#e58139f5"] ;
231 -> 232 ;
233 [label="gini = 0.0\nsamples = 23\nvalue = [23, 0]\nclass = non-parallelizable", fillcolor="#e58139ff"] ;
232 -> 233 ;
234 [label="payload-output-dependencies-number <= 10.0\ngini = 0.444\nsamples = 3\nvalue = [2, 1]\nclass = non-parallelizable", fillcolor="#e581397f"] ;
232 -> 234 ;
235 [label="(...)", fillcolor="#C0C0C0"] ;
234 -> 235 ;
236 [label="(...)", fillcolor="#C0C0C0"] ;
234 -> 236 ;
237 [label="gini = 0.0\nsamples = 2\nvalue = [0, 2]\nclass = parallelizable", fillcolor="#399de5ff"] ;
231 -> 237 ;
238 [label="payload-mem-write-fraction <= 0.024\ngini = 0.219\nsamples = 64\nvalue = [56, 8]\nclass = non-parallelizable", fillcolor="#e58139db"] ;
64 -> 238 ;
239 [label="gini = 0.0\nsamples = 3\nvalue = [0, 3]\nclass = parallelizable", fillcolor="#399de5ff"] ;
238 -> 239 ;
240 [label="payload-cross-dependencies-number <= 1.5\ngini = 0.15\nsamples = 61\nvalue = [56, 5]\nclass = non-parallelizable", fillcolor="#e58139e8"] ;
238 -> 240 ;
241 [label="critical-payload-non-cf-cohesion <= 0.271\ngini = 0.097\nsamples = 59\nvalue = [56, 3]\nclass = non-parallelizable", fillcolor="#e58139f1"] ;
240 -> 241 ;
242 [label="iterator-payload-total-cohesion <= 0.466\ngini = 0.067\nsamples = 58\nvalue = [56, 2]\nclass = non-parallelizable", fillcolor="#e58139f6"] ;
241 -> 242 ;
243 [label="(...)", fillcolor="#C0C0C0"] ;
242 -> 243 ;
248 [label="(...)", fillcolor="#C0C0C0"] ;
242 -> 248 ;
251 [label="gini = 0.0\nsamples = 1\nvalue = [0, 1]\nclass = parallelizable", fillcolor="#399de5ff"] ;
241 -> 251 ;
252 [label="gini = 0.0\nsamples = 2\nvalue = [0, 2]\nclass = parallelizable", fillcolor="#399de5ff"] ;
240 -> 252 ;
}