digraph Tree {
node [shape=box, style="filled, rounded", color="black", fontname=helvetica] ;
edge [fontname=helvetica] ;
0 [label="payload-call-fraction <= 0.0\ngini = 0.493\nsamples = 1136\nvalue = [501, 635]\nclass = parallelizable", fillcolor="#399de536"] ;
1 [label="iterator-payload-non-cf-cohesion <= 0.034\ngini = 0.42\nsamples = 873\nvalue = [262, 611]\nclass = parallelizable", fillcolor="#399de592"] ;
0 -> 1 [labeldistance=2.5, labelangle=45, headlabel="True"] ;
2 [label="critical-payload-true-dependencies-number <= 22.0\ngini = 0.475\nsamples = 325\nvalue = [199, 126]\nclass = non-parallelizable", fillcolor="#e581395e"] ;
1 -> 2 ;
3 [label="critical-payload-total-cohesion <= 0.212\ngini = 0.498\nsamples = 268\nvalue = [143, 125]\nclass = non-parallelizable", fillcolor="#e5813920"] ;
2 -> 3 ;
4 [label="(...)", fillcolor="#C0C0C0"] ;
3 -> 4 ;
41 [label="(...)", fillcolor="#C0C0C0"] ;
3 -> 41 ;
78 [label="critical-payload-total-cohesion <= 0.5\ngini = 0.034\nsamples = 57\nvalue = [56, 1]\nclass = non-parallelizable", fillcolor="#e58139fa"] ;
2 -> 78 ;
79 [label="(...)", fillcolor="#C0C0C0"] ;
78 -> 79 ;
80 [label="(...)", fillcolor="#C0C0C0"] ;
78 -> 80 ;
81 [label="loop-payload-fraction <= 0.515\ngini = 0.203\nsamples = 548\nvalue = [63, 485]\nclass = parallelizable", fillcolor="#399de5de"] ;
1 -> 81 ;
82 [label="iterator-mem-read-fraction <= 0.127\ngini = 0.426\nsamples = 13\nvalue = [9, 4]\nclass = non-parallelizable", fillcolor="#e581398e"] ;
81 -> 82 ;
83 [label="(...)", fillcolor="#C0C0C0"] ;
82 -> 83 ;
84 [label="(...)", fillcolor="#C0C0C0"] ;
82 -> 84 ;
89 [label="critical-payload-getelemptr-count <= 1.5\ngini = 0.181\nsamples = 535\nvalue = [54, 481]\nclass = parallelizable", fillcolor="#399de5e2"] ;
81 -> 89 ;
90 [label="(...)", fillcolor="#C0C0C0"] ;
89 -> 90 ;
171 [label="(...)", fillcolor="#C0C0C0"] ;
89 -> 171 ;
172 [label="critical-payload-non-cf-cohesion <= 0.158\ngini = 0.166\nsamples = 263\nvalue = [239, 24]\nclass = non-parallelizable", fillcolor="#e58139e5"] ;
0 -> 172 [labeldistance=2.5, labelangle=-45, headlabel="False"] ;
173 [label="payload-mem-write-fraction <= 0.047\ngini = 0.144\nsamples = 257\nvalue = [237, 20]\nclass = non-parallelizable", fillcolor="#e58139e9"] ;
172 -> 173 ;
174 [label="payload-call-count <= 4.5\ngini = 0.361\nsamples = 55\nvalue = [42, 13]\nclass = non-parallelizable", fillcolor="#e58139b0"] ;
173 -> 174 ;
175 [label="(...)", fillcolor="#C0C0C0"] ;
174 -> 175 ;
186 [label="(...)", fillcolor="#C0C0C0"] ;
174 -> 186 ;
189 [label="iterator-payload-total-cohesion <= 0.522\ngini = 0.067\nsamples = 202\nvalue = [195, 7]\nclass = non-parallelizable", fillcolor="#e58139f6"] ;
173 -> 189 ;
190 [label="(...)", fillcolor="#C0C0C0"] ;
189 -> 190 ;
203 [label="(...)", fillcolor="#C0C0C0"] ;
189 -> 203 ;
206 [label="payload-mem-read-fraction <= 0.15\ngini = 0.444\nsamples = 6\nvalue = [2, 4]\nclass = parallelizable", fillcolor="#399de57f"] ;
172 -> 206 ;
207 [label="gini = 0.0\nsamples = 4\nvalue = [0, 4]\nclass = parallelizable", fillcolor="#399de5ff"] ;
206 -> 207 ;
208 [label="gini = 0.0\nsamples = 2\nvalue = [2, 0]\nclass = non-parallelizable", fillcolor="#e58139ff"] ;
206 -> 208 ;
}